digraph Tree {
node [shape=box, fontname="helvetica"] ;
edge [fontname="helvetica"] ;
0 [label="t2_h2h_total5_fl_match_lost <= 2.5\ngini = 0.488\nsamples = 21911\nvalue = [12630, 9281]"] ;
1 [label="t2_h2h_total10_fl_match_win <= 4.5\ngini = 0.478\nsamples = 17910\nvalue = [10815, 7095]"] ;
0 -> 1 [labeldistance=2.5, labelangle=45, headlabel="True"] ;
2 [label="t1_all_total10_fl_match_win <= 5.5\ngini = 0.487\nsamples = 14853\nvalue = [8643, 6210]"] ;
1 -> 2 ;
3 [label="t2_all_total10_fl_match_win <= 2.5\ngini = 0.481\nsamples = 13378\nvalue = [7988, 5390]"] ;
2 -> 3 ;
4 [label="t1_all_total10_fl_match_win <= 3.5\ngini = 0.494\nsamples = 6294\nvalue = [3501, 2793]"] ;
3 -> 4 ;
5 [label="t1_home_total10_fl_match_lost <= 3.5\ngini = 0.489\nsamples = 5053\nvalue = [2893, 2160]"] ;
4 -> 5 ;
6 [label="t2_all_total10_fl_match_lost <= 0.5\ngini = 0.493\nsamples = 4267\nvalue = [2393, 1874]"] ;
5 -> 6 ;
7 [label="t1_all_total5_fl_match_win <= 2.5\ngini = 0.475\nsamples = 1207\nvalue = [739, 468]"] ;
6 -> 7 ;
8 [label="t1_h2h_total10_fl_match_draw <= 0.5\ngini = 0.473\nsamples = 1188\nvalue = [733, 455]"] ;
7 -> 8 ;
9 [label="id_match_competition <= 69.0\ngini = 0.489\nsamples = 517\nvalue = [297, 220]"] ;
8 -> 9 ;
10 [label="t2_all_total5_fl_match_draw <= 0.5\ngini = 0.444\nsamples = 18\nvalue = [6, 12]"] ;
9 -> 10 ;
11 [label="t2_h2h_total5_fl_match_win <= 1.5\ngini = 0.375\nsamples = 16\nvalue = [4, 12]"] ;
10 -> 11 ;
12 [label="t2_h2h_total10_fl_match_lost <= 1.5\ngini = 0.444\nsamples = 12\nvalue = [4, 8]"] ;
11 -> 12 ;
13 [label="t2_h2h_total5_fl_match_win <= 0.5\ngini = 0.397\nsamples = 11\nvalue = [3, 8]"] ;
12 -> 13 ;
14 [label="t2_h2h_total10_fl_match_lost <= 0.5\ngini = 0.444\nsamples = 9\nvalue = [3, 6]"] ;
13 -> 14 ;
15 [label="t1_all_total5_fl_match_draw <= 0.5\ngini = 0.469\nsamples = 8\nvalue = [3, 5]"] ;
14 -> 15 ;
16 [label="id_match_competition <= 55.5\ngini = 0.49\nsamples = 7\nvalue = [3, 4]"] ;
15 -> 16 ;
17 [label="gini = 0.0\nsamples = 1\nvalue = [1, 0]"] ;
16 -> 17 ;
18 [label="t1_all_total10_fl_match_lost <= 0.5\ngini = 0.444\nsamples = 6\nvalue = [2, 4]"] ;
16 -> 18 ;
19 [label="gini = 0.444\nsamples = 3\nvalue = [1, 2]"] ;
18 -> 19 ;
20 [label="gini = 0.444\nsamples = 3\nvalue = [1, 2]"] ;
18 -> 20 ;
21 [label="gini = 0.0\nsamples = 1\nvalue = [0, 1]"] ;
15 -> 21 ;
22 [label="gini = 0.0\nsamples = 1\nvalue = [0, 1]"] ;
14 -> 22 ;
23 [label="gini = 0.0\nsamples = 2\nvalue = [0, 2]"] ;
13 -> 23 ;
24 [label="gini = 0.0\nsamples = 1\nvalue = [1, 0]"] ;
12 -> 24 ;
25 [label="gini = 0.0\nsamples = 4\nvalue = [0, 4]"] ;
11 -> 25 ;
26 [label="gini = 0.0\nsamples = 2\nvalue = [2, 0]"] ;
10 -> 26 ;
27 [label="id_match_competition <= 125.5\ngini = 0.486\nsamples = 499\nvalue = [291, 208]"] ;
9 -> 27 ;
28 [label="t2_all_total5_fl_match_draw <= 2.5\ngini = 0.413\nsamples = 79\nvalue = [56, 23]"] ;
27 -> 28 ;
29 [label="t1_h2h_total10_fl_match_win <= 1.5\ngini = 0.388\nsamples = 76\nvalue = [56, 20]"] ;
28 -> 29 ;
30 [label="t1_home_total10_fl_match_draw <= 0.5\ngini = 0.348\nsamples = 67\nvalue = [52, 15]"] ;
29 -> 30 ;
31 [label="t2_all_total5_fl_match_draw <= 1.5\ngini = 0.367\nsamples = 62\nvalue = [47, 15]"] ;
30 -> 31 ;
32 [label="t1_home_total10_fl_match_win <= 0.5\ngini = 0.354\nsamples = 61\nvalue = [47, 14]"] ;
31 -> 32 ;
33 [label="id_match_competition <= 74.5\ngini = 0.384\nsamples = 54\nvalue = [40, 14]"] ;
32 -> 33 ;
34 [label="id_match_competition <= 73.0\ngini = 0.494\nsamples = 9\nvalue = [5, 4]"] ;
33 -> 34 ;
35 [label="t1_home_total5_fl_match_lost <= 0.5\ngini = 0.408\nsamples = 7\nvalue = [5, 2]"] ;
34 -> 35 ;
36 [label="t1_h2h_total5_fl_match_win <= 0.5\ngini = 0.278\nsamples = 6\nvalue = [5, 1]"] ;
35 -> 36 ;
37 [label="gini = 0.32\nsamples = 5\nvalue = [4, 1]"] ;
36 -> 37 ;
38 [label="gini = 0.0\nsamples = 1\nvalue = [1, 0]"] ;
36 -> 38 ;
39 [label="gini = 0.0\nsamples = 1\nvalue = [0, 1]"] ;
35 -> 39 ;
40 [label="gini = 0.0\nsamples = 2\nvalue = [0, 2]"] ;
34 -> 40 ;
41 [label="id_match_competition <= 98.5\ngini = 0.346\nsamples = 45\nvalue = [35, 10]"] ;
33 -> 41 ;
42 [label="t1_home_total10_fl_match_lost <= 0.5\ngini = 0.133\nsamples = 14\nvalue = [13, 1]"] ;
41 -> 42 ;
43 [label="gini = 0.0\nsamples = 10\nvalue = [10, 0]"] ;
42 -> 43 ;
44 [label="t2_h2h_total10_fl_match_win <= 0.5\ngini = 0.375\nsamples = 4\nvalue = [3, 1]"] ;
42 -> 44 ;
45 [label="gini = 0.0\nsamples = 3\nvalue = [3, 0]"] ;
44 -> 45 ;
46 [label="gini = 0.0\nsamples = 1\nvalue = [0, 1]"] ;
44 -> 46 ;
47 [label="t1_all_total10_fl_match_draw <= 0.5\ngini = 0.412\nsamples = 31\nvalue = [22, 9]"] ;
41 -> 47 ;
48 [label="id_match_competition <= 105.0\ngini = 0.375\nsamples = 28\nvalue = [21, 7]"] ;
47 -> 48 ;
49 [label="t2_h2h_total5_fl_match_win <= 0.5\ngini = 0.48\nsamples = 15\nvalue = [9, 6]"] ;
48 -> 49 ;
50 [label="t1_all_total5_fl_match_win <= 0.5\ngini = 0.397\nsamples = 11\nvalue = [8, 3]"] ;
49 -> 50 ;
51 [label="t1_all_total5_fl_match_lost <= 0.5\ngini = 0.32\nsamples = 10\nvalue = [8, 2]"] ;
50 -> 51 ;
52 [label="id_match_competition <= 99.5\ngini = 0.408\nsamples = 7\nvalue = [5, 2]"] ;
51 -> 52 ;
53 [label="gini = 0.0\nsamples = 1\nvalue = [1, 0]"] ;
52 -> 53 ;
54 [label="gini = 0.444\nsamples = 6\nvalue = [4, 2]"] ;
52 -> 54 ;
55 [label="gini = 0.0\nsamples = 3\nvalue = [3, 0]"] ;
51 -> 55 ;
56 [label="gini = 0.0\nsamples = 1\nvalue = [0, 1]"] ;
50 -> 56 ;
57 [label="t2_h2h_away_total10_fl_match_win <= 1.5\ngini = 0.375\nsamples = 4\nvalue = [1, 3]"] ;
49 -> 57 ;
58 [label="gini = 0.0\nsamples = 2\nvalue = [0, 2]"] ;
57 -> 58 ;
59 [label="id_match_competition <= 99.5\ngini = 0.5\nsamples = 2\nvalue = [1, 1]"] ;
57 -> 59 ;
60 [label="gini = 0.0\nsamples = 1\nvalue = [1, 0]"] ;
59 -> 60 ;
61 [label="gini = 0.0\nsamples = 1\nvalue = [0, 1]"] ;
59 -> 61 ;
62 [label="t2_all_total5_fl_match_win <= 0.5\ngini = 0.142\nsamples = 13\nvalue = [12, 1]"] ;
48 -> 62 ;
63 [label="id_match_competition <= 116.5\ngini = 0.219\nsamples = 8\nvalue = [7, 1]"] ;
62 -> 63 ;
64 [label="gini = 0.0\nsamples = 2\nvalue = [2, 0]"] ;
63 -> 64 ;
65 [label="t2_h2h_away_total5_fl_match_lost <= 0.5\ngini = 0.278\nsamples = 6\nvalue = [5, 1]"] ;
63 -> 65 ;
66 [label="t1_all_total5_fl_match_lost <= 0.5\ngini = 0.32\nsamples = 5\nvalue = [4, 1]"] ;
65 -> 66 ;
67 [label="id_match_competition <= 124.0\ngini = 0.375\nsamples = 4\nvalue = [3, 1]"] ;
66 -> 67 ;
68 [label="gini = 0.444\nsamples = 3\nvalue = [2, 1]"] ;
67 -> 68 ;
69 [label="gini = 0.0\nsamples = 1\nvalue = [1, 0]"] ;
67 -> 69 ;
70 [label="gini = 0.0\nsamples = 1\nvalue = [1, 0]"] ;
66 -> 70 ;
71 [label="gini = 0.0\nsamples = 1\nvalue = [1, 0]"] ;
65 -> 71 ;
72 [label="gini = 0.0\nsamples = 5\nvalue = [5, 0]"] ;
62 -> 72 ;
73 [label="t2_h2h_total10_fl_match_win <= 1.0\ngini = 0.444\nsamples = 3\nvalue = [1, 2]"] ;
47 -> 73 ;
74 [label="gini = 0.0\nsamples = 2\nvalue = [0, 2]"] ;
73 -> 74 ;
75 [label="gini = 0.0\nsamples = 1\nvalue = [1, 0]"] ;
73 -> 75 ;
76 [label="gini = 0.0\nsamples = 7\nvalue = [7, 0]"] ;
32 -> 76 ;
77 [label="gini = 0.0\nsamples = 1\nvalue = [0, 1]"] ;
31 -> 77 ;
78 [label="gini = 0.0\nsamples = 5\nvalue = [5, 0]"] ;
30 -> 78 ;
79 [label="id_match_competition <= 77.0\ngini = 0.494\nsamples = 9\nvalue = [4, 5]"] ;
29 -> 79 ;
80 [label="gini = 0.0\nsamples = 2\nvalue = [2, 0]"] ;
79 -> 80 ;
81 [label="t2_all_total10_fl_match_win <= 0.5\ngini = 0.408\nsamples = 7\nvalue = [2, 5]"] ;
79 -> 81 ;
82 [label="t2_h2h_away_total5_fl_match_lost <= 1.5\ngini = 0.5\nsamples = 4\nvalue = [2, 2]"] ;
81 -> 82 ;
83 [label="t2_h2h_total5_fl_match_lost <= 1.5\ngini = 0.444\nsamples = 3\nvalue = [1, 2]"] ;
82 -> 83 ;
84 [label="gini = 0.5\nsamples = 2\nvalue = [1, 1]"] ;
83 -> 84 ;
85 [label="gini = 0.0\nsamples = 1\nvalue = [0, 1]"] ;
83 -> 85 ;
86 [label="gini = 0.0\nsamples = 1\nvalue = [1, 0]"] ;
82 -> 86 ;
87 [label="gini = 0.0\nsamples = 3\nvalue = [0, 3]"] ;
81 -> 87 ;
88 [label="gini = 0.0\nsamples = 3\nvalue = [0, 3]"] ;
28 -> 88 ;
89 [label="t1_all_total5_fl_match_draw <= 0.5\ngini = 0.493\nsamples = 420\nvalue = [235, 185]"] ;
27 -> 89 ;
90 [label="t2_all_total5_fl_match_win <= 0.5\ngini = 0.498\nsamples = 305\nvalue = [161, 144]"] ;
89 -> 90 ;
91 [label="t1_all_total5_fl_match_win <= 1.5\ngini = 0.5\nsamples = 225\nvalue = [112, 113]"] ;
90 -> 91 ;
92 [label="t2_all_total10_fl_match_draw <= 0.5\ngini = 0.5\nsamples = 221\nvalue = [108, 113]"] ;
91 -> 92 ;
93 [label="t2_h2h_away_total10_fl_match_win <= 0.5\ngini = 0.5\nsamples = 179\nvalue = [92, 87]"] ;
92 -> 93 ;
94 [label="id_match_competition <= 235.5\ngini = 0.496\nsamples = 151\nvalue = [82, 69]"] ;
93 -> 94 ;
95 [label="t2_h2h_total5_fl_match_lost <= 0.5\ngini = 0.499\nsamples = 67\nvalue = [32, 35]"] ;
94 -> 95 ;
96 [label="id_match_competition <= 222.0\ngini = 0.486\nsamples = 53\nvalue = [22, 31]"] ;
95 -> 96 ;
97 [label="t1_h2h_total10_fl_match_lost <= 0.5\ngini = 0.491\nsamples = 51\nvalue = [22, 29]"] ;
96 -> 97 ;
98 [label="id_match_competition <= 154.0\ngini = 0.487\nsamples = 50\nvalue = [21, 29]"] ;
97 -> 98 ;
99 [label="id_match_competition <= 139.5\ngini = 0.49\nsamples = 7\nvalue = [4, 3]"] ;
98 -> 99 ;
100 [label="gini = 0.5\nsamples = 4\nvalue = [2, 2]"] ;
99 -> 100 ;
101 [label="gini = 0.444\nsamples = 3\nvalue = [2, 1]"] ;
99 -> 101 ;
102 [label="id_match_competition <= 201.0\ngini = 0.478\nsamples = 43\nvalue = [17, 26]"] ;
98 -> 102 ;
103 [label="id_match_competition <= 194.5\ngini = 0.434\nsamples = 22\nvalue = [7, 15]"] ;
102 -> 103 ;
104 [label="t1_all_total5_fl_match_win <= 0.5\ngini = 0.455\nsamples = 20\nvalue = [7, 13]"] ;
103 -> 104 ;
105 [label="id_match_competition <= 173.5\ngini = 0.465\nsamples = 19\nvalue = [7, 12]"] ;
104 -> 105 ;
106 [label="id_match_competition <= 172.5\ngini = 0.42\nsamples = 10\nvalue = [3, 7]"] ;
105 -> 106 ;
107 [label="id_match_competition <= 169.0\ngini = 0.469\nsamples = 8\nvalue = [3, 5]"] ;
106 -> 107 ;
108 [label="id_match_competition <= 160.5\ngini = 0.444\nsamples = 6\nvalue = [2, 4]"] ;
107 -> 108 ;
109 [label="gini = 0.48\nsamples = 5\nvalue = [2, 3]"] ;
108 -> 109 ;
110 [label="gini = 0.0\nsamples = 1\nvalue = [0, 1]"] ;
108 -> 110 ;
111 [label="gini = 0.5\nsamples = 2\nvalue = [1, 1]"] ;
107 -> 111 ;
112 [label="gini = 0.0\nsamples = 2\nvalue = [0, 2]"] ;
106 -> 112 ;
113 [label="id_match_competition <= 174.5\ngini = 0.494\nsamples = 9\nvalue = [4, 5]"] ;
105 -> 113 ;
114 [label="gini = 0.0\nsamples = 1\nvalue = [1, 0]"] ;
113 -> 114 ;
115 [label="id_match_competition <= 182.0\ngini = 0.469\nsamples = 8\nvalue = [3, 5]"] ;
113 -> 115 ;
116 [label="gini = 0.0\nsamples = 1\nvalue = [0, 1]"] ;
115 -> 116 ;
117 [label="id_match_competition <= 189.5\ngini = 0.49\nsamples = 7\nvalue = [3, 4]"] ;
115 -> 117 ;
118 [label="gini = 0.0\nsamples = 1\nvalue = [1, 0]"] ;
117 -> 118 ;
119 [label="gini = 0.444\nsamples = 6\nvalue = [2, 4]"] ;
117 -> 119 ;
120 [label="gini = 0.0\nsamples = 1\nvalue = [0, 1]"] ;
104 -> 120 ;
121 [label="gini = 0.0\nsamples = 2\nvalue = [0, 2]"] ;
103 -> 121 ;
122 [label="id_match_competition <= 214.5\ngini = 0.499\nsamples = 21\nvalue = [10, 11]"] ;
102 -> 122 ;
123 [label="id_match_competition <= 210.5\ngini = 0.375\nsamples = 4\nvalue = [3, 1]"] ;
122 -> 123 ;
124 [label="id_match_competition <= 205.0\ngini = 0.5\nsamples = 2\nvalue = [1, 1]"] ;
123 -> 124 ;
125 [label="gini = 0.0\nsamples = 1\nvalue = [1, 0]"] ;
124 -> 125 ;
126 [label="gini = 0.0\nsamples = 1\nvalue = [0, 1]"] ;
124 -> 126 ;
127 [label="gini = 0.0\nsamples = 2\nvalue = [2, 0]"] ;
123 -> 127 ;
128 [label="id_match_competition <= 217.0\ngini = 0.484\nsamples = 17\nvalue = [7, 10]"] ;
122 -> 128 ;
129 [label="t1_all_total10_fl_match_win <= 0.5\ngini = 0.32\nsamples = 5\nvalue = [1, 4]"] ;
128 -> 129 ;
130 [label="gini = 0.0\nsamples = 4\nvalue = [0, 4]"] ;
129 -> 130 ;
131 [label="gini = 0.0\nsamples = 1\nvalue = [1, 0]"] ;
129 -> 131 ;
132 [label="id_match_competition <= 220.0\ngini = 0.5\nsamples = 12\nvalue = [6, 6]"] ;
128 -> 132 ;
133 [label="gini = 0.0\nsamples = 2\nvalue = [2, 0]"] ;
132 -> 133 ;
134 [label="t1_all_total10_fl_match_win <= 0.5\ngini = 0.48\nsamples = 10\nvalue = [4, 6]"] ;
132 -> 134 ;
135 [label="gini = 0.494\nsamples = 9\nvalue = [4, 5]"] ;
134 -> 135 ;
136 [label="gini = 0.0\nsamples = 1\nvalue = [0, 1]"] ;
134 -> 136 ;
137 [label="gini = 0.0\nsamples = 1\nvalue = [1, 0]"] ;
97 -> 137 ;
138 [label="gini = 0.0\nsamples = 2\nvalue = [0, 2]"] ;
96 -> 138 ;
139 [label="id_match_competition <= 179.0\ngini = 0.408\nsamples = 14\nvalue = [10, 4]"] ;
95 -> 139 ;
140 [label="id_match_competition <= 163.5\ngini = 0.48\nsamples = 5\nvalue = [2, 3]"] ;
139 -> 140 ;
141 [label="t1_h2h_total5_fl_match_win <= 1.5\ngini = 0.444\nsamples = 3\nvalue = [2, 1]"] ;
140 -> 141 ;
142 [label="gini = 0.5\nsamples = 2\nvalue = [1, 1]"] ;
141 -> 142 ;
143 [label="gini = 0.0\nsamples = 1\nvalue = [1, 0]"] ;
141 -> 143 ;
144 [label="gini = 0.0\nsamples = 2\nvalue = [0, 2]"] ;
140 -> 144 ;
145 [label="id_match_competition <= 220.0\ngini = 0.198\nsamples = 9\nvalue = [8, 1]"] ;
139 -> 145 ;
146 [label="gini = 0.0\nsamples = 7\nvalue = [7, 0]"] ;
145 -> 146 ;
147 [label="gini = 0.5\nsamples = 2\nvalue = [1, 1]"] ;
145 -> 147 ;
148 [label="id_match_competition <= 533.5\ngini = 0.482\nsamples = 84\nvalue = [50, 34]"] ;
94 -> 148 ;
149 [label="id_match_competition <= 438.5\ngini = 0.404\nsamples = 32\nvalue = [23, 9]"] ;
148 -> 149 ;
150 [label="id_match_competition <= 248.5\ngini = 0.435\nsamples = 25\nvalue = [17, 8]"] ;
149 -> 150 ;
151 [label="id_match_competition <= 242.5\ngini = 0.32\nsamples = 10\nvalue = [8, 2]"] ;
150 -> 151 ;
152 [label="t1_h2h_home_total10_fl_match_win <= 2.5\ngini = 0.444\nsamples = 6\nvalue = [4, 2]"] ;
151 -> 152 ;
153 [label="t2_h2h_total5_fl_match_lost <= 0.5\ngini = 0.48\nsamples = 5\nvalue = [3, 2]"] ;
152 -> 153 ;
154 [label="gini = 0.375\nsamples = 4\nvalue = [3, 1]"] ;
153 -> 154 ;
155 [label="gini = 0.0\nsamples = 1\nvalue = [0, 1]"] ;
153 -> 155 ;
156 [label="gini = 0.0\nsamples = 1\nvalue = [1, 0]"] ;
152 -> 156 ;
157 [label="gini = 0.0\nsamples = 4\nvalue = [4, 0]"] ;
151 -> 157 ;
158 [label="t1_h2h_home_total5_fl_match_win <= 1.5\ngini = 0.48\nsamples = 15\nvalue = [9, 6]"] ;
150 -> 158 ;
159 [label="id_match_competition <= 255.5\ngini = 0.49\nsamples = 14\nvalue = [8, 6]"] ;
158 -> 159 ;
160 [label="gini = 0.0\nsamples = 1\nvalue = [0, 1]"] ;
159 -> 160 ;
161 [label="id_match_competition <= 292.5\ngini = 0.473\nsamples = 13\nvalue = [8, 5]"] ;
159 -> 161 ;
162 [label="gini = 0.0\nsamples = 1\nvalue = [1, 0]"] ;
161 -> 162 ;
163 [label="t1_h2h_home_total5_fl_match_win <= 0.5\ngini = 0.486\nsamples = 12\nvalue = [7, 5]"] ;
161 -> 163 ;
164 [label="id_match_competition <= 369.0\ngini = 0.48\nsamples = 10\nvalue = [6, 4]"] ;
163 -> 164 ;
165 [label="gini = 0.444\nsamples = 9\nvalue = [6, 3]"] ;
164 -> 165 ;
166 [label="gini = 0.0\nsamples = 1\nvalue = [0, 1]"] ;
164 -> 166 ;
167 [label="id_match_competition <= 369.0\ngini = 0.5\nsamples = 2\nvalue = [1, 1]"] ;
163 -> 167 ;
168 [label="gini = 0.0\nsamples = 1\nvalue = [0, 1]"] ;
167 -> 168 ;
169 [label="gini = 0.0\nsamples = 1\nvalue = [1, 0]"] ;
167 -> 169 ;
170 [label="gini = 0.0\nsamples = 1\nvalue = [1, 0]"] ;
158 -> 170 ;
171 [label="id_match_competition <= 497.0\ngini = 0.245\nsamples = 7\nvalue = [6, 1]"] ;
149 -> 171 ;
172 [label="gini = 0.32\nsamples = 5\nvalue = [4, 1]"] ;
171 -> 172 ;
173 [label="gini = 0.0\nsamples = 2\nvalue = [2, 0]"] ;
171 -> 173 ;
174 [label="id_match_competition <= 563.5\ngini = 0.499\nsamples = 52\nvalue = [27, 25]"] ;
148 -> 174 ;
175 [label="gini = 0.0\nsamples = 3\nvalue = [0, 3]"] ;
174 -> 175 ;
176 [label="t1_h2h_home_total5_fl_match_win <= 0.5\ngini = 0.495\nsamples = 49\nvalue = [27, 22]"] ;
174 -> 176 ;
177 [label="t2_h2h_total5_fl_match_win <= 0.5\ngini = 0.478\nsamples = 43\nvalue = [26, 17]"] ;
176 -> 177 ;
178 [label="id_match_competition <= 878.0\ngini = 0.46\nsamples = 39\nvalue = [25, 14]"] ;
177 -> 178 ;
179 [label="id_match_competition <= 838.0\ngini = 0.26\nsamples = 13\nvalue = [11, 2]"] ;
178 -> 179 ;
180 [label="id_match_competition <= 826.0\ngini = 0.375\nsamples = 8\nvalue = [6, 2]"] ;
179 -> 180 ;
181 [label="id_match_competition <= 599.0\ngini = 0.245\nsamples = 7\nvalue = [6, 1]"] ;
180 -> 181 ;
182 [label="gini = 0.0\nsamples = 3\nvalue = [3, 0]"] ;
181 -> 182 ;
183 [label="t1_h2h_total10_fl_match_win <= 0.5\ngini = 0.375\nsamples = 4\nvalue = [3, 1]"] ;
181 -> 183 ;
184 [label="gini = 0.444\nsamples = 3\nvalue = [2, 1]"] ;
183 -> 184 ;
185 [label="gini = 0.0\nsamples = 1\nvalue = [1, 0]"] ;
183 -> 185 ;
186 [label="gini = 0.0\nsamples = 1\nvalue = [0, 1]"] ;
180 -> 186 ;
187 [label="gini = 0.0\nsamples = 5\nvalue = [5, 0]"] ;
179 -> 187 ;
188 [label="id_match_competition <= 880.5\ngini = 0.497\nsamples = 26\nvalue = [14, 12]"] ;
178 -> 188 ;
189 [label="gini = 0.0\nsamples = 2\nvalue = [0, 2]"] ;
188 -> 189 ;
190 [label="id_match_competition <= 907.0\ngini = 0.486\nsamples = 24\nvalue = [14, 10]"] ;
188 -> 190 ;
191 [label="id_match_competition <= 888.0\ngini = 0.397\nsamples = 11\nvalue = [8, 3]"] ;
190 -> 191 ;
192 [label="gini = 0.5\nsamples = 2\nvalue = [1, 1]"] ;
191 -> 192 ;
193 [label="id_match_competition <= 899.5\ngini = 0.346\nsamples = 9\nvalue = [7, 2]"] ;
191 -> 193 ;
194 [label="gini = 0.375\nsamples = 4\nvalue = [3, 1]"] ;
193 -> 194 ;
195 [label="gini = 0.32\nsamples = 5\nvalue = [4, 1]"] ;
193 -> 195 ;
196 [label="id_match_competition <= 1002.5\ngini = 0.497\nsamples = 13\nvalue = [6, 7]"] ;
190 -> 196 ;
197 [label="id_match_competition <= 913.0\ngini = 0.375\nsamples = 4\nvalue = [1, 3]"] ;
196 -> 197 ;
198 [label="gini = 0.0\nsamples = 1\nvalue = [0, 1]"] ;
197 -> 198 ;
199 [label="gini = 0.444\nsamples = 3\nvalue = [1, 2]"] ;
197 -> 199 ;
200 [label="id_match_competition <= 15376.5\ngini = 0.494\nsamples = 9\nvalue = [5, 4]"] ;
196 -> 200 ;
201 [label="id_match_competition <= 1090.5\ngini = 0.469\nsamples = 8\nvalue = [5, 3]"] ;
200 -> 201 ;
202 [label="gini = 0.0\nsamples = 1\nvalue = [1, 0]"] ;
201 -> 202 ;
203 [label="id_match_competition <= 1409.5\ngini = 0.49\nsamples = 7\nvalue = [4, 3]"] ;
201 -> 203 ;
204 [label="gini = 0.0\nsamples = 1\nvalue = [0, 1]"] ;
203 -> 204 ;
205 [label="id_match_competition <= 5170.0\ngini = 0.444\nsamples = 6\nvalue = [4, 2]"] ;
203 -> 205 ;
206 [label="gini = 0.0\nsamples = 1\nvalue = [1, 0]"] ;
205 -> 206 ;
207 [label="id_match_competition <= 8761.5\ngini = 0.48\nsamples = 5\nvalue = [3, 2]"] ;
205 -> 207 ;
208 [label="gini = 0.0\nsamples = 1\nvalue = [0, 1]"] ;
207 -> 208 ;
209 [label="gini = 0.375\nsamples = 4\nvalue = [3, 1]"] ;
207 -> 209 ;
210 [label="gini = 0.0\nsamples = 1\nvalue = [0, 1]"] ;
200 -> 210 ;
211 [label="id_match_competition <= 972.5\ngini = 0.375\nsamples = 4\nvalue = [1, 3]"] ;
177 -> 211 ;
212 [label="gini = 0.0\nsamples = 3\nvalue = [0, 3]"] ;
211 -> 212 ;
213 [label="gini = 0.0\nsamples = 1\nvalue = [1, 0]"] ;
211 -> 213 ;
214 [label="t1_h2h_home_total5_fl_match_win <= 1.5\ngini = 0.278\nsamples = 6\nvalue = [1, 5]"] ;
176 -> 214 ;
215 [label="gini = 0.0\nsamples = 5\nvalue = [0, 5]"] ;
214 -> 215 ;
216 [label="gini = 0.0\nsamples = 1\nvalue = [1, 0]"] ;
214 -> 216 ;
217 [label="id_match_competition <= 205.0\ngini = 0.459\nsamples = 28\nvalue = [10, 18]"] ;
93 -> 217 ;
218 [label="gini = 0.0\nsamples = 3\nvalue = [0, 3]"] ;
217 -> 218 ;
219 [label="id_match_competition <= 292.5\ngini = 0.48\nsamples = 25\nvalue = [10, 15]"] ;
217 -> 219 ;
220 [label="t1_h2h_home_total10_fl_match_lost <= 1.5\ngini = 0.444\nsamples = 9\nvalue = [6, 3]"] ;
219 -> 220 ;
221 [label="t1_h2h_total5_fl_match_win <= 0.5\ngini = 0.278\nsamples = 6\nvalue = [5, 1]"] ;
220 -> 221 ;
222 [label="id_match_competition <= 239.0\ngini = 0.5\nsamples = 2\nvalue = [1, 1]"] ;
221 -> 222 ;
223 [label="gini = 0.0\nsamples = 1\nvalue = [0, 1]"] ;
222 -> 223 ;
224 [label="gini = 0.0\nsamples = 1\nvalue = [1, 0]"] ;
222 -> 224 ;
225 [label="gini = 0.0\nsamples = 4\nvalue = [4, 0]"] ;
221 -> 225 ;
226 [label="t1_h2h_total10_fl_match_lost <= 3.0\ngini = 0.444\nsamples = 3\nvalue = [1, 2]"] ;
220 -> 226 ;
227 [label="gini = 0.0\nsamples = 1\nvalue = [0, 1]"] ;
226 -> 227 ;
228 [label="gini = 0.5\nsamples = 2\nvalue = [1, 1]"] ;
226 -> 228 ;
229 [label="id_match_competition <= 599.0\ngini = 0.375\nsamples = 16\nvalue = [4, 12]"] ;
219 -> 229 ;
230 [label="gini = 0.0\nsamples = 6\nvalue = [0, 6]"] ;
229 -> 230 ;
231 [label="t2_h2h_total10_fl_match_win <= 2.5\ngini = 0.48\nsamples = 10\nvalue = [4, 6]"] ;
229 -> 231 ;
232 [label="t1_h2h_total5_fl_match_lost <= 1.5\ngini = 0.444\nsamples = 9\nvalue = [3, 6]"] ;
231 -> 232 ;
233 [label="id_match_competition <= 972.5\ngini = 0.444\nsamples = 3\nvalue = [2, 1]"] ;
232 -> 233 ;
234 [label="gini = 0.0\nsamples = 2\nvalue = [2, 0]"] ;
233 -> 234 ;
235 [label="gini = 0.0\nsamples = 1\nvalue = [0, 1]"] ;
233 -> 235 ;
236 [label="id_match_competition <= 743.5\ngini = 0.278\nsamples = 6\nvalue = [1, 5]"] ;
232 -> 236 ;
237 [label="gini = 0.444\nsamples = 3\nvalue = [1, 2]"] ;
236 -> 237 ;
238 [label="gini = 0.0\nsamples = 3\nvalue = [0, 3]"] ;
236 -> 238 ;
239 [label="gini = 0.0\nsamples = 1\nvalue = [1, 0]"] ;
231 -> 239 ;
240 [label="t1_h2h_total5_fl_match_win <= 1.5\ngini = 0.472\nsamples = 42\nvalue = [16, 26]"] ;
92 -> 240 ;
241 [label="id_match_competition <= 912.0\ngini = 0.491\nsamples = 37\nvalue = [16, 21]"] ;
240 -> 241 ;
242 [label="id_match_competition <= 438.5\ngini = 0.5\nsamples = 30\nvalue = [15, 15]"] ;
241 -> 242 ;
243 [label="id_match_competition <= 210.5\ngini = 0.459\nsamples = 14\nvalue = [5, 9]"] ;
242 -> 243 ;
244 [label="id_match_competition <= 196.0\ngini = 0.49\nsamples = 7\nvalue = [4, 3]"] ;
243 -> 244 ;
245 [label="t1_all_total5_fl_match_win <= 0.5\ngini = 0.48\nsamples = 5\nvalue = [2, 3]"] ;
244 -> 245 ;
246 [label="t2_h2h_total10_fl_match_lost <= 0.5\ngini = 0.444\nsamples = 3\nvalue = [2, 1]"] ;
245 -> 246 ;
247 [label="gini = 0.0\nsamples = 2\nvalue = [2, 0]"] ;
246 -> 247 ;
248 [label="gini = 0.0\nsamples = 1\nvalue = [0, 1]"] ;
246 -> 248 ;
249 [label="gini = 0.0\nsamples = 2\nvalue = [0, 2]"] ;
245 -> 249 ;
250 [label="gini = 0.0\nsamples = 2\nvalue = [2, 0]"] ;
244 -> 250 ;
251 [label="t2_h2h_total10_fl_match_win <= 2.0\ngini = 0.245\nsamples = 7\nvalue = [1, 6]"] ;
243 -> 251 ;
252 [label="gini = 0.0\nsamples = 6\nvalue = [0, 6]"] ;
251 -> 252 ;
253 [label="gini = 0.0\nsamples = 1\nvalue = [1, 0]"] ;
251 -> 253 ;
254 [label="id_match_competition <= 878.0\ngini = 0.469\nsamples = 16\nvalue = [10, 6]"] ;
242 -> 254 ;
255 [label="t2_all_total10_fl_match_draw <= 1.5\ngini = 0.219\nsamples = 8\nvalue = [7, 1]"] ;
254 -> 255 ;
256 [label="gini = 0.0\nsamples = 7\nvalue = [7, 0]"] ;
255 -> 256 ;
257 [label="gini = 0.0\nsamples = 1\nvalue = [0, 1]"] ;
255 -> 257 ;
258 [label="t2_away_total10_fl_match_draw <= 0.5\ngini = 0.469\nsamples = 8\nvalue = [3, 5]"] ;
254 -> 258 ;
259 [label="t2_h2h_away_total5_fl_match_win <= 0.5\ngini = 0.278\nsamples = 6\nvalue = [1, 5]"] ;
258 -> 259 ;
260 [label="gini = 0.0\nsamples = 5\nvalue = [0, 5]"] ;
259 -> 260 ;
261 [label="gini = 0.0\nsamples = 1\nvalue = [1, 0]"] ;
259 -> 261 ;
262 [label="gini = 0.0\nsamples = 2\nvalue = [2, 0]"] ;
258 -> 262 ;
263 [label="t2_h2h_total5_fl_match_lost <= 0.5\ngini = 0.245\nsamples = 7\nvalue = [1, 6]"] ;
241 -> 263 ;
264 [label="gini = 0.0\nsamples = 6\nvalue = [0, 6]"] ;
263 -> 264 ;
265 [label="gini = 0.0\nsamples = 1\nvalue = [1, 0]"] ;
263 -> 265 ;
266 [label="gini = 0.0\nsamples = 5\nvalue = [0, 5]"] ;
240 -> 266 ;
267 [label="gini = 0.0\nsamples = 4\nvalue = [4, 0]"] ;
91 -> 267 ;
268 [label="t2_all_total5_fl_match_draw <= 1.5\ngini = 0.475\nsamples = 80\nvalue = [49, 31]"] ;
90 -> 268 ;
269 [label="id_match_competition <= 902.5\ngini = 0.451\nsamples = 67\nvalue = [44, 23]"] ;
268 -> 269 ;
270 [label="id_match_competition <= 719.0\ngini = 0.483\nsamples = 54\nvalue = [32, 22]"] ;
269 -> 270 ;
271 [label="t2_away_total5_fl_match_draw <= 0.5\ngini = 0.45\nsamples = 41\nvalue = [27, 14]"] ;
270 -> 271 ;
272 [label="id_match_competition <= 540.5\ngini = 0.484\nsamples = 34\nvalue = [20, 14]"] ;
271 -> 272 ;
273 [label="t1_h2h_total5_fl_match_lost <= 0.5\ngini = 0.498\nsamples = 30\nvalue = [16, 14]"] ;
272 -> 273 ;
274 [label="id_match_competition <= 236.0\ngini = 0.497\nsamples = 24\nvalue = [11, 13]"] ;
273 -> 274 ;
275 [label="t1_home_total10_fl_match_lost <= 0.5\ngini = 0.488\nsamples = 19\nvalue = [11, 8]"] ;
274 -> 275 ;
276 [label="id_match_competition <= 217.0\ngini = 0.5\nsamples = 16\nvalue = [8, 8]"] ;
275 -> 276 ;
277 [label="id_match_competition <= 203.0\ngini = 0.486\nsamples = 12\nvalue = [7, 5]"] ;
276 -> 277 ;
278 [label="t2_all_total5_fl_match_win <= 1.5\ngini = 0.494\nsamples = 9\nvalue = [4, 5]"] ;
277 -> 278 ;
279 [label="id_match_competition <= 140.5\ngini = 0.469\nsamples = 8\nvalue = [3, 5]"] ;
278 -> 279 ;
280 [label="gini = 0.0\nsamples = 1\nvalue = [1, 0]"] ;
279 -> 280 ;
281 [label="id_match_competition <= 172.5\ngini = 0.408\nsamples = 7\nvalue = [2, 5]"] ;
279 -> 281 ;
282 [label="gini = 0.0\nsamples = 2\nvalue = [0, 2]"] ;
281 -> 282 ;
283 [label="id_match_competition <= 194.5\ngini = 0.48\nsamples = 5\nvalue = [2, 3]"] ;
281 -> 283 ;
284 [label="id_match_competition <= 181.5\ngini = 0.5\nsamples = 4\nvalue = [2, 2]"] ;
283 -> 284 ;
285 [label="gini = 0.5\nsamples = 2\nvalue = [1, 1]"] ;
284 -> 285 ;
286 [label="gini = 0.5\nsamples = 2\nvalue = [1, 1]"] ;
284 -> 286 ;
287 [label="gini = 0.0\nsamples = 1\nvalue = [0, 1]"] ;
283 -> 287 ;
288 [label="gini = 0.0\nsamples = 1\nvalue = [1, 0]"] ;
278 -> 288 ;
289 [label="gini = 0.0\nsamples = 3\nvalue = [3, 0]"] ;
277 -> 289 ;
290 [label="t1_all_total10_fl_match_win <= 0.5\ngini = 0.375\nsamples = 4\nvalue = [1, 3]"] ;
276 -> 290 ;
291 [label="t2_away_total5_fl_match_win <= 0.5\ngini = 0.5\nsamples = 2\nvalue = [1, 1]"] ;
290 -> 291 ;
292 [label="gini = 0.0\nsamples = 1\nvalue = [1, 0]"] ;
291 -> 292 ;
293 [label="gini = 0.0\nsamples = 1\nvalue = [0, 1]"] ;
291 -> 293 ;
294 [label="gini = 0.0\nsamples = 2\nvalue = [0, 2]"] ;
290 -> 294 ;
295 [label="gini = 0.0\nsamples = 3\nvalue = [3, 0]"] ;
275 -> 295 ;
296 [label="gini = 0.0\nsamples = 5\nvalue = [0, 5]"] ;
274 -> 296 ;
297 [label="t2_h2h_total5_fl_match_win <= 2.5\ngini = 0.278\nsamples = 6\nvalue = [5, 1]"] ;
273 -> 297 ;
298 [label="gini = 0.0\nsamples = 5\nvalue = [5, 0]"] ;
297 -> 298 ;
299 [label="gini = 0.0\nsamples = 1\nvalue = [0, 1]"] ;
297 -> 299 ;
300 [label="gini = 0.0\nsamples = 4\nvalue = [4, 0]"] ;
272 -> 300 ;
301 [label="gini = 0.0\nsamples = 7\nvalue = [7, 0]"] ;
271 -> 301 ;
302 [label="t2_all_total5_fl_match_draw <= 0.5\ngini = 0.473\nsamples = 13\nvalue = [5, 8]"] ;
270 -> 302 ;
303 [label="t1_all_total10_fl_match_win <= -0.5\ngini = 0.494\nsamples = 9\nvalue = [5, 4]"] ;
302 -> 303 ;
304 [label="gini = 0.0\nsamples = 1\nvalue = [0, 1]"] ;
303 -> 304 ;
305 [label="id_match_competition <= 838.0\ngini = 0.469\nsamples = 8\nvalue = [5, 3]"] ;
303 -> 305 ;
306 [label="gini = 0.0\nsamples = 1\nvalue = [0, 1]"] ;
305 -> 306 ;
307 [label="t1_h2h_total10_fl_match_lost <= 0.5\ngini = 0.408\nsamples = 7\nvalue = [5, 2]"] ;
305 -> 307 ;
308 [label="gini = 0.0\nsamples = 3\nvalue = [3, 0]"] ;
307 -> 308 ;
309 [label="t1_home_total10_fl_match_win <= 0.5\ngini = 0.5\nsamples = 4\nvalue = [2, 2]"] ;
307 -> 309 ;
310 [label="t2_h2h_away_total10_fl_match_win <= 0.5\ngini = 0.444\nsamples = 3\nvalue = [2, 1]"] ;
309 -> 310 ;
311 [label="t1_all_total10_fl_match_win <= 0.5\ngini = 0.5\nsamples = 2\nvalue = [1, 1]"] ;
310 -> 311 ;
312 [label="gini = 0.0\nsamples = 1\nvalue = [0, 1]"] ;
311 -> 312 ;
313 [label="gini = 0.0\nsamples = 1\nvalue = [1, 0]"] ;
311 -> 313 ;
314 [label="gini = 0.0\nsamples = 1\nvalue = [1, 0]"] ;
310 -> 314 ;
315 [label="gini = 0.0\nsamples = 1\nvalue = [0, 1]"] ;
309 -> 315 ;
316 [label="gini = 0.0\nsamples = 4\nvalue = [0, 4]"] ;
302 -> 316 ;
317 [label="t1_all_total10_fl_match_lost <= 1.5\ngini = 0.142\nsamples = 13\nvalue = [12, 1]"] ;
269 -> 317 ;
318 [label="gini = 0.0\nsamples = 11\nvalue = [11, 0]"] ;
317 -> 318 ;
319 [label="t1_home_total10_fl_match_lost <= 0.5\ngini = 0.5\nsamples = 2\nvalue = [1, 1]"] ;
317 -> 319 ;
320 [label="gini = 0.0\nsamples = 1\nvalue = [1, 0]"] ;
319 -> 320 ;
321 [label="gini = 0.0\nsamples = 1\nvalue = [0, 1]"] ;
319 -> 321 ;
322 [label="t1_home_total10_fl_match_lost <= 1.5\ngini = 0.473\nsamples = 13\nvalue = [5, 8]"] ;
268 -> 322 ;
323 [label="id_match_competition <= 427.5\ngini = 0.397\nsamples = 11\nvalue = [3, 8]"] ;
322 -> 323 ;
324 [label="t2_h2h_total5_fl_match_win <= 0.5\ngini = 0.5\nsamples = 6\nvalue = [3, 3]"] ;
323 -> 324 ;
325 [label="t1_home_total5_fl_match_win <= 0.5\ngini = 0.375\nsamples = 4\nvalue = [3, 1]"] ;
324 -> 325 ;
326 [label="gini = 0.0\nsamples = 1\nvalue = [0, 1]"] ;
325 -> 326 ;
327 [label="gini = 0.0\nsamples = 3\nvalue = [3, 0]"] ;
325 -> 327 ;
328 [label="gini = 0.0\nsamples = 2\nvalue = [0, 2]"] ;
324 -> 328 ;
329 [label="gini = 0.0\nsamples = 5\nvalue = [0, 5]"] ;
323 -> 329 ;
330 [label="gini = 0.0\nsamples = 2\nvalue = [2, 0]"] ;
322 -> 330 ;
331 [label="t2_h2h_total5_fl_match_lost <= 0.5\ngini = 0.459\nsamples = 115\nvalue = [74, 41]"] ;
89 -> 331 ;
332 [label="id_match_competition <= 1080.5\ngini = 0.49\nsamples = 79\nvalue = [45, 34]"] ;
331 -> 332 ;
333 [label="id_match_competition <= 172.5\ngini = 0.483\nsamples = 76\nvalue = [45, 31]"] ;
332 -> 333 ;
334 [label="t1_all_total5_fl_match_lost <= 2.5\ngini = 0.42\nsamples = 10\nvalue = [3, 7]"] ;
333 -> 334 ;
335 [label="t2_all_total5_fl_match_win <= 0.5\ngini = 0.346\nsamples = 9\nvalue = [2, 7]"] ;
334 -> 335 ;
336 [label="t2_all_total10_fl_match_draw <= 2.5\ngini = 0.48\nsamples = 5\nvalue = [2, 3]"] ;
335 -> 336 ;
337 [label="t2_away_total10_fl_match_draw <= 0.5\ngini = 0.444\nsamples = 3\nvalue = [2, 1]"] ;
336 -> 337 ;
338 [label="t2_all_total10_fl_match_draw <= 0.5\ngini = 0.5\nsamples = 2\nvalue = [1, 1]"] ;
337 -> 338 ;
339 [label="gini = 0.0\nsamples = 1\nvalue = [1, 0]"] ;
338 -> 339 ;
340 [label="gini = 0.0\nsamples = 1\nvalue = [0, 1]"] ;
338 -> 340 ;
341 [label="gini = 0.0\nsamples = 1\nvalue = [1, 0]"] ;
337 -> 341 ;
342 [label="gini = 0.0\nsamples = 2\nvalue = [0, 2]"] ;
336 -> 342 ;
343 [label="gini = 0.0\nsamples = 4\nvalue = [0, 4]"] ;
335 -> 343 ;
344 [label="gini = 0.0\nsamples = 1\nvalue = [1, 0]"] ;
334 -> 344 ;
345 [label="id_match_competition <= 214.5\ngini = 0.463\nsamples = 66\nvalue = [42, 24]"] ;
333 -> 345 ;
346 [label="gini = 0.0\nsamples = 13\nvalue = [13, 0]"] ;
345 -> 346 ;
347 [label="id_match_competition <= 563.5\ngini = 0.496\nsamples = 53\nvalue = [29, 24]"] ;
345 -> 347 ;
348 [label="t1_all_total10_fl_match_draw <= 1.5\ngini = 0.485\nsamples = 29\nvalue = [12, 17]"] ;
347 -> 348 ;
349 [label="t2_all_total10_fl_match_win <= 0.5\ngini = 0.444\nsamples = 21\nvalue = [7, 14]"] ;
348 -> 349 ;
350 [label="id_match_competition <= 285.0\ngini = 0.49\nsamples = 7\nvalue = [4, 3]"] ;
349 -> 350 ;
351 [label="gini = 0.0\nsamples = 3\nvalue = [3, 0]"] ;
350 -> 351 ;
352 [label="t1_all_total10_fl_match_win <= 0.5\ngini = 0.375\nsamples = 4\nvalue = [1, 3]"] ;
350 -> 352 ;
353 [label="id_match_competition <= 503.5\ngini = 0.444\nsamples = 3\nvalue = [1, 2]"] ;
352 -> 353 ;
354 [label="gini = 0.5\nsamples = 2\nvalue = [1, 1]"] ;
353 -> 354 ;
355 [label="gini = 0.0\nsamples = 1\nvalue = [0, 1]"] ;
353 -> 355 ;
356 [label="gini = 0.0\nsamples = 1\nvalue = [0, 1]"] ;
352 -> 356 ;
357 [label="t1_all_total10_fl_match_win <= 1.5\ngini = 0.337\nsamples = 14\nvalue = [3, 11]"] ;
349 -> 357 ;
358 [label="t1_h2h_total5_fl_match_lost <= 1.0\ngini = 0.26\nsamples = 13\nvalue = [2, 11]"] ;
357 -> 358 ;
359 [label="gini = 0.0\nsamples = 9\nvalue = [0, 9]"] ;
358 -> 359 ;
360 [label="t1_home_total10_fl_match_win <= 0.5\ngini = 0.5\nsamples = 4\nvalue = [2, 2]"] ;
358 -> 360 ;
361 [label="gini = 0.0\nsamples = 2\nvalue = [2, 0]"] ;
360 -> 361 ;
362 [label="gini = 0.0\nsamples = 2\nvalue = [0, 2]"] ;
360 -> 362 ;
363 [label="gini = 0.0\nsamples = 1\nvalue = [1, 0]"] ;
357 -> 363 ;
364 [label="t1_h2h_home_total5_fl_match_lost <= 0.5\ngini = 0.469\nsamples = 8\nvalue = [5, 3]"] ;
348 -> 364 ;
365 [label="t1_all_total5_fl_match_win <= 1.5\ngini = 0.408\nsamples = 7\nvalue = [5, 2]"] ;
364 -> 365 ;
366 [label="t2_all_total5_fl_match_win <= 0.5\ngini = 0.278\nsamples = 6\nvalue = [5, 1]"] ;
365 -> 366 ;
367 [label="t2_away_total5_fl_match_draw <= 1.5\ngini = 0.444\nsamples = 3\nvalue = [2, 1]"] ;
366 -> 367 ;
368 [label="gini = 0.5\nsamples = 2\nvalue = [1, 1]"] ;
367 -> 368 ;
369 [label="gini = 0.0\nsamples = 1\nvalue = [1, 0]"] ;
367 -> 369 ;
370 [label="gini = 0.0\nsamples = 3\nvalue = [3, 0]"] ;
366 -> 370 ;
371 [label="gini = 0.0\nsamples = 1\nvalue = [0, 1]"] ;
365 -> 371 ;
372 [label="gini = 0.0\nsamples = 1\nvalue = [0, 1]"] ;
364 -> 372 ;
373 [label="t1_all_total10_fl_match_draw <= 1.5\ngini = 0.413\nsamples = 24\nvalue = [17, 7]"] ;
347 -> 373 ;
374 [label="id_match_competition <= 887.5\ngini = 0.332\nsamples = 19\nvalue = [15, 4]"] ;
373 -> 374 ;
375 [label="gini = 0.0\nsamples = 10\nvalue = [10, 0]"] ;
374 -> 375 ;
376 [label="t1_home_total10_fl_match_lost <= 0.5\ngini = 0.494\nsamples = 9\nvalue = [5, 4]"] ;
374 -> 376 ;
377 [label="t1_home_total10_fl_match_draw <= 0.5\ngini = 0.408\nsamples = 7\nvalue = [5, 2]"] ;
376 -> 377 ;
378 [label="t2_all_total5_fl_match_draw <= 1.5\ngini = 0.5\nsamples = 4\nvalue = [2, 2]"] ;
377 -> 378 ;
379 [label="id_match_competition <= 899.5\ngini = 0.444\nsamples = 3\nvalue = [1, 2]"] ;
378 -> 379 ;
380 [label="gini = 0.0\nsamples = 1\nvalue = [1, 0]"] ;
379 -> 380 ;
381 [label="gini = 0.0\nsamples = 2\nvalue = [0, 2]"] ;
379 -> 381 ;
382 [label="gini = 0.0\nsamples = 1\nvalue = [1, 0]"] ;
378 -> 382 ;
383 [label="gini = 0.0\nsamples = 3\nvalue = [3, 0]"] ;
377 -> 383 ;
384 [label="gini = 0.0\nsamples = 2\nvalue = [0, 2]"] ;
376 -> 384 ;
385 [label="t2_all_total10_fl_match_win <= 1.5\ngini = 0.48\nsamples = 5\nvalue = [2, 3]"] ;
373 -> 385 ;
386 [label="t2_away_total5_fl_match_draw <= 0.5\ngini = 0.444\nsamples = 3\nvalue = [2, 1]"] ;
385 -> 386 ;
387 [label="gini = 0.0\nsamples = 1\nvalue = [0, 1]"] ;
386 -> 387 ;
388 [label="gini = 0.0\nsamples = 2\nvalue = [2, 0]"] ;
386 -> 388 ;
389 [label="gini = 0.0\nsamples = 2\nvalue = [0, 2]"] ;
385 -> 389 ;
390 [label="gini = 0.0\nsamples = 3\nvalue = [0, 3]"] ;
332 -> 390 ;
391 [label="t2_all_total5_fl_match_win <= 1.5\ngini = 0.313\nsamples = 36\nvalue = [29, 7]"] ;
331 -> 391 ;
392 [label="t1_all_total5_fl_match_lost <= 1.5\ngini = 0.198\nsamples = 27\nvalue = [24, 3]"] ;
391 -> 392 ;
393 [label="t1_h2h_total5_fl_match_win <= 1.5\ngini = 0.147\nsamples = 25\nvalue = [23, 2]"] ;
392 -> 393 ;
394 [label="gini = 0.0\nsamples = 16\nvalue = [16, 0]"] ;
393 -> 394 ;
395 [label="id_match_competition <= 427.0\ngini = 0.346\nsamples = 9\nvalue = [7, 2]"] ;
393 -> 395 ;
396 [label="gini = 0.0\nsamples = 5\nvalue = [5, 0]"] ;
395 -> 396 ;
397 [label="t2_h2h_away_total10_fl_match_win <= 0.5\ngini = 0.5\nsamples = 4\nvalue = [2, 2]"] ;
395 -> 397 ;
398 [label="gini = 0.0\nsamples = 2\nvalue = [0, 2]"] ;
397 -> 398 ;
399 [label="gini = 0.0\nsamples = 2\nvalue = [2, 0]"] ;
397 -> 399 ;
400 [label="t2_away_total10_fl_match_win <= 0.5\ngini = 0.5\nsamples = 2\nvalue = [1, 1]"] ;
392 -> 400 ;
401 [label="gini = 0.0\nsamples = 1\nvalue = [0, 1]"] ;
400 -> 401 ;
402 [label="gini = 0.0\nsamples = 1\nvalue = [1, 0]"] ;
400 -> 402 ;
403 [label="t1_home_total10_fl_match_win <= 0.5\ngini = 0.494\nsamples = 9\nvalue = [5, 4]"] ;
391 -> 403 ;
404 [label="gini = 0.0\nsamples = 4\nvalue = [0, 4]"] ;
403 -> 404 ;
405 [label="gini = 0.0\nsamples = 5\nvalue = [5, 0]"] ;
403 -> 405 ;
406 [label="t1_h2h_home_total10_fl_match_win <= 1.5\ngini = 0.455\nsamples = 671\nvalue = [436, 235]"] ;
8 -> 406 ;
407 [label="t2_h2h_total5_fl_match_win <= 2.5\ngini = 0.421\nsamples = 395\nvalue = [276, 119]"] ;
406 -> 407 ;
408 [label="t1_h2h_total5_fl_match_lost <= 1.5\ngini = 0.435\nsamples = 329\nvalue = [224, 105]"] ;
407 -> 408 ;
409 [label="t2_h2h_away_total5_fl_match_draw <= 0.5\ngini = 0.405\nsamples = 230\nvalue = [165, 65]"] ;
408 -> 409 ;
410 [label="t1_all_total5_fl_match_win <= 1.5\ngini = 0.282\nsamples = 59\nvalue = [49, 10]"] ;
409 -> 410 ;
411 [label="t2_all_total10_fl_match_draw <= 2.5\ngini = 0.245\nsamples = 56\nvalue = [48, 8]"] ;
410 -> 411 ;
412 [label="id_match_competition <= 292.5\ngini = 0.222\nsamples = 55\nvalue = [48, 7]"] ;
411 -> 412 ;
413 [label="id_match_competition <= 178.0\ngini = 0.337\nsamples = 28\nvalue = [22, 6]"] ;
412 -> 413 ;
414 [label="id_match_competition <= 96.0\ngini = 0.111\nsamples = 17\nvalue = [16, 1]"] ;
413 -> 414 ;
415 [label="t1_all_total5_fl_match_draw <= 0.5\ngini = 0.375\nsamples = 4\nvalue = [3, 1]"] ;
414 -> 415 ;
416 [label="id_match_competition <= 78.5\ngini = 0.5\nsamples = 2\nvalue = [1, 1]"] ;
415 -> 416 ;
417 [label="gini = 0.0\nsamples = 1\nvalue = [1, 0]"] ;
416 -> 417 ;
418 [label="gini = 0.0\nsamples = 1\nvalue = [0, 1]"] ;
416 -> 418 ;
419 [label="gini = 0.0\nsamples = 2\nvalue = [2, 0]"] ;
415 -> 419 ;
420 [label="gini = 0.0\nsamples = 13\nvalue = [13, 0]"] ;
414 -> 420 ;
421 [label="t1_home_total10_fl_match_lost <= 0.5\ngini = 0.496\nsamples = 11\nvalue = [6, 5]"] ;
413 -> 421 ;
422 [label="t2_all_total10_fl_match_win <= 1.5\ngini = 0.444\nsamples = 9\nvalue = [6, 3]"] ;
421 -> 422 ;
423 [label="t2_h2h_total10_fl_match_lost <= 0.5\ngini = 0.375\nsamples = 8\nvalue = [6, 2]"] ;
422 -> 423 ;
424 [label="gini = 0.0\nsamples = 2\nvalue = [2, 0]"] ;
423 -> 424 ;
425 [label="t1_h2h_home_total5_fl_match_win <= 0.5\ngini = 0.444\nsamples = 6\nvalue = [4, 2]"] ;
423 -> 425 ;
426 [label="gini = 0.0\nsamples = 1\nvalue = [0, 1]"] ;
425 -> 426 ;
427 [label="t2_h2h_total10_fl_match_win <= 0.5\ngini = 0.32\nsamples = 5\nvalue = [4, 1]"] ;
425 -> 427 ;
428 [label="t2_all_total5_fl_match_draw <= 0.5\ngini = 0.375\nsamples = 4\nvalue = [3, 1]"] ;
427 -> 428 ;
429 [label="id_match_competition <= 218.0\ngini = 0.444\nsamples = 3\nvalue = [2, 1]"] ;
428 -> 429 ;
430 [label="gini = 0.0\nsamples = 1\nvalue = [1, 0]"] ;
429 -> 430 ;
431 [label="gini = 0.5\nsamples = 2\nvalue = [1, 1]"] ;
429 -> 431 ;
432 [label="gini = 0.0\nsamples = 1\nvalue = [1, 0]"] ;
428 -> 432 ;
433 [label="gini = 0.0\nsamples = 1\nvalue = [1, 0]"] ;
427 -> 433 ;
434 [label="gini = 0.0\nsamples = 1\nvalue = [0, 1]"] ;
422 -> 434 ;
435 [label="gini = 0.0\nsamples = 2\nvalue = [0, 2]"] ;
421 -> 435 ;
436 [label="t1_all_total10_fl_match_draw <= 0.5\ngini = 0.071\nsamples = 27\nvalue = [26, 1]"] ;
412 -> 436 ;
437 [label="gini = 0.0\nsamples = 21\nvalue = [21, 0]"] ;
436 -> 437 ;
438 [label="t2_all_total10_fl_match_win <= 0.5\ngini = 0.278\nsamples = 6\nvalue = [5, 1]"] ;
436 -> 438 ;
439 [label="t1_h2h_total5_fl_match_win <= 0.5\ngini = 0.5\nsamples = 2\nvalue = [1, 1]"] ;
438 -> 439 ;
440 [label="gini = 0.0\nsamples = 1\nvalue = [1, 0]"] ;
439 -> 440 ;
441 [label="gini = 0.0\nsamples = 1\nvalue = [0, 1]"] ;
439 -> 441 ;
442 [label="gini = 0.0\nsamples = 4\nvalue = [4, 0]"] ;
438 -> 442 ;
443 [label="gini = 0.0\nsamples = 1\nvalue = [0, 1]"] ;
411 -> 443 ;
444 [label="id_match_competition <= 205.5\ngini = 0.444\nsamples = 3\nvalue = [1, 2]"] ;
410 -> 444 ;
445 [label="gini = 0.0\nsamples = 1\nvalue = [1, 0]"] ;
444 -> 445 ;
446 [label="gini = 0.0\nsamples = 2\nvalue = [0, 2]"] ;
444 -> 446 ;
447 [label="id_match_competition <= 1080.5\ngini = 0.436\nsamples = 171\nvalue = [116, 55]"] ;
409 -> 447 ;
448 [label="id_match_competition <= 979.0\ngini = 0.446\nsamples = 164\nvalue = [109, 55]"] ;
447 -> 448 ;
449 [label="t2_away_total5_fl_match_draw <= 0.5\ngini = 0.436\nsamples = 156\nvalue = [106, 50]"] ;
448 -> 449 ;
450 [label="t1_home_total5_fl_match_draw <= 0.5\ngini = 0.458\nsamples = 124\nvalue = [80, 44]"] ;
449 -> 450 ;
451 [label="t1_h2h_total5_fl_match_draw <= 3.5\ngini = 0.444\nsamples = 117\nvalue = [78, 39]"] ;
450 -> 451 ;
452 [label="t1_h2h_total10_fl_match_win <= 0.5\ngini = 0.424\nsamples = 108\nvalue = [75, 33]"] ;
451 -> 452 ;
453 [label="id_match_competition <= 864.5\ngini = 0.264\nsamples = 32\nvalue = [27, 5]"] ;
452 -> 453 ;
454 [label="id_match_competition <= 218.0\ngini = 0.198\nsamples = 27\nvalue = [24, 3]"] ;
453 -> 454 ;
455 [label="t2_all_total5_fl_match_win <= 0.5\ngini = 0.291\nsamples = 17\nvalue = [14, 3]"] ;
454 -> 455 ;
456 [label="t2_all_total10_fl_match_draw <= 0.5\ngini = 0.42\nsamples = 10\nvalue = [7, 3]"] ;
455 -> 456 ;
457 [label="id_match_competition <= 211.0\ngini = 0.346\nsamples = 9\nvalue = [7, 2]"] ;
456 -> 457 ;
458 [label="t2_h2h_away_total5_fl_match_draw <= 1.5\ngini = 0.219\nsamples = 8\nvalue = [7, 1]"] ;
457 -> 458 ;
459 [label="gini = 0.0\nsamples = 6\nvalue = [6, 0]"] ;
458 -> 459 ;
460 [label="id_match_competition <= 181.0\ngini = 0.5\nsamples = 2\nvalue = [1, 1]"] ;
458 -> 460 ;
461 [label="gini = 0.0\nsamples = 1\nvalue = [1, 0]"] ;
460 -> 461 ;
462 [label="gini = 0.0\nsamples = 1\nvalue = [0, 1]"] ;
460 -> 462 ;
463 [label="gini = 0.0\nsamples = 1\nvalue = [0, 1]"] ;
457 -> 463 ;
464 [label="gini = 0.0\nsamples = 1\nvalue = [0, 1]"] ;
456 -> 464 ;
465 [label="gini = 0.0\nsamples = 7\nvalue = [7, 0]"] ;
455 -> 465 ;
466 [label="gini = 0.0\nsamples = 10\nvalue = [10, 0]"] ;
454 -> 466 ;
467 [label="t1_h2h_total5_fl_match_draw <= 1.5\ngini = 0.48\nsamples = 5\nvalue = [3, 2]"] ;
453 -> 467 ;
468 [label="gini = 0.0\nsamples = 2\nvalue = [0, 2]"] ;
467 -> 468 ;
469 [label="gini = 0.0\nsamples = 3\nvalue = [3, 0]"] ;
467 -> 469 ;
470 [label="id_match_competition <= 163.5\ngini = 0.465\nsamples = 76\nvalue = [48, 28]"] ;
452 -> 470 ;
471 [label="t1_all_total5_fl_match_lost <= 0.5\ngini = 0.499\nsamples = 23\nvalue = [11, 12]"] ;
470 -> 471 ;
472 [label="t1_h2h_home_total10_fl_match_win <= 0.5\ngini = 0.48\nsamples = 20\nvalue = [8, 12]"] ;
471 -> 472 ;
473 [label="t1_h2h_total10_fl_match_draw <= 2.5\ngini = 0.219\nsamples = 8\nvalue = [1, 7]"] ;
472 -> 473 ;
474 [label="gini = 0.0\nsamples = 4\nvalue = [0, 4]"] ;
473 -> 474 ;
475 [label="t2_all_total10_fl_match_draw <= 0.5\ngini = 0.375\nsamples = 4\nvalue = [1, 3]"] ;
473 -> 475 ;
476 [label="t1_h2h_total10_fl_match_lost <= 0.5\ngini = 0.5\nsamples = 2\nvalue = [1, 1]"] ;
475 -> 476 ;
477 [label="gini = 0.0\nsamples = 1\nvalue = [1, 0]"] ;
476 -> 477 ;
478 [label="gini = 0.0\nsamples = 1\nvalue = [0, 1]"] ;
476 -> 478 ;
479 [label="gini = 0.0\nsamples = 2\nvalue = [0, 2]"] ;
475 -> 479 ;
480 [label="t1_all_total10_fl_match_draw <= 0.5\ngini = 0.486\nsamples = 12\nvalue = [7, 5]"] ;
472 -> 480 ;
481 [label="t2_h2h_total10_fl_match_lost <= 1.5\ngini = 0.494\nsamples = 9\nvalue = [4, 5]"] ;
480 -> 481 ;
482 [label="gini = 0.0\nsamples = 2\nvalue = [0, 2]"] ;
481 -> 482 ;
483 [label="t2_all_total5_fl_match_win <= 0.5\ngini = 0.49\nsamples = 7\nvalue = [4, 3]"] ;
481 -> 483 ;
484 [label="id_match_competition <= 138.0\ngini = 0.444\nsamples = 6\nvalue = [4, 2]"] ;
483 -> 484 ;
485 [label="t2_h2h_total10_fl_match_win <= 2.5\ngini = 0.32\nsamples = 5\nvalue = [4, 1]"] ;
484 -> 485 ;
486 [label="gini = 0.0\nsamples = 4\nvalue = [4, 0]"] ;
485 -> 486 ;
487 [label="gini = 0.0\nsamples = 1\nvalue = [0, 1]"] ;
485 -> 487 ;
488 [label="gini = 0.0\nsamples = 1\nvalue = [0, 1]"] ;
484 -> 488 ;
489 [label="gini = 0.0\nsamples = 1\nvalue = [0, 1]"] ;
483 -> 489 ;
490 [label="gini = 0.0\nsamples = 3\nvalue = [3, 0]"] ;
480 -> 490 ;
491 [label="gini = 0.0\nsamples = 3\nvalue = [3, 0]"] ;
471 -> 491 ;
492 [label="t2_all_total5_fl_match_win <= 0.5\ngini = 0.422\nsamples = 53\nvalue = [37, 16]"] ;
470 -> 492 ;
493 [label="t2_h2h_away_total10_fl_match_lost <= 0.5\ngini = 0.355\nsamples = 39\nvalue = [30, 9]"] ;
492 -> 493 ;
494 [label="t2_h2h_total10_fl_match_lost <= 1.5\ngini = 0.484\nsamples = 17\nvalue = [10, 7]"] ;
493 -> 494 ;
495 [label="id_match_competition <= 180.5\ngini = 0.497\nsamples = 13\nvalue = [6, 7]"] ;
494 -> 495 ;
496 [label="gini = 0.0\nsamples = 2\nvalue = [2, 0]"] ;
495 -> 496 ;
497 [label="t2_h2h_total10_fl_match_draw <= 1.5\ngini = 0.463\nsamples = 11\nvalue = [4, 7]"] ;
495 -> 497 ;
498 [label="gini = 0.0\nsamples = 5\nvalue = [0, 5]"] ;
497 -> 498 ;
499 [label="id_match_competition <= 205.0\ngini = 0.444\nsamples = 6\nvalue = [4, 2]"] ;
497 -> 499 ;
500 [label="t2_h2h_away_total10_fl_match_draw <= 1.5\ngini = 0.444\nsamples = 3\nvalue = [1, 2]"] ;
499 -> 500 ;
501 [label="gini = 0.0\nsamples = 1\nvalue = [0, 1]"] ;
500 -> 501 ;
502 [label="id_match_competition <= 186.5\ngini = 0.5\nsamples = 2\nvalue = [1, 1]"] ;
500 -> 502 ;
503 [label="gini = 0.0\nsamples = 1\nvalue = [0, 1]"] ;
502 -> 503 ;
504 [label="gini = 0.0\nsamples = 1\nvalue = [1, 0]"] ;
502 -> 504 ;
505 [label="gini = 0.0\nsamples = 3\nvalue = [3, 0]"] ;
499 -> 505 ;
506 [label="gini = 0.0\nsamples = 4\nvalue = [4, 0]"] ;
494 -> 506 ;
507 [label="t1_all_total5_fl_match_win <= 0.5\ngini = 0.165\nsamples = 22\nvalue = [20, 2]"] ;
493 -> 507 ;
508 [label="gini = 0.0\nsamples = 19\nvalue = [19, 0]"] ;
507 -> 508 ;
509 [label="t2_h2h_total10_fl_match_win <= 0.5\ngini = 0.444\nsamples = 3\nvalue = [1, 2]"] ;
507 -> 509 ;
510 [label="gini = 0.0\nsamples = 1\nvalue = [1, 0]"] ;
509 -> 510 ;
511 [label="gini = 0.0\nsamples = 2\nvalue = [0, 2]"] ;
509 -> 511 ;
512 [label="t1_home_total10_fl_match_win <= 0.5\ngini = 0.5\nsamples = 14\nvalue = [7, 7]"] ;
492 -> 512 ;
513 [label="t1_h2h_total10_fl_match_win <= 1.5\ngini = 0.463\nsamples = 11\nvalue = [4, 7]"] ;
512 -> 513 ;
514 [label="t2_h2h_away_total5_fl_match_win <= 0.5\ngini = 0.49\nsamples = 7\nvalue = [4, 3]"] ;
513 -> 514 ;
515 [label="id_match_competition <= 527.0\ngini = 0.444\nsamples = 6\nvalue = [4, 2]"] ;
514 -> 515 ;
516 [label="gini = 0.0\nsamples = 3\nvalue = [3, 0]"] ;
515 -> 516 ;
517 [label="id_match_competition <= 901.0\ngini = 0.444\nsamples = 3\nvalue = [1, 2]"] ;
515 -> 517 ;
518 [label="gini = 0.0\nsamples = 2\nvalue = [0, 2]"] ;
517 -> 518 ;
519 [label="gini = 0.0\nsamples = 1\nvalue = [1, 0]"] ;
517 -> 519 ;
520 [label="gini = 0.0\nsamples = 1\nvalue = [0, 1]"] ;
514 -> 520 ;
521 [label="gini = 0.0\nsamples = 4\nvalue = [0, 4]"] ;
513 -> 521 ;
522 [label="gini = 0.0\nsamples = 3\nvalue = [3, 0]"] ;
512 -> 522 ;
523 [label="id_match_competition <= 140.5\ngini = 0.444\nsamples = 9\nvalue = [3, 6]"] ;
451 -> 523 ;
524 [label="gini = 0.0\nsamples = 2\nvalue = [2, 0]"] ;
523 -> 524 ;
525 [label="t1_h2h_home_total5_fl_match_draw <= 2.5\ngini = 0.245\nsamples = 7\nvalue = [1, 6]"] ;
523 -> 525 ;
526 [label="id_match_competition <= 199.0\ngini = 0.5\nsamples = 2\nvalue = [1, 1]"] ;
525 -> 526 ;
527 [label="gini = 0.0\nsamples = 1\nvalue = [0, 1]"] ;
526 -> 527 ;
528 [label="gini = 0.0\nsamples = 1\nvalue = [1, 0]"] ;
526 -> 528 ;
529 [label="gini = 0.0\nsamples = 5\nvalue = [0, 5]"] ;
525 -> 529 ;
530 [label="t1_h2h_home_total5_fl_match_lost <= 0.5\ngini = 0.408\nsamples = 7\nvalue = [2, 5]"] ;
450 -> 530 ;
531 [label="t1_h2h_total10_fl_match_draw <= 2.5\ngini = 0.278\nsamples = 6\nvalue = [1, 5]"] ;
530 -> 531 ;
532 [label="gini = 0.0\nsamples = 5\nvalue = [0, 5]"] ;
531 -> 532 ;
533 [label="gini = 0.0\nsamples = 1\nvalue = [1, 0]"] ;
531 -> 533 ;
534 [label="gini = 0.0\nsamples = 1\nvalue = [1, 0]"] ;
530 -> 534 ;
535 [label="id_match_competition <= 503.5\ngini = 0.305\nsamples = 32\nvalue = [26, 6]"] ;
449 -> 535 ;
536 [label="t1_home_total5_fl_match_draw <= 2.5\ngini = 0.147\nsamples = 25\nvalue = [23, 2]"] ;
535 -> 536 ;
537 [label="t1_all_total5_fl_match_draw <= 0.5\ngini = 0.08\nsamples = 24\nvalue = [23, 1]"] ;
536 -> 537 ;
538 [label="id_match_competition <= 205.0\ngini = 0.165\nsamples = 11\nvalue = [10, 1]"] ;
537 -> 538 ;
539 [label="gini = 0.0\nsamples = 7\nvalue = [7, 0]"] ;
538 -> 539 ;
540 [label="id_match_competition <= 213.0\ngini = 0.375\nsamples = 4\nvalue = [3, 1]"] ;
538 -> 540 ;
541 [label="gini = 0.0\nsamples = 1\nvalue = [0, 1]"] ;
540 -> 541 ;
542 [label="gini = 0.0\nsamples = 3\nvalue = [3, 0]"] ;
540 -> 542 ;
543 [label="gini = 0.0\nsamples = 13\nvalue = [13, 0]"] ;
537 -> 543 ;
544 [label="gini = 0.0\nsamples = 1\nvalue = [0, 1]"] ;
536 -> 544 ;
545 [label="id_match_competition <= 599.0\ngini = 0.49\nsamples = 7\nvalue = [3, 4]"] ;
535 -> 545 ;
546 [label="gini = 0.0\nsamples = 2\nvalue = [0, 2]"] ;
545 -> 546 ;
547 [label="t2_all_total5_fl_match_draw <= 2.5\ngini = 0.48\nsamples = 5\nvalue = [3, 2]"] ;
545 -> 547 ;
548 [label="gini = 0.0\nsamples = 3\nvalue = [3, 0]"] ;
547 -> 548 ;
549 [label="gini = 0.0\nsamples = 2\nvalue = [0, 2]"] ;
547 -> 549 ;
550 [label="t2_h2h_total10_fl_match_lost <= 0.5\ngini = 0.469\nsamples = 8\nvalue = [3, 5]"] ;
448 -> 550 ;
551 [label="gini = 0.0\nsamples = 3\nvalue = [0, 3]"] ;
550 -> 551 ;
552 [label="t1_h2h_total5_fl_match_draw <= 1.5\ngini = 0.48\nsamples = 5\nvalue = [3, 2]"] ;
550 -> 552 ;
553 [label="t1_all_total5_fl_match_win <= 1.0\ngini = 0.444\nsamples = 3\nvalue = [1, 2]"] ;
552 -> 553 ;
554 [label="gini = 0.0\nsamples = 2\nvalue = [0, 2]"] ;
553 -> 554 ;
555 [label="gini = 0.0\nsamples = 1\nvalue = [1, 0]"] ;
553 -> 555 ;
556 [label="gini = 0.0\nsamples = 2\nvalue = [2, 0]"] ;
552 -> 556 ;
557 [label="gini = 0.0\nsamples = 7\nvalue = [7, 0]"] ;
447 -> 557 ;
558 [label="t2_h2h_total5_fl_match_draw <= 2.5\ngini = 0.482\nsamples = 99\nvalue = [59, 40]"] ;
408 -> 558 ;
559 [label="id_match_competition <= 140.5\ngini = 0.463\nsamples = 88\nvalue = [56, 32]"] ;
558 -> 559 ;
560 [label="t1_all_total10_fl_match_win <= 0.5\ngini = 0.278\nsamples = 24\nvalue = [20, 4]"] ;
559 -> 560 ;
561 [label="t1_h2h_home_total5_fl_match_lost <= 0.5\ngini = 0.165\nsamples = 22\nvalue = [20, 2]"] ;
560 -> 561 ;
562 [label="id_match_competition <= 73.5\ngini = 0.444\nsamples = 6\nvalue = [4, 2]"] ;
561 -> 562 ;
563 [label="id_match_competition <= 64.5\ngini = 0.444\nsamples = 3\nvalue = [1, 2]"] ;
562 -> 563 ;
564 [label="gini = 0.0\nsamples = 1\nvalue = [0, 1]"] ;
563 -> 564 ;
565 [label="id_match_competition <= 69.0\ngini = 0.5\nsamples = 2\nvalue = [1, 1]"] ;
563 -> 565 ;
566 [label="gini = 0.0\nsamples = 1\nvalue = [1, 0]"] ;
565 -> 566 ;
567 [label="gini = 0.0\nsamples = 1\nvalue = [0, 1]"] ;
565 -> 567 ;
568 [label="gini = 0.0\nsamples = 3\nvalue = [3, 0]"] ;
562 -> 568 ;
569 [label="gini = 0.0\nsamples = 16\nvalue = [16, 0]"] ;
561 -> 569 ;
570 [label="gini = 0.0\nsamples = 2\nvalue = [0, 2]"] ;
560 -> 570 ;
571 [label="id_match_competition <= 369.0\ngini = 0.492\nsamples = 64\nvalue = [36, 28]"] ;
559 -> 571 ;
572 [label="t2_h2h_total10_fl_match_draw <= 3.5\ngini = 0.488\nsamples = 26\nvalue = [11, 15]"] ;
571 -> 572 ;
573 [label="t1_all_total5_fl_match_draw <= 0.5\ngini = 0.454\nsamples = 23\nvalue = [8, 15]"] ;
572 -> 573 ;
574 [label="t1_h2h_total10_fl_match_win <= 0.5\ngini = 0.494\nsamples = 18\nvalue = [8, 10]"] ;
573 -> 574 ;
575 [label="gini = 0.0\nsamples = 2\nvalue = [2, 0]"] ;
574 -> 575 ;
576 [label="t1_h2h_total10_fl_match_lost <= 2.5\ngini = 0.469\nsamples = 16\nvalue = [6, 10]"] ;
574 -> 576 ;
577 [label="id_match_competition <= 201.0\ngini = 0.408\nsamples = 14\nvalue = [4, 10]"] ;
576 -> 577 ;
578 [label="t1_h2h_home_total10_fl_match_lost <= 1.5\ngini = 0.245\nsamples = 7\nvalue = [1, 6]"] ;
577 -> 578 ;
579 [label="gini = 0.0\nsamples = 5\nvalue = [0, 5]"] ;
578 -> 579 ;
580 [label="gini = 0.5\nsamples = 2\nvalue = [1, 1]"] ;
578 -> 580 ;
581 [label="t2_all_total10_fl_match_draw <= 0.5\ngini = 0.49\nsamples = 7\nvalue = [3, 4]"] ;
577 -> 581 ;
582 [label="id_match_competition <= 208.5\ngini = 0.444\nsamples = 6\nvalue = [2, 4]"] ;
581 -> 582 ;
583 [label="gini = 0.0\nsamples = 1\nvalue = [1, 0]"] ;
582 -> 583 ;
584 [label="t2_h2h_total5_fl_match_lost <= 1.5\ngini = 0.32\nsamples = 5\nvalue = [1, 4]"] ;
582 -> 584 ;
585 [label="gini = 0.0\nsamples = 3\nvalue = [0, 3]"] ;
584 -> 585 ;
586 [label="t2_h2h_away_total10_fl_match_draw <= 1.5\ngini = 0.5\nsamples = 2\nvalue = [1, 1]"] ;
584 -> 586 ;
587 [label="gini = 0.0\nsamples = 1\nvalue = [1, 0]"] ;
586 -> 587 ;
588 [label="gini = 0.0\nsamples = 1\nvalue = [0, 1]"] ;
586 -> 588 ;
589 [label="gini = 0.0\nsamples = 1\nvalue = [1, 0]"] ;
581 -> 589 ;
590 [label="gini = 0.0\nsamples = 2\nvalue = [2, 0]"] ;
576 -> 590 ;
591 [label="gini = 0.0\nsamples = 5\nvalue = [0, 5]"] ;
573 -> 591 ;
592 [label="gini = 0.0\nsamples = 3\nvalue = [3, 0]"] ;
572 -> 592 ;
593 [label="t2_h2h_away_total10_fl_match_lost <= 0.5\ngini = 0.45\nsamples = 38\nvalue = [25, 13]"] ;
571 -> 593 ;
594 [label="t2_all_total10_fl_match_win <= 1.5\ngini = 0.497\nsamples = 13\nvalue = [6, 7]"] ;
593 -> 594 ;
595 [label="t2_h2h_away_total5_fl_match_win <= 0.5\ngini = 0.42\nsamples = 10\nvalue = [3, 7]"] ;
594 -> 595 ;
596 [label="gini = 0.0\nsamples = 2\nvalue = [2, 0]"] ;
595 -> 596 ;
597 [label="id_match_competition <= 468.5\ngini = 0.219\nsamples = 8\nvalue = [1, 7]"] ;
595 -> 597 ;
598 [label="gini = 0.0\nsamples = 1\nvalue = [1, 0]"] ;
597 -> 598 ;
599 [label="gini = 0.0\nsamples = 7\nvalue = [0, 7]"] ;
597 -> 599 ;
600 [label="gini = 0.0\nsamples = 3\nvalue = [3, 0]"] ;
594 -> 600 ;
601 [label="t1_all_total10_fl_match_draw <= 1.5\ngini = 0.365\nsamples = 25\nvalue = [19, 6]"] ;
593 -> 601 ;
602 [label="t1_h2h_total10_fl_match_draw <= 4.5\ngini = 0.287\nsamples = 23\nvalue = [19, 4]"] ;
601 -> 602 ;
603 [label="id_match_competition <= 15228.0\ngini = 0.236\nsamples = 22\nvalue = [19, 3]"] ;
602 -> 603 ;
604 [label="id_match_competition <= 898.0\ngini = 0.172\nsamples = 21\nvalue = [19, 2]"] ;
603 -> 604 ;
605 [label="gini = 0.0\nsamples = 13\nvalue = [13, 0]"] ;
604 -> 605 ;
606 [label="t1_h2h_total10_fl_match_draw <= 1.5\ngini = 0.375\nsamples = 8\nvalue = [6, 2]"] ;
604 -> 606 ;
607 [label="gini = 0.0\nsamples = 2\nvalue = [0, 2]"] ;
606 -> 607 ;
608 [label="gini = 0.0\nsamples = 6\nvalue = [6, 0]"] ;
606 -> 608 ;
609 [label="gini = 0.0\nsamples = 1\nvalue = [0, 1]"] ;
603 -> 609 ;
610 [label="gini = 0.0\nsamples = 1\nvalue = [0, 1]"] ;
602 -> 610 ;
611 [label="gini = 0.0\nsamples = 2\nvalue = [0, 2]"] ;
601 -> 611 ;
612 [label="t1_h2h_home_total5_fl_match_lost <= 1.5\ngini = 0.397\nsamples = 11\nvalue = [3, 8]"] ;
558 -> 612 ;
613 [label="t1_home_total10_fl_match_draw <= 0.5\ngini = 0.219\nsamples = 8\nvalue = [1, 7]"] ;
612 -> 613 ;
614 [label="gini = 0.0\nsamples = 7\nvalue = [0, 7]"] ;
613 -> 614 ;
615 [label="gini = 0.0\nsamples = 1\nvalue = [1, 0]"] ;
613 -> 615 ;
616 [label="t2_h2h_total10_fl_match_win <= 2.5\ngini = 0.444\nsamples = 3\nvalue = [2, 1]"] ;
612 -> 616 ;
617 [label="gini = 0.0\nsamples = 1\nvalue = [0, 1]"] ;
616 -> 617 ;
618 [label="gini = 0.0\nsamples = 2\nvalue = [2, 0]"] ;
616 -> 618 ;
619 [label="t1_h2h_total10_fl_match_win <= 2.5\ngini = 0.334\nsamples = 66\nvalue = [52, 14]"] ;
407 -> 619 ;
620 [label="t2_h2h_away_total5_fl_match_draw <= 2.5\ngini = 0.296\nsamples = 61\nvalue = [50, 11]"] ;
619 -> 620 ;
621 [label="t2_h2h_away_total5_fl_match_win <= 2.5\ngini = 0.32\nsamples = 55\nvalue = [44, 11]"] ;
620 -> 621 ;
622 [label="id_match_competition <= 186.0\ngini = 0.348\nsamples = 49\nvalue = [38, 11]"] ;
621 -> 622 ;
623 [label="id_match_competition <= 64.5\ngini = 0.188\nsamples = 19\nvalue = [17, 2]"] ;
622 -> 623 ;
624 [label="t1_h2h_home_total10_fl_match_lost <= 1.5\ngini = 0.5\nsamples = 2\nvalue = [1, 1]"] ;
623 -> 624 ;
625 [label="gini = 0.0\nsamples = 1\nvalue = [1, 0]"] ;
624 -> 625 ;
626 [label="gini = 0.0\nsamples = 1\nvalue = [0, 1]"] ;
624 -> 626 ;
627 [label="t1_h2h_total5_fl_match_lost <= 3.5\ngini = 0.111\nsamples = 17\nvalue = [16, 1]"] ;
623 -> 627 ;
628 [label="gini = 0.0\nsamples = 14\nvalue = [14, 0]"] ;
627 -> 628 ;
629 [label="id_match_competition <= 117.5\ngini = 0.444\nsamples = 3\nvalue = [2, 1]"] ;
627 -> 629 ;
630 [label="gini = 0.0\nsamples = 1\nvalue = [0, 1]"] ;
629 -> 630 ;
631 [label="gini = 0.0\nsamples = 2\nvalue = [2, 0]"] ;
629 -> 631 ;
632 [label="id_match_competition <= 189.5\ngini = 0.42\nsamples = 30\nvalue = [21, 9]"] ;
622 -> 632 ;
633 [label="gini = 0.0\nsamples = 1\nvalue = [0, 1]"] ;
632 -> 633 ;
634 [label="t1_h2h_total10_fl_match_draw <= 3.5\ngini = 0.4\nsamples = 29\nvalue = [21, 8]"] ;
632 -> 634 ;
635 [label="t2_all_total5_fl_match_draw <= 0.5\ngini = 0.355\nsamples = 26\nvalue = [20, 6]"] ;
634 -> 635 ;
636 [label="t1_all_total5_fl_match_draw <= 0.5\ngini = 0.444\nsamples = 15\nvalue = [10, 5]"] ;
635 -> 636 ;
637 [label="id_match_competition <= 369.0\ngini = 0.355\nsamples = 13\nvalue = [10, 3]"] ;
636 -> 637 ;
638 [label="gini = 0.0\nsamples = 5\nvalue = [5, 0]"] ;
637 -> 638 ;
639 [label="id_match_competition <= 718.0\ngini = 0.469\nsamples = 8\nvalue = [5, 3]"] ;
637 -> 639 ;
640 [label="t2_h2h_away_total10_fl_match_win <= 1.5\ngini = 0.375\nsamples = 4\nvalue = [1, 3]"] ;
639 -> 640 ;
641 [label="gini = 0.0\nsamples = 2\nvalue = [0, 2]"] ;
640 -> 641 ;
642 [label="id_match_competition <= 575.5\ngini = 0.5\nsamples = 2\nvalue = [1, 1]"] ;
640 -> 642 ;
643 [label="gini = 0.0\nsamples = 1\nvalue = [1, 0]"] ;
642 -> 643 ;
644 [label="gini = 0.0\nsamples = 1\nvalue = [0, 1]"] ;
642 -> 644 ;
645 [label="gini = 0.0\nsamples = 4\nvalue = [4, 0]"] ;
639 -> 645 ;
646 [label="gini = 0.0\nsamples = 2\nvalue = [0, 2]"] ;
636 -> 646 ;
647 [label="t1_h2h_total5_fl_match_draw <= 0.5\ngini = 0.165\nsamples = 11\nvalue = [10, 1]"] ;
635 -> 647 ;
648 [label="gini = 0.0\nsamples = 1\nvalue = [0, 1]"] ;
647 -> 648 ;
649 [label="gini = 0.0\nsamples = 10\nvalue = [10, 0]"] ;
647 -> 649 ;
650 [label="t1_h2h_home_total5_fl_match_win <= 0.5\ngini = 0.444\nsamples = 3\nvalue = [1, 2]"] ;
634 -> 650 ;
651 [label="gini = 0.0\nsamples = 1\nvalue = [1, 0]"] ;
650 -> 651 ;
652 [label="gini = 0.0\nsamples = 2\nvalue = [0, 2]"] ;
650 -> 652 ;
653 [label="gini = 0.0\nsamples = 6\nvalue = [6, 0]"] ;
621 -> 653 ;
654 [label="gini = 0.0\nsamples = 6\nvalue = [6, 0]"] ;
620 -> 654 ;
655 [label="t2_h2h_away_total5_fl_match_win <= 2.5\ngini = 0.48\nsamples = 5\nvalue = [2, 3]"] ;
619 -> 655 ;
656 [label="gini = 0.0\nsamples = 2\nvalue = [2, 0]"] ;
655 -> 656 ;
657 [label="gini = 0.0\nsamples = 3\nvalue = [0, 3]"] ;
655 -> 657 ;
658 [label="t2_h2h_total10_fl_match_win <= 3.5\ngini = 0.487\nsamples = 276\nvalue = [160, 116]"] ;
406 -> 658 ;
659 [label="t2_h2h_away_total10_fl_match_win <= 2.5\ngini = 0.497\nsamples = 201\nvalue = [108, 93]"] ;
658 -> 659 ;
660 [label="t1_h2h_total10_fl_match_draw <= 5.5\ngini = 0.499\nsamples = 193\nvalue = [101, 92]"] ;
659 -> 660 ;
661 [label="t1_h2h_total5_fl_match_draw <= 1.5\ngini = 0.5\nsamples = 186\nvalue = [95, 91]"] ;
660 -> 661 ;
662 [label="id_match_competition <= 905.5\ngini = 0.472\nsamples = 68\nvalue = [42, 26]"] ;
661 -> 662 ;
663 [label="t2_h2h_total5_fl_match_win <= 2.5\ngini = 0.49\nsamples = 58\nvalue = [33, 25]"] ;
662 -> 663 ;
664 [label="t2_all_total10_fl_match_draw <= 1.5\ngini = 0.473\nsamples = 52\nvalue = [32, 20]"] ;
663 -> 664 ;
665 [label="id_match_competition <= 210.5\ngini = 0.449\nsamples = 47\nvalue = [31, 16]"] ;
664 -> 665 ;
666 [label="id_match_competition <= 67.5\ngini = 0.32\nsamples = 20\nvalue = [16, 4]"] ;
665 -> 666 ;
667 [label="t2_h2h_away_total10_fl_match_draw <= 0.5\ngini = 0.5\nsamples = 4\nvalue = [2, 2]"] ;
666 -> 667 ;
668 [label="t2_h2h_total10_fl_match_win <= 0.5\ngini = 0.444\nsamples = 3\nvalue = [2, 1]"] ;
667 -> 668 ;
669 [label="gini = 0.0\nsamples = 1\nvalue = [1, 0]"] ;
668 -> 669 ;
670 [label="t1_all_total10_fl_match_lost <= 0.5\ngini = 0.5\nsamples = 2\nvalue = [1, 1]"] ;
668 -> 670 ;
671 [label="gini = 0.0\nsamples = 1\nvalue = [0, 1]"] ;
670 -> 671 ;
672 [label="gini = 0.0\nsamples = 1\nvalue = [1, 0]"] ;
670 -> 672 ;
673 [label="gini = 0.0\nsamples = 1\nvalue = [0, 1]"] ;
667 -> 673 ;
674 [label="t1_h2h_home_total10_fl_match_win <= 2.5\ngini = 0.219\nsamples = 16\nvalue = [14, 2]"] ;
666 -> 674 ;
675 [label="gini = 0.0\nsamples = 11\nvalue = [11, 0]"] ;
674 -> 675 ;
676 [label="t1_h2h_home_total10_fl_match_lost <= 0.5\ngini = 0.48\nsamples = 5\nvalue = [3, 2]"] ;
674 -> 676 ;
677 [label="gini = 0.0\nsamples = 1\nvalue = [0, 1]"] ;
676 -> 677 ;
678 [label="t1_all_total10_fl_match_lost <= 0.5\ngini = 0.375\nsamples = 4\nvalue = [3, 1]"] ;
676 -> 678 ;
679 [label="gini = 0.0\nsamples = 3\nvalue = [3, 0]"] ;
678 -> 679 ;
680 [label="gini = 0.0\nsamples = 1\nvalue = [0, 1]"] ;
678 -> 680 ;
681 [label="t2_h2h_away_total10_fl_match_draw <= 2.5\ngini = 0.494\nsamples = 27\nvalue = [15, 12]"] ;
665 -> 681 ;
682 [label="t1_h2h_home_total10_fl_match_lost <= 1.5\ngini = 0.469\nsamples = 24\nvalue = [15, 9]"] ;
681 -> 682 ;
683 [label="t1_h2h_home_total10_fl_match_draw <= 1.5\ngini = 0.499\nsamples = 19\nvalue = [10, 9]"] ;
682 -> 683 ;
684 [label="t2_h2h_total10_fl_match_draw <= 2.5\ngini = 0.498\nsamples = 17\nvalue = [8, 9]"] ;
683 -> 684 ;
685 [label="t2_all_total5_fl_match_draw <= 0.5\ngini = 0.49\nsamples = 14\nvalue = [8, 6]"] ;
684 -> 685 ;
686 [label="t1_all_total5_fl_match_win <= 0.5\ngini = 0.496\nsamples = 11\nvalue = [5, 6]"] ;
685 -> 686 ;
687 [label="t1_h2h_home_total5_fl_match_win <= 3.5\ngini = 0.494\nsamples = 9\nvalue = [5, 4]"] ;
686 -> 687 ;
688 [label="t2_h2h_away_total10_fl_match_draw <= 0.5\ngini = 0.469\nsamples = 8\nvalue = [5, 3]"] ;
687 -> 688 ;
689 [label="t2_all_total5_fl_match_win <= 0.5\ngini = 0.48\nsamples = 5\nvalue = [2, 3]"] ;
688 -> 689 ;
690 [label="id_match_competition <= 534.0\ngini = 0.444\nsamples = 3\nvalue = [2, 1]"] ;
689 -> 690 ;
691 [label="gini = 0.0\nsamples = 1\nvalue = [0, 1]"] ;
690 -> 691 ;
692 [label="gini = 0.0\nsamples = 2\nvalue = [2, 0]"] ;
690 -> 692 ;
693 [label="gini = 0.0\nsamples = 2\nvalue = [0, 2]"] ;
689 -> 693 ;
694 [label="gini = 0.0\nsamples = 3\nvalue = [3, 0]"] ;
688 -> 694 ;
695 [label="gini = 0.0\nsamples = 1\nvalue = [0, 1]"] ;
687 -> 695 ;
696 [label="gini = 0.0\nsamples = 2\nvalue = [0, 2]"] ;
686 -> 696 ;
697 [label="gini = 0.0\nsamples = 3\nvalue = [3, 0]"] ;
685 -> 697 ;
698 [label="gini = 0.0\nsamples = 3\nvalue = [0, 3]"] ;
684 -> 698 ;
699 [label="gini = 0.0\nsamples = 2\nvalue = [2, 0]"] ;
683 -> 699 ;
700 [label="gini = 0.0\nsamples = 5\nvalue = [5, 0]"] ;
682 -> 700 ;
701 [label="gini = 0.0\nsamples = 3\nvalue = [0, 3]"] ;
681 -> 701 ;
702 [label="t1_h2h_home_total5_fl_match_win <= 3.5\ngini = 0.32\nsamples = 5\nvalue = [1, 4]"] ;
664 -> 702 ;
703 [label="gini = 0.0\nsamples = 4\nvalue = [0, 4]"] ;
702 -> 703 ;
704 [label="gini = 0.0\nsamples = 1\nvalue = [1, 0]"] ;
702 -> 704 ;
705 [label="t1_home_total5_fl_match_win <= 0.5\ngini = 0.278\nsamples = 6\nvalue = [1, 5]"] ;
663 -> 705 ;
706 [label="gini = 0.0\nsamples = 5\nvalue = [0, 5]"] ;
705 -> 706 ;
707 [label="gini = 0.0\nsamples = 1\nvalue = [1, 0]"] ;
705 -> 707 ;
708 [label="t2_all_total10_fl_match_draw <= 0.5\ngini = 0.18\nsamples = 10\nvalue = [9, 1]"] ;
662 -> 708 ;
709 [label="id_match_competition <= 1081.5\ngini = 0.375\nsamples = 4\nvalue = [3, 1]"] ;
708 -> 709 ;
710 [label="gini = 0.0\nsamples = 1\nvalue = [0, 1]"] ;
709 -> 710 ;
711 [label="gini = 0.0\nsamples = 3\nvalue = [3, 0]"] ;
709 -> 711 ;
712 [label="gini = 0.0\nsamples = 6\nvalue = [6, 0]"] ;
708 -> 712 ;
713 [label="t1_h2h_total5_fl_match_lost <= 0.5\ngini = 0.495\nsamples = 118\nvalue = [53, 65]"] ;
661 -> 713 ;
714 [label="t1_all_total10_fl_match_draw <= 0.5\ngini = 0.475\nsamples = 31\nvalue = [19, 12]"] ;
713 -> 714 ;
715 [label="t1_h2h_home_total10_fl_match_draw <= 1.5\ngini = 0.32\nsamples = 20\nvalue = [16, 4]"] ;
714 -> 715 ;
716 [label="t2_all_total10_fl_match_win <= 0.5\ngini = 0.494\nsamples = 9\nvalue = [5, 4]"] ;
715 -> 716 ;
717 [label="id_match_competition <= 823.5\ngini = 0.278\nsamples = 6\nvalue = [5, 1]"] ;
716 -> 717 ;
718 [label="gini = 0.0\nsamples = 5\nvalue = [5, 0]"] ;
717 -> 718 ;
719 [label="gini = 0.0\nsamples = 1\nvalue = [0, 1]"] ;
717 -> 719 ;
720 [label="gini = 0.0\nsamples = 3\nvalue = [0, 3]"] ;
716 -> 720 ;
721 [label="gini = 0.0\nsamples = 11\nvalue = [11, 0]"] ;
715 -> 721 ;
722 [label="t1_h2h_total10_fl_match_draw <= 3.5\ngini = 0.397\nsamples = 11\nvalue = [3, 8]"] ;
714 -> 722 ;
723 [label="t1_h2h_total10_fl_match_lost <= 1.5\ngini = 0.5\nsamples = 6\nvalue = [3, 3]"] ;
722 -> 723 ;
724 [label="id_match_competition <= 157.0\ngini = 0.375\nsamples = 4\nvalue = [1, 3]"] ;
723 -> 724 ;
725 [label="gini = 0.0\nsamples = 1\nvalue = [1, 0]"] ;
724 -> 725 ;
726 [label="gini = 0.0\nsamples = 3\nvalue = [0, 3]"] ;
724 -> 726 ;
727 [label="gini = 0.0\nsamples = 2\nvalue = [2, 0]"] ;
723 -> 727 ;
728 [label="gini = 0.0\nsamples = 5\nvalue = [0, 5]"] ;
722 -> 728 ;
729 [label="t2_h2h_total5_fl_match_lost <= 0.5\ngini = 0.476\nsamples = 87\nvalue = [34, 53]"] ;
713 -> 729 ;
730 [label="gini = 0.0\nsamples = 2\nvalue = [2, 0]"] ;
729 -> 730 ;
731 [label="t2_h2h_total10_fl_match_lost <= 5.5\ngini = 0.469\nsamples = 85\nvalue = [32, 53]"] ;
729 -> 731 ;
732 [label="t1_h2h_home_total10_fl_match_lost <= 0.5\ngini = 0.46\nsamples = 81\nvalue = [29, 52]"] ;
731 -> 732 ;
733 [label="id_match_competition <= 170.0\ngini = 0.497\nsamples = 28\nvalue = [13, 15]"] ;
732 -> 733 ;
734 [label="gini = 0.0\nsamples = 8\nvalue = [0, 8]"] ;
733 -> 734 ;
735 [label="t1_h2h_total10_fl_match_draw <= 2.5\ngini = 0.455\nsamples = 20\nvalue = [13, 7]"] ;
733 -> 735 ;
736 [label="gini = 0.0\nsamples = 3\nvalue = [0, 3]"] ;
735 -> 736 ;
737 [label="t1_h2h_total10_fl_match_draw <= 4.5\ngini = 0.36\nsamples = 17\nvalue = [13, 4]"] ;
735 -> 737 ;
738 [label="t1_all_total5_fl_match_lost <= 1.5\ngini = 0.305\nsamples = 16\nvalue = [13, 3]"] ;
737 -> 738 ;
739 [label="t1_h2h_total10_fl_match_draw <= 3.5\ngini = 0.231\nsamples = 15\nvalue = [13, 2]"] ;
738 -> 739 ;
740 [label="t1_all_total5_fl_match_lost <= 0.5\ngini = 0.375\nsamples = 8\nvalue = [6, 2]"] ;
739 -> 740 ;
741 [label="id_match_competition <= 207.0\ngini = 0.245\nsamples = 7\nvalue = [6, 1]"] ;
740 -> 741 ;
742 [label="id_match_competition <= 186.5\ngini = 0.5\nsamples = 2\nvalue = [1, 1]"] ;
741 -> 742 ;
743 [label="gini = 0.0\nsamples = 1\nvalue = [1, 0]"] ;
742 -> 743 ;
744 [label="gini = 0.0\nsamples = 1\nvalue = [0, 1]"] ;
742 -> 744 ;
745 [label="gini = 0.0\nsamples = 5\nvalue = [5, 0]"] ;
741 -> 745 ;
746 [label="gini = 0.0\nsamples = 1\nvalue = [0, 1]"] ;
740 -> 746 ;
747 [label="gini = 0.0\nsamples = 7\nvalue = [7, 0]"] ;
739 -> 747 ;
748 [label="gini = 0.0\nsamples = 1\nvalue = [0, 1]"] ;
738 -> 748 ;
749 [label="gini = 0.0\nsamples = 1\nvalue = [0, 1]"] ;
737 -> 749 ;
750 [label="t1_h2h_home_total10_fl_match_draw <= 2.5\ngini = 0.422\nsamples = 53\nvalue = [16, 37]"] ;
732 -> 750 ;
751 [label="t2_h2h_away_total5_fl_match_lost <= 3.5\ngini = 0.463\nsamples = 44\nvalue = [16, 28]"] ;
750 -> 751 ;
752 [label="t1_h2h_home_total5_fl_match_win <= 2.5\ngini = 0.484\nsamples = 39\nvalue = [16, 23]"] ;
751 -> 752 ;
753 [label="t1_all_total5_fl_match_lost <= 0.5\ngini = 0.408\nsamples = 28\nvalue = [8, 20]"] ;
752 -> 753 ;
754 [label="t2_h2h_total10_fl_match_draw <= 4.5\ngini = 0.278\nsamples = 18\nvalue = [3, 15]"] ;
753 -> 754 ;
755 [label="gini = 0.0\nsamples = 14\nvalue = [0, 14]"] ;
754 -> 755 ;
756 [label="t2_h2h_total10_fl_match_lost <= 2.5\ngini = 0.375\nsamples = 4\nvalue = [3, 1]"] ;
754 -> 756 ;
757 [label="gini = 0.0\nsamples = 3\nvalue = [3, 0]"] ;
756 -> 757 ;
758 [label="gini = 0.0\nsamples = 1\nvalue = [0, 1]"] ;
756 -> 758 ;
759 [label="id_match_competition <= 234.5\ngini = 0.5\nsamples = 10\nvalue = [5, 5]"] ;
753 -> 759 ;
760 [label="gini = 0.0\nsamples = 4\nvalue = [4, 0]"] ;
759 -> 760 ;
761 [label="t1_h2h_total5_fl_match_lost <= 1.5\ngini = 0.278\nsamples = 6\nvalue = [1, 5]"] ;
759 -> 761 ;
762 [label="gini = 0.0\nsamples = 5\nvalue = [0, 5]"] ;
761 -> 762 ;
763 [label="gini = 0.0\nsamples = 1\nvalue = [1, 0]"] ;
761 -> 763 ;
764 [label="id_match_competition <= 391.0\ngini = 0.397\nsamples = 11\nvalue = [8, 3]"] ;
752 -> 764 ;
765 [label="gini = 0.0\nsamples = 4\nvalue = [4, 0]"] ;
764 -> 765 ;
766 [label="id_match_competition <= 746.0\ngini = 0.49\nsamples = 7\nvalue = [4, 3]"] ;
764 -> 766 ;
767 [label="gini = 0.0\nsamples = 3\nvalue = [0, 3]"] ;
766 -> 767 ;
768 [label="gini = 0.0\nsamples = 4\nvalue = [4, 0]"] ;
766 -> 768 ;
769 [label="gini = 0.0\nsamples = 5\nvalue = [0, 5]"] ;
751 -> 769 ;
770 [label="gini = 0.0\nsamples = 9\nvalue = [0, 9]"] ;
750 -> 770 ;
771 [label="t2_h2h_away_total10_fl_match_lost <= 4.5\ngini = 0.375\nsamples = 4\nvalue = [3, 1]"] ;
731 -> 771 ;
772 [label="gini = 0.0\nsamples = 3\nvalue = [3, 0]"] ;
771 -> 772 ;
773 [label="gini = 0.0\nsamples = 1\nvalue = [0, 1]"] ;
771 -> 773 ;
774 [label="t1_h2h_home_total5_fl_match_draw <= 3.5\ngini = 0.245\nsamples = 7\nvalue = [6, 1]"] ;
660 -> 774 ;
775 [label="gini = 0.0\nsamples = 6\nvalue = [6, 0]"] ;
774 -> 775 ;
776 [label="gini = 0.0\nsamples = 1\nvalue = [0, 1]"] ;
774 -> 776 ;
777 [label="t2_h2h_away_total5_fl_match_draw <= 2.5\ngini = 0.219\nsamples = 8\nvalue = [7, 1]"] ;
659 -> 777 ;
778 [label="gini = 0.0\nsamples = 7\nvalue = [7, 0]"] ;
777 -> 778 ;
779 [label="gini = 0.0\nsamples = 1\nvalue = [0, 1]"] ;
777 -> 779 ;
780 [label="t2_h2h_away_total10_fl_match_draw <= 1.5\ngini = 0.425\nsamples = 75\nvalue = [52, 23]"] ;
658 -> 780 ;
781 [label="t2_h2h_total5_fl_match_draw <= 0.5\ngini = 0.497\nsamples = 39\nvalue = [21, 18]"] ;
780 -> 781 ;
782 [label="t2_h2h_away_total10_fl_match_win <= 1.5\ngini = 0.198\nsamples = 9\nvalue = [8, 1]"] ;
781 -> 782 ;
783 [label="t1_h2h_home_total5_fl_match_win <= 3.0\ngini = 0.5\nsamples = 2\nvalue = [1, 1]"] ;
782 -> 783 ;
784 [label="gini = 0.0\nsamples = 1\nvalue = [0, 1]"] ;
783 -> 784 ;
785 [label="gini = 0.0\nsamples = 1\nvalue = [1, 0]"] ;
783 -> 785 ;
786 [label="gini = 0.0\nsamples = 7\nvalue = [7, 0]"] ;
782 -> 786 ;
787 [label="t2_h2h_total10_fl_match_lost <= 3.5\ngini = 0.491\nsamples = 30\nvalue = [13, 17]"] ;
781 -> 787 ;
788 [label="t2_h2h_total5_fl_match_win <= 1.5\ngini = 0.278\nsamples = 12\nvalue = [2, 10]"] ;
787 -> 788 ;
789 [label="t1_h2h_total10_fl_match_draw <= 3.5\ngini = 0.5\nsamples = 4\nvalue = [2, 2]"] ;
788 -> 789 ;
790 [label="t1_all_total10_fl_match_win <= 0.5\ngini = 0.444\nsamples = 3\nvalue = [2, 1]"] ;
789 -> 790 ;
791 [label="gini = 0.0\nsamples = 2\nvalue = [2, 0]"] ;
790 -> 791 ;
792 [label="gini = 0.0\nsamples = 1\nvalue = [0, 1]"] ;
790 -> 792 ;
793 [label="gini = 0.0\nsamples = 1\nvalue = [0, 1]"] ;
789 -> 793 ;
794 [label="gini = 0.0\nsamples = 8\nvalue = [0, 8]"] ;
788 -> 794 ;
795 [label="id_match_competition <= 214.5\ngini = 0.475\nsamples = 18\nvalue = [11, 7]"] ;
787 -> 795 ;
796 [label="t2_h2h_away_total10_fl_match_win <= 1.5\ngini = 0.469\nsamples = 8\nvalue = [3, 5]"] ;
795 -> 796 ;
797 [label="gini = 0.0\nsamples = 3\nvalue = [0, 3]"] ;
796 -> 797 ;
798 [label="t2_h2h_total5_fl_match_draw <= 1.5\ngini = 0.48\nsamples = 5\nvalue = [3, 2]"] ;
796 -> 798 ;
799 [label="gini = 0.0\nsamples = 3\nvalue = [3, 0]"] ;
798 -> 799 ;
800 [label="gini = 0.0\nsamples = 2\nvalue = [0, 2]"] ;
798 -> 800 ;
801 [label="t1_h2h_home_total5_fl_match_lost <= 2.5\ngini = 0.32\nsamples = 10\nvalue = [8, 2]"] ;
795 -> 801 ;
802 [label="gini = 0.0\nsamples = 8\nvalue = [8, 0]"] ;
801 -> 802 ;
803 [label="gini = 0.0\nsamples = 2\nvalue = [0, 2]"] ;
801 -> 803 ;
804 [label="t2_h2h_away_total10_fl_match_draw <= 5.5\ngini = 0.239\nsamples = 36\nvalue = [31, 5]"] ;
780 -> 804 ;
805 [label="t1_h2h_home_total10_fl_match_win <= 4.5\ngini = 0.202\nsamples = 35\nvalue = [31, 4]"] ;
804 -> 805 ;
806 [label="t1_h2h_total10_fl_match_draw <= 3.5\ngini = 0.124\nsamples = 30\nvalue = [28, 2]"] ;
805 -> 806 ;
807 [label="gini = 0.0\nsamples = 19\nvalue = [19, 0]"] ;
806 -> 807 ;
808 [label="t1_h2h_home_total10_fl_match_win <= 2.5\ngini = 0.298\nsamples = 11\nvalue = [9, 2]"] ;
806 -> 808 ;
809 [label="t1_home_total10_fl_match_draw <= 0.5\ngini = 0.198\nsamples = 9\nvalue = [8, 1]"] ;
808 -> 809 ;
810 [label="gini = 0.0\nsamples = 7\nvalue = [7, 0]"] ;
809 -> 810 ;
811 [label="t1_h2h_home_total5_fl_match_win <= 1.5\ngini = 0.5\nsamples = 2\nvalue = [1, 1]"] ;
809 -> 811 ;
812 [label="gini = 0.0\nsamples = 1\nvalue = [1, 0]"] ;
811 -> 812 ;
813 [label="gini = 0.0\nsamples = 1\nvalue = [0, 1]"] ;
811 -> 813 ;
814 [label="t2_h2h_total5_fl_match_draw <= 1.5\ngini = 0.5\nsamples = 2\nvalue = [1, 1]"] ;
808 -> 814 ;
815 [label="gini = 0.0\nsamples = 1\nvalue = [1, 0]"] ;
814 -> 815 ;
816 [label="gini = 0.0\nsamples = 1\nvalue = [0, 1]"] ;
814 -> 816 ;
817 [label="t1_h2h_home_total5_fl_match_lost <= 0.5\ngini = 0.48\nsamples = 5\nvalue = [3, 2]"] ;
805 -> 817 ;
818 [label="gini = 0.0\nsamples = 2\nvalue = [0, 2]"] ;
817 -> 818 ;
819 [label="gini = 0.0\nsamples = 3\nvalue = [3, 0]"] ;
817 -> 819 ;
820 [label="gini = 0.0\nsamples = 1\nvalue = [0, 1]"] ;
804 -> 820 ;
821 [label="t1_all_total10_fl_match_draw <= 0.5\ngini = 0.432\nsamples = 19\nvalue = [6, 13]"] ;
7 -> 821 ;
822 [label="t2_h2h_away_total10_fl_match_win <= 0.5\ngini = 0.18\nsamples = 10\nvalue = [1, 9]"] ;
821 -> 822 ;
823 [label="gini = 0.0\nsamples = 8\nvalue = [0, 8]"] ;
822 -> 823 ;
824 [label="t1_h2h_home_total10_fl_match_draw <= 0.5\ngini = 0.5\nsamples = 2\nvalue = [1, 1]"] ;
822 -> 824 ;
825 [label="gini = 0.0\nsamples = 1\nvalue = [0, 1]"] ;
824 -> 825 ;
826 [label="gini = 0.0\nsamples = 1\nvalue = [1, 0]"] ;
824 -> 826 ;
827 [label="id_match_competition <= 237.5\ngini = 0.494\nsamples = 9\nvalue = [5, 4]"] ;
821 -> 827 ;
828 [label="t2_h2h_away_total5_fl_match_win <= 1.5\ngini = 0.32\nsamples = 5\nvalue = [1, 4]"] ;
827 -> 828 ;
829 [label="gini = 0.0\nsamples = 4\nvalue = [0, 4]"] ;
828 -> 829 ;
830 [label="gini = 0.0\nsamples = 1\nvalue = [1, 0]"] ;
828 -> 830 ;
831 [label="gini = 0.0\nsamples = 4\nvalue = [4, 0]"] ;
827 -> 831 ;
832 [label="t2_all_total10_fl_match_lost <= 6.5\ngini = 0.497\nsamples = 3060\nvalue = [1654, 1406]"] ;
6 -> 832 ;
833 [label="t1_all_total10_fl_match_lost <= 1.5\ngini = 0.495\nsamples = 2872\nvalue = [1573, 1299]"] ;
832 -> 833 ;
834 [label="t2_away_total10_fl_match_draw <= 3.5\ngini = 0.5\nsamples = 1000\nvalue = [507, 493]"] ;
833 -> 834 ;
835 [label="t2_h2h_total10_fl_match_draw <= 5.5\ngini = 0.5\nsamples = 993\nvalue = [500, 493]"] ;
834 -> 835 ;
836 [label="t1_h2h_total10_fl_match_lost <= 3.5\ngini = 0.5\nsamples = 981\nvalue = [498, 483]"] ;
835 -> 836 ;
837 [label="t2_away_total5_fl_match_draw <= 0.5\ngini = 0.5\nsamples = 894\nvalue = [444, 450]"] ;
836 -> 837 ;
838 [label="t1_all_total5_fl_match_win <= 1.5\ngini = 0.498\nsamples = 629\nvalue = [295, 334]"] ;
837 -> 838 ;
839 [label="t2_away_total5_fl_match_lost <= 1.5\ngini = 0.5\nsamples = 454\nvalue = [226, 228]"] ;
838 -> 839 ;
840 [label="t2_h2h_away_total5_fl_match_win <= 1.5\ngini = 0.499\nsamples = 415\nvalue = [200, 215]"] ;
839 -> 840 ;
841 [label="t1_h2h_total10_fl_match_lost <= 2.5\ngini = 0.5\nsamples = 386\nvalue = [191, 195]"] ;
840 -> 841 ;
842 [label="id_match_competition <= 5170.0\ngini = 0.498\nsamples = 335\nvalue = [158, 177]"] ;
841 -> 842 ;
843 [label="id_match_competition <= 172.5\ngini = 0.497\nsamples = 325\nvalue = [150, 175]"] ;
842 -> 843 ;
844 [label="t1_h2h_total5_fl_match_draw <= 2.5\ngini = 0.497\nsamples = 121\nvalue = [65, 56]"] ;
843 -> 844 ;
845 [label="t1_h2h_home_total5_fl_match_draw <= 0.5\ngini = 0.5\nsamples = 103\nvalue = [51, 52]"] ;
844 -> 845 ;
846 [label="t2_all_total5_fl_match_win <= 1.5\ngini = 0.489\nsamples = 75\nvalue = [43, 32]"] ;
845 -> 846 ;
847 [label="id_match_competition <= 73.0\ngini = 0.495\nsamples = 71\nvalue = [39, 32]"] ;
846 -> 847 ;
848 [label="id_match_competition <= 64.5\ngini = 0.473\nsamples = 13\nvalue = [5, 8]"] ;
847 -> 848 ;
849 [label="t2_all_total10_fl_match_draw <= 0.5\ngini = 0.469\nsamples = 8\nvalue = [5, 3]"] ;
848 -> 849 ;
850 [label="id_match_competition <= 48.5\ngini = 0.278\nsamples = 6\nvalue = [5, 1]"] ;
849 -> 850 ;
851 [label="gini = 0.0\nsamples = 1\nvalue = [0, 1]"] ;
850 -> 851 ;
852 [label="gini = 0.0\nsamples = 5\nvalue = [5, 0]"] ;
850 -> 852 ;
853 [label="gini = 0.0\nsamples = 2\nvalue = [0, 2]"] ;
849 -> 853 ;
854 [label="gini = 0.0\nsamples = 5\nvalue = [0, 5]"] ;
848 -> 854 ;
855 [label="id_match_competition <= 86.5\ngini = 0.485\nsamples = 58\nvalue = [34, 24]"] ;
847 -> 855 ;
856 [label="gini = 0.0\nsamples = 9\nvalue = [9, 0]"] ;
855 -> 856 ;
857 [label="id_match_competition <= 98.5\ngini = 0.5\nsamples = 49\nvalue = [25, 24]"] ;
855 -> 857 ;
858 [label="t1_all_total5_fl_match_draw <= 1.5\ngini = 0.346\nsamples = 9\nvalue = [2, 7]"] ;
857 -> 858 ;
859 [label="gini = 0.0\nsamples = 7\nvalue = [0, 7]"] ;
858 -> 859 ;
860 [label="gini = 0.0\nsamples = 2\nvalue = [2, 0]"] ;
858 -> 860 ;
861 [label="t1_h2h_total5_fl_match_draw <= 0.5\ngini = 0.489\nsamples = 40\nvalue = [23, 17]"] ;
857 -> 861 ;
862 [label="t2_h2h_away_total10_fl_match_win <= 0.5\ngini = 0.5\nsamples = 35\nvalue = [18, 17]"] ;
861 -> 862 ;
863 [label="t2_all_total10_fl_match_win <= 0.5\ngini = 0.498\nsamples = 32\nvalue = [15, 17]"] ;
862 -> 863 ;
864 [label="t1_home_total10_fl_match_win <= 0.5\ngini = 0.496\nsamples = 22\nvalue = [12, 10]"] ;
863 -> 864 ;
865 [label="id_match_competition <= 99.5\ngini = 0.475\nsamples = 18\nvalue = [11, 7]"] ;
864 -> 865 ;
866 [label="gini = 0.0\nsamples = 1\nvalue = [0, 1]"] ;
865 -> 866 ;
867 [label="t2_away_total5_fl_match_lost <= 0.5\ngini = 0.457\nsamples = 17\nvalue = [11, 6]"] ;
865 -> 867 ;
868 [label="id_match_competition <= 154.0\ngini = 0.375\nsamples = 12\nvalue = [9, 3]"] ;
867 -> 868 ;
869 [label="id_match_competition <= 124.5\ngini = 0.198\nsamples = 9\nvalue = [8, 1]"] ;
868 -> 869 ;
870 [label="gini = 0.0\nsamples = 4\nvalue = [4, 0]"] ;
869 -> 870 ;
871 [label="id_match_competition <= 139.5\ngini = 0.32\nsamples = 5\nvalue = [4, 1]"] ;
869 -> 871 ;
872 [label="gini = 0.5\nsamples = 2\nvalue = [1, 1]"] ;
871 -> 872 ;
873 [label="gini = 0.0\nsamples = 3\nvalue = [3, 0]"] ;
871 -> 873 ;
874 [label="id_match_competition <= 163.5\ngini = 0.444\nsamples = 3\nvalue = [1, 2]"] ;
868 -> 874 ;
875 [label="gini = 0.0\nsamples = 2\nvalue = [0, 2]"] ;
874 -> 875 ;
876 [label="gini = 0.0\nsamples = 1\nvalue = [1, 0]"] ;
874 -> 876 ;
877 [label="t2_all_total5_fl_match_draw <= 0.5\ngini = 0.48\nsamples = 5\nvalue = [2, 3]"] ;
867 -> 877 ;
878 [label="gini = 0.0\nsamples = 2\nvalue = [0, 2]"] ;
877 -> 878 ;
879 [label="t1_all_total10_fl_match_win <= 0.5\ngini = 0.444\nsamples = 3\nvalue = [2, 1]"] ;
877 -> 879 ;
880 [label="gini = 0.0\nsamples = 1\nvalue = [0, 1]"] ;
879 -> 880 ;
881 [label="gini = 0.0\nsamples = 2\nvalue = [2, 0]"] ;
879 -> 881 ;
882 [label="t1_all_total10_fl_match_draw <= 0.5\ngini = 0.375\nsamples = 4\nvalue = [1, 3]"] ;
864 -> 882 ;
883 [label="gini = 0.0\nsamples = 3\nvalue = [0, 3]"] ;
882 -> 883 ;
884 [label="gini = 0.0\nsamples = 1\nvalue = [1, 0]"] ;
882 -> 884 ;
885 [label="t1_home_total5_fl_match_win <= 0.5\ngini = 0.42\nsamples = 10\nvalue = [3, 7]"] ;
863 -> 885 ;
886 [label="gini = 0.0\nsamples = 6\nvalue = [0, 6]"] ;
885 -> 886 ;
887 [label="t2_h2h_total5_fl_match_lost <= 1.5\ngini = 0.375\nsamples = 4\nvalue = [3, 1]"] ;
885 -> 887 ;
888 [label="gini = 0.0\nsamples = 3\nvalue = [3, 0]"] ;
887 -> 888 ;
889 [label="gini = 0.0\nsamples = 1\nvalue = [0, 1]"] ;
887 -> 889 ;
890 [label="gini = 0.0\nsamples = 3\nvalue = [3, 0]"] ;
862 -> 890 ;
891 [label="gini = 0.0\nsamples = 5\nvalue = [5, 0]"] ;
861 -> 891 ;
892 [label="gini = 0.0\nsamples = 4\nvalue = [4, 0]"] ;
846 -> 892 ;
893 [label="t1_home_total10_fl_match_draw <= 1.5\ngini = 0.408\nsamples = 28\nvalue = [8, 20]"] ;
845 -> 893 ;
894 [label="id_match_competition <= 169.0\ngini = 0.355\nsamples = 26\nvalue = [6, 20]"] ;
893 -> 894 ;
895 [label="t2_all_total10_fl_match_lost <= 1.5\ngini = 0.32\nsamples = 25\nvalue = [5, 20]"] ;
894 -> 895 ;
896 [label="t1_all_total10_fl_match_draw <= 0.5\ngini = 0.401\nsamples = 18\nvalue = [5, 13]"] ;
895 -> 896 ;
897 [label="t1_all_total10_fl_match_lost <= 0.5\ngini = 0.245\nsamples = 7\nvalue = [1, 6]"] ;
896 -> 897 ;
898 [label="gini = 0.0\nsamples = 5\nvalue = [0, 5]"] ;
897 -> 898 ;
899 [label="t2_away_total5_fl_match_lost <= 0.5\ngini = 0.5\nsamples = 2\nvalue = [1, 1]"] ;
897 -> 899 ;
900 [label="gini = 0.0\nsamples = 1\nvalue = [0, 1]"] ;
899 -> 900 ;
901 [label="gini = 0.0\nsamples = 1\nvalue = [1, 0]"] ;
899 -> 901 ;
902 [label="t1_h2h_home_total10_fl_match_win <= 1.5\ngini = 0.463\nsamples = 11\nvalue = [4, 7]"] ;
896 -> 902 ;
903 [label="t1_h2h_home_total10_fl_match_draw <= 1.5\ngini = 0.42\nsamples = 10\nvalue = [3, 7]"] ;
902 -> 903 ;
904 [label="id_match_competition <= 105.0\ngini = 0.346\nsamples = 9\nvalue = [2, 7]"] ;
903 -> 904 ;
905 [label="t1_all_total5_fl_match_win <= 0.5\ngini = 0.48\nsamples = 5\nvalue = [2, 3]"] ;
904 -> 905 ;
906 [label="gini = 0.0\nsamples = 2\nvalue = [2, 0]"] ;
905 -> 906 ;
907 [label="gini = 0.0\nsamples = 3\nvalue = [0, 3]"] ;
905 -> 907 ;
908 [label="gini = 0.0\nsamples = 4\nvalue = [0, 4]"] ;
904 -> 908 ;
909 [label="gini = 0.0\nsamples = 1\nvalue = [1, 0]"] ;
903 -> 909 ;
910 [label="gini = 0.0\nsamples = 1\nvalue = [1, 0]"] ;
902 -> 910 ;
911 [label="gini = 0.0\nsamples = 7\nvalue = [0, 7]"] ;
895 -> 911 ;
912 [label="gini = 0.0\nsamples = 1\nvalue = [1, 0]"] ;
894 -> 912 ;
913 [label="gini = 0.0\nsamples = 2\nvalue = [2, 0]"] ;
893 -> 913 ;
914 [label="t2_all_total10_fl_match_draw <= 0.5\ngini = 0.346\nsamples = 18\nvalue = [14, 4]"] ;
844 -> 914 ;
915 [label="t2_h2h_away_total10_fl_match_lost <= 1.5\ngini = 0.231\nsamples = 15\nvalue = [13, 2]"] ;
914 -> 915 ;
916 [label="gini = 0.0\nsamples = 9\nvalue = [9, 0]"] ;
915 -> 916 ;
917 [label="t2_h2h_total10_fl_match_lost <= 3.0\ngini = 0.444\nsamples = 6\nvalue = [4, 2]"] ;
915 -> 917 ;
918 [label="gini = 0.0\nsamples = 2\nvalue = [0, 2]"] ;
917 -> 918 ;
919 [label="gini = 0.0\nsamples = 4\nvalue = [4, 0]"] ;
917 -> 919 ;
920 [label="t1_home_total10_fl_match_win <= 0.5\ngini = 0.444\nsamples = 3\nvalue = [1, 2]"] ;
914 -> 920 ;
921 [label="gini = 0.0\nsamples = 2\nvalue = [0, 2]"] ;
920 -> 921 ;
922 [label="gini = 0.0\nsamples = 1\nvalue = [1, 0]"] ;
920 -> 922 ;
923 [label="t1_all_total5_fl_match_lost <= 0.5\ngini = 0.486\nsamples = 204\nvalue = [85, 119]"] ;
843 -> 923 ;
924 [label="t2_h2h_total10_fl_match_lost <= 3.5\ngini = 0.44\nsamples = 92\nvalue = [30, 62]"] ;
923 -> 924 ;
925 [label="id_match_competition <= 913.0\ngini = 0.457\nsamples = 85\nvalue = [30, 55]"] ;
924 -> 925 ;
926 [label="id_match_competition <= 438.5\ngini = 0.447\nsamples = 83\nvalue = [28, 55]"] ;
925 -> 926 ;
927 [label="t1_all_total5_fl_match_win <= 0.5\ngini = 0.493\nsamples = 43\nvalue = [19, 24]"] ;
926 -> 927 ;
928 [label="t2_h2h_total10_fl_match_draw <= 3.5\ngini = 0.401\nsamples = 18\nvalue = [5, 13]"] ;
927 -> 928 ;
929 [label="id_match_competition <= 369.0\ngini = 0.305\nsamples = 16\nvalue = [3, 13]"] ;
928 -> 929 ;
930 [label="t2_h2h_total5_fl_match_lost <= 1.5\ngini = 0.231\nsamples = 15\nvalue = [2, 13]"] ;
929 -> 930 ;
931 [label="t1_home_total5_fl_match_draw <= 0.5\ngini = 0.142\nsamples = 13\nvalue = [1, 12]"] ;
930 -> 931 ;
932 [label="t1_h2h_total10_fl_match_draw <= 0.5\ngini = 0.32\nsamples = 5\nvalue = [1, 4]"] ;
931 -> 932 ;
933 [label="id_match_competition <= 214.0\ngini = 0.5\nsamples = 2\nvalue = [1, 1]"] ;
932 -> 933 ;
934 [label="gini = 0.0\nsamples = 1\nvalue = [1, 0]"] ;
933 -> 934 ;
935 [label="gini = 0.0\nsamples = 1\nvalue = [0, 1]"] ;
933 -> 935 ;
936 [label="gini = 0.0\nsamples = 3\nvalue = [0, 3]"] ;
932 -> 936 ;
937 [label="gini = 0.0\nsamples = 8\nvalue = [0, 8]"] ;
931 -> 937 ;
938 [label="t2_h2h_away_total10_fl_match_draw <= 0.5\ngini = 0.5\nsamples = 2\nvalue = [1, 1]"] ;
930 -> 938 ;
939 [label="gini = 0.0\nsamples = 1\nvalue = [0, 1]"] ;
938 -> 939 ;
940 [label="gini = 0.0\nsamples = 1\nvalue = [1, 0]"] ;
938 -> 940 ;
941 [label="gini = 0.0\nsamples = 1\nvalue = [1, 0]"] ;
929 -> 941 ;
942 [label="gini = 0.0\nsamples = 2\nvalue = [2, 0]"] ;
928 -> 942 ;
943 [label="t1_h2h_home_total10_fl_match_lost <= 0.5\ngini = 0.493\nsamples = 25\nvalue = [14, 11]"] ;
927 -> 943 ;
944 [label="t1_home_total5_fl_match_draw <= 0.5\ngini = 0.415\nsamples = 17\nvalue = [12, 5]"] ;
943 -> 944 ;
945 [label="t1_h2h_total5_fl_match_draw <= 0.5\ngini = 0.26\nsamples = 13\nvalue = [11, 2]"] ;
944 -> 945 ;
946 [label="id_match_competition <= 233.0\ngini = 0.346\nsamples = 9\nvalue = [7, 2]"] ;
945 -> 946 ;
947 [label="t2_all_total5_fl_match_lost <= 1.5\ngini = 0.219\nsamples = 8\nvalue = [7, 1]"] ;
946 -> 947 ;
948 [label="gini = 0.0\nsamples = 6\nvalue = [6, 0]"] ;
947 -> 948 ;
949 [label="t2_all_total10_fl_match_lost <= 2.5\ngini = 0.5\nsamples = 2\nvalue = [1, 1]"] ;
947 -> 949 ;
950 [label="gini = 0.0\nsamples = 1\nvalue = [0, 1]"] ;
949 -> 950 ;
951 [label="gini = 0.0\nsamples = 1\nvalue = [1, 0]"] ;
949 -> 951 ;
952 [label="gini = 0.0\nsamples = 1\nvalue = [0, 1]"] ;
946 -> 952 ;
953 [label="gini = 0.0\nsamples = 4\nvalue = [4, 0]"] ;
945 -> 953 ;
954 [label="t2_h2h_total5_fl_match_win <= 0.5\ngini = 0.375\nsamples = 4\nvalue = [1, 3]"] ;
944 -> 954 ;
955 [label="gini = 0.0\nsamples = 3\nvalue = [0, 3]"] ;
954 -> 955 ;
956 [label="gini = 0.0\nsamples = 1\nvalue = [1, 0]"] ;
954 -> 956 ;
957 [label="t2_all_total5_fl_match_win <= 0.5\ngini = 0.375\nsamples = 8\nvalue = [2, 6]"] ;
943 -> 957 ;
958 [label="gini = 0.0\nsamples = 5\nvalue = [0, 5]"] ;
957 -> 958 ;
959 [label="t2_all_total5_fl_match_win <= 1.5\ngini = 0.444\nsamples = 3\nvalue = [2, 1]"] ;
957 -> 959 ;
960 [label="gini = 0.0\nsamples = 2\nvalue = [2, 0]"] ;
959 -> 960 ;
961 [label="gini = 0.0\nsamples = 1\nvalue = [0, 1]"] ;
959 -> 961 ;
962 [label="t1_all_total5_fl_match_draw <= 3.0\ngini = 0.349\nsamples = 40\nvalue = [9, 31]"] ;
926 -> 962 ;
963 [label="t2_all_total10_fl_match_lost <= 1.5\ngini = 0.326\nsamples = 39\nvalue = [8, 31]"] ;
962 -> 963 ;
964 [label="t1_h2h_total5_fl_match_lost <= 0.5\ngini = 0.271\nsamples = 31\nvalue = [5, 26]"] ;
963 -> 964 ;
965 [label="id_match_competition <= 838.0\ngini = 0.1\nsamples = 19\nvalue = [1, 18]"] ;
964 -> 965 ;
966 [label="gini = 0.0\nsamples = 11\nvalue = [0, 11]"] ;
965 -> 966 ;
967 [label="id_match_competition <= 864.5\ngini = 0.219\nsamples = 8\nvalue = [1, 7]"] ;
965 -> 967 ;
968 [label="t1_home_total10_fl_match_win <= 0.5\ngini = 0.444\nsamples = 3\nvalue = [1, 2]"] ;
967 -> 968 ;
969 [label="t2_away_total5_fl_match_lost <= 0.5\ngini = 0.5\nsamples = 2\nvalue = [1, 1]"] ;
968 -> 969 ;
970 [label="gini = 0.0\nsamples = 1\nvalue = [1, 0]"] ;
969 -> 970 ;
971 [label="gini = 0.0\nsamples = 1\nvalue = [0, 1]"] ;
969 -> 971 ;
972 [label="gini = 0.0\nsamples = 1\nvalue = [0, 1]"] ;
968 -> 972 ;
973 [label="gini = 0.0\nsamples = 5\nvalue = [0, 5]"] ;
967 -> 973 ;
974 [label="id_match_competition <= 497.0\ngini = 0.444\nsamples = 12\nvalue = [4, 8]"] ;
964 -> 974 ;
975 [label="gini = 0.0\nsamples = 1\nvalue = [1, 0]"] ;
974 -> 975 ;
976 [label="t1_home_total5_fl_match_win <= 0.5\ngini = 0.397\nsamples = 11\nvalue = [3, 8]"] ;
974 -> 976 ;
977 [label="id_match_competition <= 719.0\ngini = 0.32\nsamples = 10\nvalue = [2, 8]"] ;
976 -> 977 ;
978 [label="gini = 0.0\nsamples = 4\nvalue = [0, 4]"] ;
977 -> 978 ;
979 [label="t2_h2h_total10_fl_match_draw <= 2.5\ngini = 0.444\nsamples = 6\nvalue = [2, 4]"] ;
977 -> 979 ;
980 [label="t2_h2h_away_total5_fl_match_draw <= 0.5\ngini = 0.444\nsamples = 3\nvalue = [2, 1]"] ;
979 -> 980 ;
981 [label="gini = 0.0\nsamples = 1\nvalue = [0, 1]"] ;
980 -> 981 ;
982 [label="gini = 0.0\nsamples = 2\nvalue = [2, 0]"] ;
980 -> 982 ;
983 [label="gini = 0.0\nsamples = 3\nvalue = [0, 3]"] ;
979 -> 983 ;
984 [label="gini = 0.0\nsamples = 1\nvalue = [1, 0]"] ;
976 -> 984 ;
985 [label="t1_all_total10_fl_match_win <= 0.5\ngini = 0.469\nsamples = 8\nvalue = [3, 5]"] ;
963 -> 985 ;
986 [label="gini = 0.0\nsamples = 2\nvalue = [2, 0]"] ;
985 -> 986 ;
987 [label="t1_home_total5_fl_match_draw <= 0.5\ngini = 0.278\nsamples = 6\nvalue = [1, 5]"] ;
985 -> 987 ;
988 [label="gini = 0.0\nsamples = 3\nvalue = [0, 3]"] ;
987 -> 988 ;
989 [label="t2_all_total10_fl_match_lost <= 2.5\ngini = 0.444\nsamples = 3\nvalue = [1, 2]"] ;
987 -> 989 ;
990 [label="gini = 0.0\nsamples = 1\nvalue = [1, 0]"] ;
989 -> 990 ;
991 [label="gini = 0.0\nsamples = 2\nvalue = [0, 2]"] ;
989 -> 991 ;
992 [label="gini = 0.0\nsamples = 1\nvalue = [1, 0]"] ;
962 -> 992 ;
993 [label="gini = 0.0\nsamples = 2\nvalue = [2, 0]"] ;
925 -> 993 ;
994 [label="gini = 0.0\nsamples = 7\nvalue = [0, 7]"] ;
924 -> 994 ;
995 [label="t2_away_total10_fl_match_lost <= 0.5\ngini = 0.5\nsamples = 112\nvalue = [55, 57]"] ;
923 -> 995 ;
996 [label="id_match_competition <= 219.5\ngini = 0.422\nsamples = 33\nvalue = [23, 10]"] ;
995 -> 996 ;
997 [label="t2_all_total5_fl_match_lost <= 1.5\ngini = 0.444\nsamples = 12\nvalue = [4, 8]"] ;
996 -> 997 ;
998 [label="t1_h2h_total10_fl_match_lost <= 0.5\ngini = 0.397\nsamples = 11\nvalue = [3, 8]"] ;
997 -> 998 ;
999 [label="id_match_competition <= 186.5\ngini = 0.49\nsamples = 7\nvalue = [3, 4]"] ;
998 -> 999 ;
1000 [label="gini = 0.0\nsamples = 1\nvalue = [1, 0]"] ;
999 -> 1000 ;
1001 [label="id_match_competition <= 205.0\ngini = 0.444\nsamples = 6\nvalue = [2, 4]"] ;
999 -> 1001 ;
1002 [label="gini = 0.0\nsamples = 3\nvalue = [0, 3]"] ;
1001 -> 1002 ;
1003 [label="t2_away_total5_fl_match_win <= 0.5\ngini = 0.444\nsamples = 3\nvalue = [2, 1]"] ;
1001 -> 1003 ;
1004 [label="t1_h2h_home_total10_fl_match_win <= 0.5\ngini = 0.5\nsamples = 2\nvalue = [1, 1]"] ;
1003 -> 1004 ;
1005 [label="gini = 0.0\nsamples = 1\nvalue = [0, 1]"] ;
1004 -> 1005 ;
1006 [label="gini = 0.0\nsamples = 1\nvalue = [1, 0]"] ;
1004 -> 1006 ;
1007 [label="gini = 0.0\nsamples = 1\nvalue = [1, 0]"] ;
1003 -> 1007 ;
1008 [label="gini = 0.0\nsamples = 4\nvalue = [0, 4]"] ;
998 -> 1008 ;
1009 [label="gini = 0.0\nsamples = 1\nvalue = [1, 0]"] ;
997 -> 1009 ;
1010 [label="id_match_competition <= 880.5\ngini = 0.172\nsamples = 21\nvalue = [19, 2]"] ;
996 -> 1010 ;
1011 [label="id_match_competition <= 242.5\ngini = 0.111\nsamples = 17\nvalue = [16, 1]"] ;
1010 -> 1011 ;
1012 [label="id_match_competition <= 235.5\ngini = 0.32\nsamples = 5\nvalue = [4, 1]"] ;
1011 -> 1012 ;
1013 [label="gini = 0.0\nsamples = 4\nvalue = [4, 0]"] ;
1012 -> 1013 ;
1014 [label="gini = 0.0\nsamples = 1\nvalue = [0, 1]"] ;
1012 -> 1014 ;
1015 [label="gini = 0.0\nsamples = 12\nvalue = [12, 0]"] ;
1011 -> 1015 ;
1016 [label="t1_h2h_home_total10_fl_match_win <= 0.5\ngini = 0.375\nsamples = 4\nvalue = [3, 1]"] ;
1010 -> 1016 ;
1017 [label="gini = 0.0\nsamples = 3\nvalue = [3, 0]"] ;
1016 -> 1017 ;
1018 [label="gini = 0.0\nsamples = 1\nvalue = [0, 1]"] ;
1016 -> 1018 ;
1019 [label="t1_h2h_home_total5_fl_match_lost <= 0.5\ngini = 0.482\nsamples = 79\nvalue = [32, 47]"] ;
995 -> 1019 ;
1020 [label="t1_h2h_home_total5_fl_match_draw <= 0.5\ngini = 0.499\nsamples = 62\nvalue = [30, 32]"] ;
1019 -> 1020 ;
1021 [label="id_match_competition <= 218.5\ngini = 0.485\nsamples = 46\nvalue = [19, 27]"] ;
1020 -> 1021 ;
1022 [label="gini = 0.0\nsamples = 5\nvalue = [0, 5]"] ;
1021 -> 1022 ;
1023 [label="id_match_competition <= 250.0\ngini = 0.497\nsamples = 41\nvalue = [19, 22]"] ;
1021 -> 1023 ;
1024 [label="t1_home_total10_fl_match_draw <= 0.5\ngini = 0.32\nsamples = 10\nvalue = [8, 2]"] ;
1023 -> 1024 ;
1025 [label="t1_h2h_total5_fl_match_win <= 0.5\ngini = 0.48\nsamples = 5\nvalue = [3, 2]"] ;
1024 -> 1025 ;
1026 [label="t1_home_total5_fl_match_lost <= 0.5\ngini = 0.444\nsamples = 3\nvalue = [1, 2]"] ;
1025 -> 1026 ;
1027 [label="t1_all_total5_fl_match_win <= 0.5\ngini = 0.5\nsamples = 2\nvalue = [1, 1]"] ;
1026 -> 1027 ;
1028 [label="gini = 0.0\nsamples = 1\nvalue = [1, 0]"] ;
1027 -> 1028 ;
1029 [label="gini = 0.0\nsamples = 1\nvalue = [0, 1]"] ;
1027 -> 1029 ;
1030 [label="gini = 0.0\nsamples = 1\nvalue = [0, 1]"] ;
1026 -> 1030 ;
1031 [label="gini = 0.0\nsamples = 2\nvalue = [2, 0]"] ;
1025 -> 1031 ;
1032 [label="gini = 0.0\nsamples = 5\nvalue = [5, 0]"] ;
1024 -> 1032 ;
1033 [label="id_match_competition <= 369.0\ngini = 0.458\nsamples = 31\nvalue = [11, 20]"] ;
1023 -> 1033 ;
1034 [label="gini = 0.0\nsamples = 3\nvalue = [0, 3]"] ;
1033 -> 1034 ;
1035 [label="id_match_competition <= 468.5\ngini = 0.477\nsamples = 28\nvalue = [11, 17]"] ;
1033 -> 1035 ;
1036 [label="gini = 0.0\nsamples = 2\nvalue = [2, 0]"] ;
1035 -> 1036 ;
1037 [label="id_match_competition <= 540.5\ngini = 0.453\nsamples = 26\nvalue = [9, 17]"] ;
1035 -> 1037 ;
1038 [label="gini = 0.0\nsamples = 3\nvalue = [0, 3]"] ;
1037 -> 1038 ;
1039 [label="id_match_competition <= 576.0\ngini = 0.476\nsamples = 23\nvalue = [9, 14]"] ;
1037 -> 1039 ;
1040 [label="gini = 0.0\nsamples = 1\nvalue = [1, 0]"] ;
1039 -> 1040 ;
1041 [label="id_match_competition <= 837.0\ngini = 0.463\nsamples = 22\nvalue = [8, 14]"] ;
1039 -> 1041 ;
1042 [label="gini = 0.0\nsamples = 3\nvalue = [0, 3]"] ;
1041 -> 1042 ;
1043 [label="id_match_competition <= 862.5\ngini = 0.488\nsamples = 19\nvalue = [8, 11]"] ;
1041 -> 1043 ;
1044 [label="gini = 0.0\nsamples = 1\nvalue = [1, 0]"] ;
1043 -> 1044 ;
1045 [label="t1_home_total5_fl_match_draw <= 0.5\ngini = 0.475\nsamples = 18\nvalue = [7, 11]"] ;
1043 -> 1045 ;
1046 [label="t1_all_total5_fl_match_draw <= 1.5\ngini = 0.5\nsamples = 12\nvalue = [6, 6]"] ;
1045 -> 1046 ;
1047 [label="t2_h2h_total5_fl_match_win <= 0.5\ngini = 0.496\nsamples = 11\nvalue = [5, 6]"] ;
1046 -> 1047 ;
1048 [label="id_match_competition <= 965.5\ngini = 0.48\nsamples = 10\nvalue = [4, 6]"] ;
1047 -> 1048 ;
1049 [label="t2_all_total10_fl_match_win <= 0.5\ngini = 0.32\nsamples = 5\nvalue = [1, 4]"] ;
1048 -> 1049 ;
1050 [label="t1_all_total5_fl_match_win <= 0.5\ngini = 0.5\nsamples = 2\nvalue = [1, 1]"] ;
1049 -> 1050 ;
1051 [label="gini = 0.0\nsamples = 1\nvalue = [1, 0]"] ;
1050 -> 1051 ;
1052 [label="gini = 0.0\nsamples = 1\nvalue = [0, 1]"] ;
1050 -> 1052 ;
1053 [label="gini = 0.0\nsamples = 3\nvalue = [0, 3]"] ;
1049 -> 1053 ;
1054 [label="t2_all_total5_fl_match_lost <= 1.5\ngini = 0.48\nsamples = 5\nvalue = [3, 2]"] ;
1048 -> 1054 ;
1055 [label="t2_all_total10_fl_match_win <= 0.5\ngini = 0.444\nsamples = 3\nvalue = [1, 2]"] ;
1054 -> 1055 ;
1056 [label="gini = 0.0\nsamples = 1\nvalue = [0, 1]"] ;
1055 -> 1056 ;
1057 [label="t2_away_total10_fl_match_win <= 0.5\ngini = 0.5\nsamples = 2\nvalue = [1, 1]"] ;
1055 -> 1057 ;
1058 [label="gini = 0.0\nsamples = 1\nvalue = [1, 0]"] ;
1057 -> 1058 ;
1059 [label="gini = 0.0\nsamples = 1\nvalue = [0, 1]"] ;
1057 -> 1059 ;
1060 [label="gini = 0.0\nsamples = 2\nvalue = [2, 0]"] ;
1054 -> 1060 ;
1061 [label="gini = 0.0\nsamples = 1\nvalue = [1, 0]"] ;
1047 -> 1061 ;
1062 [label="gini = 0.0\nsamples = 1\nvalue = [1, 0]"] ;
1046 -> 1062 ;
1063 [label="id_match_competition <= 888.0\ngini = 0.278\nsamples = 6\nvalue = [1, 5]"] ;
1045 -> 1063 ;
1064 [label="gini = 0.0\nsamples = 3\nvalue = [0, 3]"] ;
1063 -> 1064 ;
1065 [label="id_match_competition <= 965.5\ngini = 0.444\nsamples = 3\nvalue = [1, 2]"] ;
1063 -> 1065 ;
1066 [label="gini = 0.0\nsamples = 1\nvalue = [1, 0]"] ;
1065 -> 1066 ;
1067 [label="gini = 0.0\nsamples = 2\nvalue = [0, 2]"] ;
1065 -> 1067 ;
1068 [label="t2_h2h_away_total10_fl_match_lost <= 5.0\ngini = 0.43\nsamples = 16\nvalue = [11, 5]"] ;
1020 -> 1068 ;
1069 [label="t1_h2h_total5_fl_match_win <= 1.5\ngini = 0.391\nsamples = 15\nvalue = [11, 4]"] ;
1068 -> 1069 ;
1070 [label="id_match_competition <= 202.0\ngini = 0.494\nsamples = 9\nvalue = [5, 4]"] ;
1069 -> 1070 ;
1071 [label="gini = 0.0\nsamples = 2\nvalue = [2, 0]"] ;
1070 -> 1071 ;
1072 [label="t1_home_total5_fl_match_draw <= 0.5\ngini = 0.49\nsamples = 7\nvalue = [3, 4]"] ;
1070 -> 1072 ;
1073 [label="t2_all_total10_fl_match_lost <= 1.5\ngini = 0.48\nsamples = 5\nvalue = [3, 2]"] ;
1072 -> 1073 ;
1074 [label="t1_home_total5_fl_match_lost <= 0.5\ngini = 0.444\nsamples = 3\nvalue = [1, 2]"] ;
1073 -> 1074 ;
1075 [label="gini = 0.0\nsamples = 2\nvalue = [0, 2]"] ;
1074 -> 1075 ;
1076 [label="gini = 0.0\nsamples = 1\nvalue = [1, 0]"] ;
1074 -> 1076 ;
1077 [label="gini = 0.0\nsamples = 2\nvalue = [2, 0]"] ;
1073 -> 1077 ;
1078 [label="gini = 0.0\nsamples = 2\nvalue = [0, 2]"] ;
1072 -> 1078 ;
1079 [label="gini = 0.0\nsamples = 6\nvalue = [6, 0]"] ;
1069 -> 1079 ;
1080 [label="gini = 0.0\nsamples = 1\nvalue = [0, 1]"] ;
1068 -> 1080 ;
1081 [label="id_match_competition <= 344.0\ngini = 0.208\nsamples = 17\nvalue = [2, 15]"] ;
1019 -> 1081 ;
1082 [label="gini = 0.0\nsamples = 9\nvalue = [0, 9]"] ;
1081 -> 1082 ;
1083 [label="id_match_competition <= 504.0\ngini = 0.375\nsamples = 8\nvalue = [2, 6]"] ;
1081 -> 1083 ;
1084 [label="gini = 0.0\nsamples = 1\nvalue = [1, 0]"] ;
1083 -> 1084 ;
1085 [label="t2_h2h_away_total10_fl_match_draw <= 0.5\ngini = 0.245\nsamples = 7\nvalue = [1, 6]"] ;
1083 -> 1085 ;
1086 [label="gini = 0.0\nsamples = 4\nvalue = [0, 4]"] ;
1085 -> 1086 ;
1087 [label="t1_h2h_home_total5_fl_match_win <= 0.5\ngini = 0.444\nsamples = 3\nvalue = [1, 2]"] ;
1085 -> 1087 ;
1088 [label="gini = 0.0\nsamples = 1\nvalue = [1, 0]"] ;
1087 -> 1088 ;
1089 [label="gini = 0.0\nsamples = 2\nvalue = [0, 2]"] ;
1087 -> 1089 ;
1090 [label="t1_h2h_total10_fl_match_win <= 3.5\ngini = 0.32\nsamples = 10\nvalue = [8, 2]"] ;
842 -> 1090 ;
1091 [label="t2_all_total5_fl_match_win <= 1.5\ngini = 0.198\nsamples = 9\nvalue = [8, 1]"] ;
1090 -> 1091 ;
1092 [label="gini = 0.0\nsamples = 8\nvalue = [8, 0]"] ;
1091 -> 1092 ;
1093 [label="gini = 0.0\nsamples = 1\nvalue = [0, 1]"] ;
1091 -> 1093 ;
1094 [label="gini = 0.0\nsamples = 1\nvalue = [0, 1]"] ;
1090 -> 1094 ;
1095 [label="t1_h2h_total10_fl_match_draw <= 4.5\ngini = 0.457\nsamples = 51\nvalue = [33, 18]"] ;
841 -> 1095 ;
1096 [label="id_match_competition <= 5170.0\ngini = 0.43\nsamples = 48\nvalue = [33, 15]"] ;
1095 -> 1096 ;
1097 [label="t1_all_total5_fl_match_draw <= 1.5\ngini = 0.405\nsamples = 46\nvalue = [33, 13]"] ;
1096 -> 1097 ;
1098 [label="t2_h2h_total10_fl_match_draw <= 0.5\ngini = 0.45\nsamples = 38\nvalue = [25, 13]"] ;
1097 -> 1098 ;
1099 [label="gini = 0.0\nsamples = 2\nvalue = [0, 2]"] ;
1098 -> 1099 ;
1100 [label="t2_all_total5_fl_match_draw <= 0.5\ngini = 0.424\nsamples = 36\nvalue = [25, 11]"] ;
1098 -> 1100 ;
1101 [label="t2_h2h_away_total10_fl_match_win <= 0.5\ngini = 0.337\nsamples = 28\nvalue = [22, 6]"] ;
1100 -> 1101 ;
1102 [label="t2_all_total5_fl_match_win <= 0.5\ngini = 0.48\nsamples = 5\nvalue = [2, 3]"] ;
1101 -> 1102 ;
1103 [label="gini = 0.0\nsamples = 3\nvalue = [0, 3]"] ;
1102 -> 1103 ;
1104 [label="gini = 0.0\nsamples = 2\nvalue = [2, 0]"] ;
1102 -> 1104 ;
1105 [label="t2_all_total5_fl_match_lost <= 1.5\ngini = 0.227\nsamples = 23\nvalue = [20, 3]"] ;
1101 -> 1105 ;
1106 [label="id_match_competition <= 475.0\ngini = 0.172\nsamples = 21\nvalue = [19, 2]"] ;
1105 -> 1106 ;
1107 [label="gini = 0.0\nsamples = 14\nvalue = [14, 0]"] ;
1106 -> 1107 ;
1108 [label="id_match_competition <= 888.0\ngini = 0.408\nsamples = 7\nvalue = [5, 2]"] ;
1106 -> 1108 ;
1109 [label="gini = 0.0\nsamples = 2\nvalue = [0, 2]"] ;
1108 -> 1109 ;
1110 [label="gini = 0.0\nsamples = 5\nvalue = [5, 0]"] ;
1108 -> 1110 ;
1111 [label="t1_home_total5_fl_match_draw <= 0.5\ngini = 0.5\nsamples = 2\nvalue = [1, 1]"] ;
1105 -> 1111 ;
1112 [label="gini = 0.0\nsamples = 1\nvalue = [0, 1]"] ;
1111 -> 1112 ;
1113 [label="gini = 0.0\nsamples = 1\nvalue = [1, 0]"] ;
1111 -> 1113 ;
1114 [label="t1_all_total5_fl_match_lost <= 0.5\ngini = 0.469\nsamples = 8\nvalue = [3, 5]"] ;
1100 -> 1114 ;
1115 [label="gini = 0.0\nsamples = 2\nvalue = [2, 0]"] ;
1114 -> 1115 ;
1116 [label="t2_h2h_away_total5_fl_match_win <= 0.5\ngini = 0.278\nsamples = 6\nvalue = [1, 5]"] ;
1114 -> 1116 ;
1117 [label="t2_h2h_away_total5_fl_match_draw <= 1.5\ngini = 0.5\nsamples = 2\nvalue = [1, 1]"] ;
1116 -> 1117 ;
1118 [label="gini = 0.0\nsamples = 1\nvalue = [1, 0]"] ;
1117 -> 1118 ;
1119 [label="gini = 0.0\nsamples = 1\nvalue = [0, 1]"] ;
1117 -> 1119 ;
1120 [label="gini = 0.0\nsamples = 4\nvalue = [0, 4]"] ;
1116 -> 1120 ;
1121 [label="gini = 0.0\nsamples = 8\nvalue = [8, 0]"] ;
1097 -> 1121 ;
1122 [label="gini = 0.0\nsamples = 2\nvalue = [0, 2]"] ;
1096 -> 1122 ;
1123 [label="gini = 0.0\nsamples = 3\nvalue = [0, 3]"] ;
1095 -> 1123 ;
1124 [label="t2_all_total10_fl_match_win <= 1.5\ngini = 0.428\nsamples = 29\nvalue = [9, 20]"] ;
840 -> 1124 ;
1125 [label="t2_h2h_away_total10_fl_match_draw <= 2.5\ngini = 0.384\nsamples = 27\nvalue = [7, 20]"] ;
1124 -> 1125 ;
1126 [label="id_match_competition <= 15376.5\ngini = 0.32\nsamples = 25\nvalue = [5, 20]"] ;
1125 -> 1126 ;
