digraph Tree {
node [shape=box, fontname="helvetica"] ;
edge [fontname="helvetica"] ;
0 [label="t1_h2h_total5_fl_match_win <= 2.5\ngini = 0.488\nsamples = 21911\nvalue = [12630, 9281]"] ;
1 [label="t1_h2h_total10_fl_match_lost <= 4.5\ngini = 0.478\nsamples = 17910\nvalue = [10815, 7095]"] ;
0 -> 1 [labeldistance=2.5, labelangle=45, headlabel="True"] ;
2 [label="t1_all_total10_fl_match_win <= 5.5\ngini = 0.487\nsamples = 14853\nvalue = [8643, 6210]"] ;
1 -> 2 ;
3 [label="t2_all_total10_fl_match_win <= 2.5\ngini = 0.481\nsamples = 13378\nvalue = [7988, 5390]"] ;
2 -> 3 ;
4 [label="t1_all_total10_fl_match_win <= 3.5\ngini = 0.494\nsamples = 6294\nvalue = [3501, 2793]"] ;
3 -> 4 ;
5 [label="t1_home_total10_fl_match_lost <= 3.5\ngini = 0.489\nsamples = 5053\nvalue = [2893, 2160]"] ;
4 -> 5 ;
6 [label="t2_all_total10_fl_match_lost <= 0.5\ngini = 0.493\nsamples = 4267\nvalue = [2393, 1874]"] ;
5 -> 6 ;
7 [label="t1_all_total5_fl_match_win <= 2.5\ngini = 0.475\nsamples = 1207\nvalue = [739, 468]"] ;
6 -> 7 ;
8 [label="t2_h2h_total10_fl_match_draw <= 0.5\ngini = 0.473\nsamples = 1188\nvalue = [733, 455]"] ;
7 -> 8 ;
9 [label="id_match_competition <= 69.0\ngini = 0.489\nsamples = 517\nvalue = [297, 220]"] ;
8 -> 9 ;
10 [label="t2_all_total5_fl_match_draw <= 0.5\ngini = 0.444\nsamples = 18\nvalue = [6, 12]"] ;
9 -> 10 ;
11 [label="t1_h2h_total5_fl_match_lost <= 1.5\ngini = 0.375\nsamples = 16\nvalue = [4, 12]"] ;
10 -> 11 ;
12 [label="t2_h2h_total5_fl_match_lost <= 1.5\ngini = 0.444\nsamples = 12\nvalue = [4, 8]"] ;
11 -> 12 ;
13 [label="t1_h2h_total5_fl_match_lost <= 0.5\ngini = 0.397\nsamples = 11\nvalue = [3, 8]"] ;
12 -> 13 ;
14 [label="t1_h2h_total5_fl_match_win <= 0.5\ngini = 0.444\nsamples = 9\nvalue = [3, 6]"] ;
13 -> 14 ;
15 [label="t1_all_total5_fl_match_draw <= 0.5\ngini = 0.469\nsamples = 8\nvalue = [3, 5]"] ;
14 -> 15 ;
16 [label="id_match_competition <= 55.5\ngini = 0.49\nsamples = 7\nvalue = [3, 4]"] ;
15 -> 16 ;
17 [label="gini = 0.0\nsamples = 1\nvalue = [1, 0]"] ;
16 -> 17 ;
18 [label="t1_all_total10_fl_match_lost <= 0.5\ngini = 0.444\nsamples = 6\nvalue = [2, 4]"] ;
16 -> 18 ;
19 [label="gini = 0.444\nsamples = 3\nvalue = [1, 2]"] ;
18 -> 19 ;
20 [label="gini = 0.444\nsamples = 3\nvalue = [1, 2]"] ;
18 -> 20 ;
21 [label="gini = 0.0\nsamples = 1\nvalue = [0, 1]"] ;
15 -> 21 ;
22 [label="gini = 0.0\nsamples = 1\nvalue = [0, 1]"] ;
14 -> 22 ;
23 [label="gini = 0.0\nsamples = 2\nvalue = [0, 2]"] ;
13 -> 23 ;
24 [label="gini = 0.0\nsamples = 1\nvalue = [1, 0]"] ;
12 -> 24 ;
25 [label="gini = 0.0\nsamples = 4\nvalue = [0, 4]"] ;
11 -> 25 ;
26 [label="gini = 0.0\nsamples = 2\nvalue = [2, 0]"] ;
10 -> 26 ;
27 [label="id_match_competition <= 125.5\ngini = 0.486\nsamples = 499\nvalue = [291, 208]"] ;
9 -> 27 ;
28 [label="t2_all_total10_fl_match_draw <= 2.5\ngini = 0.413\nsamples = 79\nvalue = [56, 23]"] ;
27 -> 28 ;
29 [label="t2_h2h_total10_fl_match_lost <= 1.5\ngini = 0.388\nsamples = 76\nvalue = [56, 20]"] ;
28 -> 29 ;
30 [label="t1_home_total5_fl_match_draw <= 0.5\ngini = 0.348\nsamples = 67\nvalue = [52, 15]"] ;
29 -> 30 ;
31 [label="t2_all_total10_fl_match_draw <= 1.5\ngini = 0.367\nsamples = 62\nvalue = [47, 15]"] ;
30 -> 31 ;
32 [label="t1_home_total10_fl_match_win <= 0.5\ngini = 0.354\nsamples = 61\nvalue = [47, 14]"] ;
31 -> 32 ;
33 [label="id_match_competition <= 74.5\ngini = 0.384\nsamples = 54\nvalue = [40, 14]"] ;
32 -> 33 ;
34 [label="id_match_competition <= 73.0\ngini = 0.494\nsamples = 9\nvalue = [5, 4]"] ;
33 -> 34 ;
35 [label="t2_away_total5_fl_match_win <= 0.5\ngini = 0.408\nsamples = 7\nvalue = [5, 2]"] ;
34 -> 35 ;
36 [label="t1_h2h_total10_fl_match_lost <= 0.5\ngini = 0.278\nsamples = 6\nvalue = [5, 1]"] ;
35 -> 36 ;
37 [label="gini = 0.32\nsamples = 5\nvalue = [4, 1]"] ;
36 -> 37 ;
38 [label="gini = 0.0\nsamples = 1\nvalue = [1, 0]"] ;
36 -> 38 ;
39 [label="gini = 0.0\nsamples = 1\nvalue = [0, 1]"] ;
35 -> 39 ;
40 [label="gini = 0.0\nsamples = 2\nvalue = [0, 2]"] ;
34 -> 40 ;
41 [label="id_match_competition <= 98.5\ngini = 0.346\nsamples = 45\nvalue = [35, 10]"] ;
33 -> 41 ;
42 [label="t1_all_total5_fl_match_draw <= 0.5\ngini = 0.133\nsamples = 14\nvalue = [13, 1]"] ;
41 -> 42 ;
43 [label="gini = 0.0\nsamples = 10\nvalue = [10, 0]"] ;
42 -> 43 ;
44 [label="t1_all_total10_fl_match_lost <= 0.5\ngini = 0.375\nsamples = 4\nvalue = [3, 1]"] ;
42 -> 44 ;
45 [label="gini = 0.0\nsamples = 2\nvalue = [2, 0]"] ;
44 -> 45 ;
46 [label="t2_all_total5_fl_match_win <= 0.5\ngini = 0.5\nsamples = 2\nvalue = [1, 1]"] ;
44 -> 46 ;
47 [label="gini = 0.0\nsamples = 1\nvalue = [0, 1]"] ;
46 -> 47 ;
48 [label="gini = 0.0\nsamples = 1\nvalue = [1, 0]"] ;
46 -> 48 ;
49 [label="t1_all_total5_fl_match_draw <= 0.5\ngini = 0.412\nsamples = 31\nvalue = [22, 9]"] ;
41 -> 49 ;
50 [label="id_match_competition <= 105.0\ngini = 0.375\nsamples = 28\nvalue = [21, 7]"] ;
49 -> 50 ;
51 [label="t1_h2h_total5_fl_match_lost <= 0.5\ngini = 0.48\nsamples = 15\nvalue = [9, 6]"] ;
50 -> 51 ;
52 [label="t1_all_total10_fl_match_win <= 0.5\ngini = 0.397\nsamples = 11\nvalue = [8, 3]"] ;
51 -> 52 ;
53 [label="t2_all_total10_fl_match_draw <= 0.5\ngini = 0.32\nsamples = 10\nvalue = [8, 2]"] ;
52 -> 53 ;
54 [label="id_match_competition <= 99.5\ngini = 0.408\nsamples = 7\nvalue = [5, 2]"] ;
53 -> 54 ;
55 [label="gini = 0.0\nsamples = 1\nvalue = [1, 0]"] ;
54 -> 55 ;
56 [label="gini = 0.444\nsamples = 6\nvalue = [4, 2]"] ;
54 -> 56 ;
57 [label="gini = 0.0\nsamples = 3\nvalue = [3, 0]"] ;
53 -> 57 ;
58 [label="gini = 0.0\nsamples = 1\nvalue = [0, 1]"] ;
52 -> 58 ;
59 [label="t2_h2h_total10_fl_match_win <= 3.0\ngini = 0.375\nsamples = 4\nvalue = [1, 3]"] ;
51 -> 59 ;
60 [label="gini = 0.0\nsamples = 2\nvalue = [0, 2]"] ;
59 -> 60 ;
61 [label="id_match_competition <= 99.5\ngini = 0.5\nsamples = 2\nvalue = [1, 1]"] ;
59 -> 61 ;
62 [label="gini = 0.0\nsamples = 1\nvalue = [1, 0]"] ;
61 -> 62 ;
63 [label="gini = 0.0\nsamples = 1\nvalue = [0, 1]"] ;
61 -> 63 ;
64 [label="t1_all_total10_fl_match_lost <= 0.5\ngini = 0.142\nsamples = 13\nvalue = [12, 1]"] ;
50 -> 64 ;
65 [label="t2_h2h_total5_fl_match_win <= 0.5\ngini = 0.219\nsamples = 8\nvalue = [7, 1]"] ;
64 -> 65 ;
66 [label="id_match_competition <= 116.5\ngini = 0.32\nsamples = 5\nvalue = [4, 1]"] ;
65 -> 66 ;
67 [label="gini = 0.0\nsamples = 1\nvalue = [1, 0]"] ;
66 -> 67 ;
68 [label="id_match_competition <= 124.0\ngini = 0.375\nsamples = 4\nvalue = [3, 1]"] ;
66 -> 68 ;
69 [label="gini = 0.444\nsamples = 3\nvalue = [2, 1]"] ;
68 -> 69 ;
70 [label="gini = 0.0\nsamples = 1\nvalue = [1, 0]"] ;
68 -> 70 ;
71 [label="gini = 0.0\nsamples = 3\nvalue = [3, 0]"] ;
65 -> 71 ;
72 [label="gini = 0.0\nsamples = 5\nvalue = [5, 0]"] ;
64 -> 72 ;
73 [label="t1_h2h_total10_fl_match_lost <= 1.0\ngini = 0.444\nsamples = 3\nvalue = [1, 2]"] ;
49 -> 73 ;
74 [label="gini = 0.0\nsamples = 2\nvalue = [0, 2]"] ;
73 -> 74 ;
75 [label="gini = 0.0\nsamples = 1\nvalue = [1, 0]"] ;
73 -> 75 ;
76 [label="gini = 0.0\nsamples = 7\nvalue = [7, 0]"] ;
32 -> 76 ;
77 [label="gini = 0.0\nsamples = 1\nvalue = [0, 1]"] ;
31 -> 77 ;
78 [label="gini = 0.0\nsamples = 5\nvalue = [5, 0]"] ;
30 -> 78 ;
79 [label="id_match_competition <= 77.0\ngini = 0.494\nsamples = 9\nvalue = [4, 5]"] ;
29 -> 79 ;
80 [label="gini = 0.0\nsamples = 2\nvalue = [2, 0]"] ;
79 -> 80 ;
81 [label="t2_all_total10_fl_match_win <= 0.5\ngini = 0.408\nsamples = 7\nvalue = [2, 5]"] ;
79 -> 81 ;
82 [label="t2_h2h_away_total10_fl_match_lost <= 1.5\ngini = 0.5\nsamples = 4\nvalue = [2, 2]"] ;
81 -> 82 ;
83 [label="t2_h2h_total10_fl_match_win <= 2.0\ngini = 0.444\nsamples = 3\nvalue = [1, 2]"] ;
82 -> 83 ;
84 [label="gini = 0.0\nsamples = 1\nvalue = [0, 1]"] ;
83 -> 84 ;
85 [label="gini = 0.5\nsamples = 2\nvalue = [1, 1]"] ;
83 -> 85 ;
86 [label="gini = 0.0\nsamples = 1\nvalue = [1, 0]"] ;
82 -> 86 ;
87 [label="gini = 0.0\nsamples = 3\nvalue = [0, 3]"] ;
81 -> 87 ;
88 [label="gini = 0.0\nsamples = 3\nvalue = [0, 3]"] ;
28 -> 88 ;
89 [label="t1_all_total5_fl_match_draw <= 0.5\ngini = 0.493\nsamples = 420\nvalue = [235, 185]"] ;
27 -> 89 ;
90 [label="t2_all_total10_fl_match_win <= 0.5\ngini = 0.498\nsamples = 305\nvalue = [161, 144]"] ;
89 -> 90 ;
91 [label="t1_all_total5_fl_match_win <= 1.5\ngini = 0.5\nsamples = 225\nvalue = [112, 113]"] ;
90 -> 91 ;
92 [label="t2_all_total5_fl_match_draw <= 0.5\ngini = 0.5\nsamples = 221\nvalue = [108, 113]"] ;
91 -> 92 ;
93 [label="t1_h2h_home_total5_fl_match_lost <= 0.5\ngini = 0.5\nsamples = 179\nvalue = [92, 87]"] ;
92 -> 93 ;
94 [label="id_match_competition <= 235.5\ngini = 0.496\nsamples = 151\nvalue = [82, 69]"] ;
93 -> 94 ;
95 [label="t2_h2h_total5_fl_match_lost <= 0.5\ngini = 0.499\nsamples = 67\nvalue = [32, 35]"] ;
94 -> 95 ;
96 [label="id_match_competition <= 222.0\ngini = 0.486\nsamples = 53\nvalue = [22, 31]"] ;
95 -> 96 ;
97 [label="t1_h2h_total10_fl_match_lost <= 0.5\ngini = 0.491\nsamples = 51\nvalue = [22, 29]"] ;
96 -> 97 ;
98 [label="id_match_competition <= 154.0\ngini = 0.487\nsamples = 50\nvalue = [21, 29]"] ;
97 -> 98 ;
99 [label="id_match_competition <= 139.5\ngini = 0.49\nsamples = 7\nvalue = [4, 3]"] ;
98 -> 99 ;
100 [label="gini = 0.5\nsamples = 4\nvalue = [2, 2]"] ;
99 -> 100 ;
101 [label="gini = 0.444\nsamples = 3\nvalue = [2, 1]"] ;
99 -> 101 ;
102 [label="id_match_competition <= 201.0\ngini = 0.478\nsamples = 43\nvalue = [17, 26]"] ;
98 -> 102 ;
103 [label="id_match_competition <= 194.5\ngini = 0.434\nsamples = 22\nvalue = [7, 15]"] ;
102 -> 103 ;
104 [label="t1_all_total10_fl_match_win <= 0.5\ngini = 0.455\nsamples = 20\nvalue = [7, 13]"] ;
103 -> 104 ;
105 [label="id_match_competition <= 173.5\ngini = 0.465\nsamples = 19\nvalue = [7, 12]"] ;
104 -> 105 ;
106 [label="id_match_competition <= 172.5\ngini = 0.42\nsamples = 10\nvalue = [3, 7]"] ;
105 -> 106 ;
107 [label="id_match_competition <= 169.0\ngini = 0.469\nsamples = 8\nvalue = [3, 5]"] ;
106 -> 107 ;
108 [label="id_match_competition <= 160.5\ngini = 0.444\nsamples = 6\nvalue = [2, 4]"] ;
107 -> 108 ;
109 [label="gini = 0.48\nsamples = 5\nvalue = [2, 3]"] ;
108 -> 109 ;
110 [label="gini = 0.0\nsamples = 1\nvalue = [0, 1]"] ;
108 -> 110 ;
111 [label="gini = 0.5\nsamples = 2\nvalue = [1, 1]"] ;
107 -> 111 ;
112 [label="gini = 0.0\nsamples = 2\nvalue = [0, 2]"] ;
106 -> 112 ;
113 [label="id_match_competition <= 174.5\ngini = 0.494\nsamples = 9\nvalue = [4, 5]"] ;
105 -> 113 ;
114 [label="gini = 0.0\nsamples = 1\nvalue = [1, 0]"] ;
113 -> 114 ;
115 [label="id_match_competition <= 182.0\ngini = 0.469\nsamples = 8\nvalue = [3, 5]"] ;
113 -> 115 ;
116 [label="gini = 0.0\nsamples = 1\nvalue = [0, 1]"] ;
115 -> 116 ;
117 [label="id_match_competition <= 189.5\ngini = 0.49\nsamples = 7\nvalue = [3, 4]"] ;
115 -> 117 ;
118 [label="gini = 0.0\nsamples = 1\nvalue = [1, 0]"] ;
117 -> 118 ;
119 [label="gini = 0.444\nsamples = 6\nvalue = [2, 4]"] ;
117 -> 119 ;
120 [label="gini = 0.0\nsamples = 1\nvalue = [0, 1]"] ;
104 -> 120 ;
121 [label="gini = 0.0\nsamples = 2\nvalue = [0, 2]"] ;
103 -> 121 ;
122 [label="id_match_competition <= 214.5\ngini = 0.499\nsamples = 21\nvalue = [10, 11]"] ;
102 -> 122 ;
123 [label="id_match_competition <= 210.5\ngini = 0.375\nsamples = 4\nvalue = [3, 1]"] ;
122 -> 123 ;
124 [label="id_match_competition <= 205.0\ngini = 0.5\nsamples = 2\nvalue = [1, 1]"] ;
123 -> 124 ;
125 [label="gini = 0.0\nsamples = 1\nvalue = [1, 0]"] ;
124 -> 125 ;
126 [label="gini = 0.0\nsamples = 1\nvalue = [0, 1]"] ;
124 -> 126 ;
127 [label="gini = 0.0\nsamples = 2\nvalue = [2, 0]"] ;
123 -> 127 ;
128 [label="id_match_competition <= 217.0\ngini = 0.484\nsamples = 17\nvalue = [7, 10]"] ;
122 -> 128 ;
129 [label="t1_all_total10_fl_match_win <= 0.5\ngini = 0.32\nsamples = 5\nvalue = [1, 4]"] ;
128 -> 129 ;
130 [label="gini = 0.0\nsamples = 4\nvalue = [0, 4]"] ;
129 -> 130 ;
131 [label="gini = 0.0\nsamples = 1\nvalue = [1, 0]"] ;
129 -> 131 ;
132 [label="id_match_competition <= 220.0\ngini = 0.5\nsamples = 12\nvalue = [6, 6]"] ;
128 -> 132 ;
133 [label="gini = 0.0\nsamples = 2\nvalue = [2, 0]"] ;
132 -> 133 ;
134 [label="t1_all_total10_fl_match_win <= 0.5\ngini = 0.48\nsamples = 10\nvalue = [4, 6]"] ;
132 -> 134 ;
135 [label="gini = 0.494\nsamples = 9\nvalue = [4, 5]"] ;
134 -> 135 ;
136 [label="gini = 0.0\nsamples = 1\nvalue = [0, 1]"] ;
134 -> 136 ;
137 [label="gini = 0.0\nsamples = 1\nvalue = [1, 0]"] ;
97 -> 137 ;
138 [label="gini = 0.0\nsamples = 2\nvalue = [0, 2]"] ;
96 -> 138 ;
139 [label="id_match_competition <= 179.0\ngini = 0.408\nsamples = 14\nvalue = [10, 4]"] ;
95 -> 139 ;
140 [label="id_match_competition <= 163.5\ngini = 0.48\nsamples = 5\nvalue = [2, 3]"] ;
139 -> 140 ;
141 [label="t1_h2h_total10_fl_match_lost <= 0.5\ngini = 0.444\nsamples = 3\nvalue = [2, 1]"] ;
140 -> 141 ;
142 [label="gini = 0.0\nsamples = 1\nvalue = [1, 0]"] ;
141 -> 142 ;
143 [label="gini = 0.5\nsamples = 2\nvalue = [1, 1]"] ;
141 -> 143 ;
144 [label="gini = 0.0\nsamples = 2\nvalue = [0, 2]"] ;
140 -> 144 ;
145 [label="id_match_competition <= 220.0\ngini = 0.198\nsamples = 9\nvalue = [8, 1]"] ;
139 -> 145 ;
146 [label="gini = 0.0\nsamples = 7\nvalue = [7, 0]"] ;
145 -> 146 ;
147 [label="gini = 0.5\nsamples = 2\nvalue = [1, 1]"] ;
145 -> 147 ;
148 [label="id_match_competition <= 533.5\ngini = 0.482\nsamples = 84\nvalue = [50, 34]"] ;
94 -> 148 ;
149 [label="id_match_competition <= 438.5\ngini = 0.404\nsamples = 32\nvalue = [23, 9]"] ;
148 -> 149 ;
150 [label="id_match_competition <= 248.5\ngini = 0.435\nsamples = 25\nvalue = [17, 8]"] ;
149 -> 150 ;
151 [label="id_match_competition <= 242.5\ngini = 0.32\nsamples = 10\nvalue = [8, 2]"] ;
150 -> 151 ;
152 [label="t2_h2h_away_total5_fl_match_lost <= 2.5\ngini = 0.444\nsamples = 6\nvalue = [4, 2]"] ;
151 -> 152 ;
153 [label="t1_h2h_home_total10_fl_match_win <= 0.5\ngini = 0.48\nsamples = 5\nvalue = [3, 2]"] ;
152 -> 153 ;
154 [label="gini = 0.375\nsamples = 4\nvalue = [3, 1]"] ;
153 -> 154 ;
155 [label="gini = 0.0\nsamples = 1\nvalue = [0, 1]"] ;
153 -> 155 ;
156 [label="gini = 0.0\nsamples = 1\nvalue = [1, 0]"] ;
152 -> 156 ;
157 [label="gini = 0.0\nsamples = 4\nvalue = [4, 0]"] ;
151 -> 157 ;
158 [label="t2_h2h_total5_fl_match_win <= 1.5\ngini = 0.48\nsamples = 15\nvalue = [9, 6]"] ;
150 -> 158 ;
159 [label="id_match_competition <= 255.5\ngini = 0.49\nsamples = 14\nvalue = [8, 6]"] ;
158 -> 159 ;
160 [label="gini = 0.0\nsamples = 1\nvalue = [0, 1]"] ;
159 -> 160 ;
161 [label="id_match_competition <= 292.5\ngini = 0.473\nsamples = 13\nvalue = [8, 5]"] ;
159 -> 161 ;
162 [label="gini = 0.0\nsamples = 1\nvalue = [1, 0]"] ;
161 -> 162 ;
163 [label="t2_h2h_total5_fl_match_lost <= 0.5\ngini = 0.486\nsamples = 12\nvalue = [7, 5]"] ;
161 -> 163 ;
164 [label="id_match_competition <= 369.0\ngini = 0.48\nsamples = 10\nvalue = [6, 4]"] ;
163 -> 164 ;
165 [label="gini = 0.444\nsamples = 9\nvalue = [6, 3]"] ;
164 -> 165 ;
166 [label="gini = 0.0\nsamples = 1\nvalue = [0, 1]"] ;
164 -> 166 ;
167 [label="id_match_competition <= 369.0\ngini = 0.5\nsamples = 2\nvalue = [1, 1]"] ;
163 -> 167 ;
168 [label="gini = 0.0\nsamples = 1\nvalue = [0, 1]"] ;
167 -> 168 ;
169 [label="gini = 0.0\nsamples = 1\nvalue = [1, 0]"] ;
167 -> 169 ;
170 [label="gini = 0.0\nsamples = 1\nvalue = [1, 0]"] ;
158 -> 170 ;
171 [label="id_match_competition <= 497.0\ngini = 0.245\nsamples = 7\nvalue = [6, 1]"] ;
149 -> 171 ;
172 [label="gini = 0.32\nsamples = 5\nvalue = [4, 1]"] ;
171 -> 172 ;
173 [label="gini = 0.0\nsamples = 2\nvalue = [2, 0]"] ;
171 -> 173 ;
174 [label="id_match_competition <= 563.5\ngini = 0.499\nsamples = 52\nvalue = [27, 25]"] ;
148 -> 174 ;
175 [label="gini = 0.0\nsamples = 3\nvalue = [0, 3]"] ;
174 -> 175 ;
176 [label="t2_h2h_total5_fl_match_win <= 0.5\ngini = 0.495\nsamples = 49\nvalue = [27, 22]"] ;
174 -> 176 ;
177 [label="id_match_competition <= 907.0\ngini = 0.478\nsamples = 43\nvalue = [26, 17]"] ;
176 -> 177 ;
178 [label="id_match_competition <= 599.0\ngini = 0.408\nsamples = 28\nvalue = [20, 8]"] ;
177 -> 178 ;
179 [label="gini = 0.0\nsamples = 3\nvalue = [3, 0]"] ;
178 -> 179 ;
180 [label="id_match_competition <= 888.0\ngini = 0.435\nsamples = 25\nvalue = [17, 8]"] ;
178 -> 180 ;
181 [label="id_match_competition <= 878.0\ngini = 0.469\nsamples = 16\nvalue = [10, 6]"] ;
180 -> 181 ;
182 [label="id_match_competition <= 838.0\ngini = 0.375\nsamples = 12\nvalue = [9, 3]"] ;
181 -> 182 ;
183 [label="id_match_competition <= 826.0\ngini = 0.49\nsamples = 7\nvalue = [4, 3]"] ;
182 -> 183 ;
184 [label="t2_h2h_away_total10_fl_match_lost <= 1.5\ngini = 0.444\nsamples = 6\nvalue = [4, 2]"] ;
183 -> 184 ;
185 [label="t1_h2h_total10_fl_match_win <= 1.5\ngini = 0.48\nsamples = 5\nvalue = [3, 2]"] ;
184 -> 185 ;
186 [label="t1_h2h_total5_fl_match_win <= 0.5\ngini = 0.375\nsamples = 4\nvalue = [3, 1]"] ;
185 -> 186 ;
187 [label="gini = 0.444\nsamples = 3\nvalue = [2, 1]"] ;
186 -> 187 ;
188 [label="gini = 0.0\nsamples = 1\nvalue = [1, 0]"] ;
186 -> 188 ;
189 [label="gini = 0.0\nsamples = 1\nvalue = [0, 1]"] ;
185 -> 189 ;
190 [label="gini = 0.0\nsamples = 1\nvalue = [1, 0]"] ;
184 -> 190 ;
191 [label="gini = 0.0\nsamples = 1\nvalue = [0, 1]"] ;
183 -> 191 ;
192 [label="gini = 0.0\nsamples = 5\nvalue = [5, 0]"] ;
182 -> 192 ;
193 [label="id_match_competition <= 880.5\ngini = 0.375\nsamples = 4\nvalue = [1, 3]"] ;
181 -> 193 ;
194 [label="gini = 0.0\nsamples = 2\nvalue = [0, 2]"] ;
193 -> 194 ;
195 [label="gini = 0.5\nsamples = 2\nvalue = [1, 1]"] ;
193 -> 195 ;
196 [label="id_match_competition <= 899.5\ngini = 0.346\nsamples = 9\nvalue = [7, 2]"] ;
180 -> 196 ;
197 [label="gini = 0.375\nsamples = 4\nvalue = [3, 1]"] ;
196 -> 197 ;
198 [label="gini = 0.32\nsamples = 5\nvalue = [4, 1]"] ;
196 -> 198 ;
199 [label="t2_h2h_away_total10_fl_match_lost <= 0.5\ngini = 0.48\nsamples = 15\nvalue = [6, 9]"] ;
177 -> 199 ;
200 [label="id_match_competition <= 1002.5\ngini = 0.497\nsamples = 13\nvalue = [6, 7]"] ;
199 -> 200 ;
201 [label="id_match_competition <= 913.0\ngini = 0.375\nsamples = 4\nvalue = [1, 3]"] ;
200 -> 201 ;
202 [label="gini = 0.0\nsamples = 1\nvalue = [0, 1]"] ;
201 -> 202 ;
203 [label="gini = 0.444\nsamples = 3\nvalue = [1, 2]"] ;
201 -> 203 ;
204 [label="id_match_competition <= 15376.5\ngini = 0.494\nsamples = 9\nvalue = [5, 4]"] ;
200 -> 204 ;
205 [label="id_match_competition <= 1090.5\ngini = 0.469\nsamples = 8\nvalue = [5, 3]"] ;
204 -> 205 ;
206 [label="gini = 0.0\nsamples = 1\nvalue = [1, 0]"] ;
205 -> 206 ;
207 [label="id_match_competition <= 1409.5\ngini = 0.49\nsamples = 7\nvalue = [4, 3]"] ;
205 -> 207 ;
208 [label="gini = 0.0\nsamples = 1\nvalue = [0, 1]"] ;
207 -> 208 ;
209 [label="id_match_competition <= 5170.0\ngini = 0.444\nsamples = 6\nvalue = [4, 2]"] ;
207 -> 209 ;
210 [label="gini = 0.0\nsamples = 1\nvalue = [1, 0]"] ;
209 -> 210 ;
211 [label="id_match_competition <= 8761.5\ngini = 0.48\nsamples = 5\nvalue = [3, 2]"] ;
209 -> 211 ;
212 [label="gini = 0.0\nsamples = 1\nvalue = [0, 1]"] ;
211 -> 212 ;
213 [label="gini = 0.375\nsamples = 4\nvalue = [3, 1]"] ;
211 -> 213 ;
214 [label="gini = 0.0\nsamples = 1\nvalue = [0, 1]"] ;
204 -> 214 ;
215 [label="gini = 0.0\nsamples = 2\nvalue = [0, 2]"] ;
199 -> 215 ;
216 [label="id_match_competition <= 972.5\ngini = 0.278\nsamples = 6\nvalue = [1, 5]"] ;
176 -> 216 ;
217 [label="gini = 0.0\nsamples = 4\nvalue = [0, 4]"] ;
216 -> 217 ;
218 [label="t1_h2h_total5_fl_match_win <= 0.5\ngini = 0.5\nsamples = 2\nvalue = [1, 1]"] ;
216 -> 218 ;
219 [label="gini = 0.0\nsamples = 1\nvalue = [1, 0]"] ;
218 -> 219 ;
220 [label="gini = 0.0\nsamples = 1\nvalue = [0, 1]"] ;
218 -> 220 ;
221 [label="id_match_competition <= 205.0\ngini = 0.459\nsamples = 28\nvalue = [10, 18]"] ;
93 -> 221 ;
222 [label="gini = 0.0\nsamples = 3\nvalue = [0, 3]"] ;
221 -> 222 ;
223 [label="id_match_competition <= 292.5\ngini = 0.48\nsamples = 25\nvalue = [10, 15]"] ;
221 -> 223 ;
224 [label="t1_h2h_home_total5_fl_match_lost <= 1.5\ngini = 0.444\nsamples = 9\nvalue = [6, 3]"] ;
223 -> 224 ;
225 [label="t2_h2h_total5_fl_match_lost <= 0.5\ngini = 0.278\nsamples = 6\nvalue = [5, 1]"] ;
224 -> 225 ;
226 [label="id_match_competition <= 239.0\ngini = 0.5\nsamples = 2\nvalue = [1, 1]"] ;
225 -> 226 ;
227 [label="gini = 0.0\nsamples = 1\nvalue = [0, 1]"] ;
226 -> 227 ;
228 [label="gini = 0.0\nsamples = 1\nvalue = [1, 0]"] ;
226 -> 228 ;
229 [label="gini = 0.0\nsamples = 4\nvalue = [4, 0]"] ;
225 -> 229 ;
230 [label="t2_h2h_away_total5_fl_match_lost <= 0.5\ngini = 0.444\nsamples = 3\nvalue = [1, 2]"] ;
224 -> 230 ;
231 [label="gini = 0.0\nsamples = 1\nvalue = [0, 1]"] ;
230 -> 231 ;
232 [label="gini = 0.5\nsamples = 2\nvalue = [1, 1]"] ;
230 -> 232 ;
233 [label="id_match_competition <= 599.0\ngini = 0.375\nsamples = 16\nvalue = [4, 12]"] ;
223 -> 233 ;
234 [label="gini = 0.0\nsamples = 6\nvalue = [0, 6]"] ;
233 -> 234 ;
235 [label="t1_h2h_total10_fl_match_lost <= 2.5\ngini = 0.48\nsamples = 10\nvalue = [4, 6]"] ;
233 -> 235 ;
236 [label="t2_h2h_total5_fl_match_win <= 1.5\ngini = 0.444\nsamples = 9\nvalue = [3, 6]"] ;
235 -> 236 ;
237 [label="id_match_competition <= 972.5\ngini = 0.444\nsamples = 3\nvalue = [2, 1]"] ;
236 -> 237 ;
238 [label="gini = 0.0\nsamples = 2\nvalue = [2, 0]"] ;
237 -> 238 ;
239 [label="gini = 0.0\nsamples = 1\nvalue = [0, 1]"] ;
237 -> 239 ;
240 [label="id_match_competition <= 743.5\ngini = 0.278\nsamples = 6\nvalue = [1, 5]"] ;
236 -> 240 ;
241 [label="gini = 0.444\nsamples = 3\nvalue = [1, 2]"] ;
240 -> 241 ;
242 [label="gini = 0.0\nsamples = 3\nvalue = [0, 3]"] ;
240 -> 242 ;
243 [label="gini = 0.0\nsamples = 1\nvalue = [1, 0]"] ;
235 -> 243 ;
244 [label="t2_h2h_total10_fl_match_lost <= 1.5\ngini = 0.472\nsamples = 42\nvalue = [16, 26]"] ;
92 -> 244 ;
245 [label="id_match_competition <= 912.0\ngini = 0.491\nsamples = 37\nvalue = [16, 21]"] ;
244 -> 245 ;
246 [label="id_match_competition <= 438.5\ngini = 0.5\nsamples = 30\nvalue = [15, 15]"] ;
245 -> 246 ;
247 [label="id_match_competition <= 210.5\ngini = 0.459\nsamples = 14\nvalue = [5, 9]"] ;
246 -> 247 ;
248 [label="id_match_competition <= 196.0\ngini = 0.49\nsamples = 7\nvalue = [4, 3]"] ;
247 -> 248 ;
249 [label="t1_all_total10_fl_match_lost <= 0.5\ngini = 0.48\nsamples = 5\nvalue = [2, 3]"] ;
248 -> 249 ;
250 [label="gini = 0.0\nsamples = 2\nvalue = [0, 2]"] ;
249 -> 250 ;
251 [label="t1_h2h_total5_fl_match_win <= 0.5\ngini = 0.444\nsamples = 3\nvalue = [2, 1]"] ;
249 -> 251 ;
252 [label="gini = 0.0\nsamples = 2\nvalue = [2, 0]"] ;
251 -> 252 ;
253 [label="gini = 0.0\nsamples = 1\nvalue = [0, 1]"] ;
251 -> 253 ;
254 [label="gini = 0.0\nsamples = 2\nvalue = [2, 0]"] ;
248 -> 254 ;
255 [label="t1_h2h_total10_fl_match_lost <= 2.0\ngini = 0.245\nsamples = 7\nvalue = [1, 6]"] ;
247 -> 255 ;
256 [label="gini = 0.0\nsamples = 6\nvalue = [0, 6]"] ;
255 -> 256 ;
257 [label="gini = 0.0\nsamples = 1\nvalue = [1, 0]"] ;
255 -> 257 ;
258 [label="id_match_competition <= 878.0\ngini = 0.469\nsamples = 16\nvalue = [10, 6]"] ;
246 -> 258 ;
259 [label="t1_home_total10_fl_match_lost <= 1.5\ngini = 0.219\nsamples = 8\nvalue = [7, 1]"] ;
258 -> 259 ;
260 [label="gini = 0.0\nsamples = 7\nvalue = [7, 0]"] ;
259 -> 260 ;
261 [label="gini = 0.0\nsamples = 1\nvalue = [0, 1]"] ;
259 -> 261 ;
262 [label="t2_away_total5_fl_match_draw <= 0.5\ngini = 0.469\nsamples = 8\nvalue = [3, 5]"] ;
258 -> 262 ;
263 [label="t2_h2h_away_total5_fl_match_win <= 0.5\ngini = 0.278\nsamples = 6\nvalue = [1, 5]"] ;
262 -> 263 ;
264 [label="gini = 0.0\nsamples = 5\nvalue = [0, 5]"] ;
263 -> 264 ;
265 [label="gini = 0.0\nsamples = 1\nvalue = [1, 0]"] ;
263 -> 265 ;
266 [label="gini = 0.0\nsamples = 2\nvalue = [2, 0]"] ;
262 -> 266 ;
267 [label="t1_h2h_home_total10_fl_match_win <= 0.5\ngini = 0.245\nsamples = 7\nvalue = [1, 6]"] ;
245 -> 267 ;
268 [label="gini = 0.0\nsamples = 6\nvalue = [0, 6]"] ;
267 -> 268 ;
269 [label="gini = 0.0\nsamples = 1\nvalue = [1, 0]"] ;
267 -> 269 ;
270 [label="gini = 0.0\nsamples = 5\nvalue = [0, 5]"] ;
244 -> 270 ;
271 [label="gini = 0.0\nsamples = 4\nvalue = [4, 0]"] ;
91 -> 271 ;
272 [label="t2_all_total5_fl_match_draw <= 1.5\ngini = 0.475\nsamples = 80\nvalue = [49, 31]"] ;
90 -> 272 ;
273 [label="id_match_competition <= 902.5\ngini = 0.451\nsamples = 67\nvalue = [44, 23]"] ;
272 -> 273 ;
274 [label="id_match_competition <= 719.0\ngini = 0.483\nsamples = 54\nvalue = [32, 22]"] ;
273 -> 274 ;
275 [label="t2_away_total5_fl_match_draw <= 0.5\ngini = 0.45\nsamples = 41\nvalue = [27, 14]"] ;
274 -> 275 ;
276 [label="id_match_competition <= 540.5\ngini = 0.484\nsamples = 34\nvalue = [20, 14]"] ;
275 -> 276 ;
277 [label="t1_h2h_total5_fl_match_lost <= 0.5\ngini = 0.498\nsamples = 30\nvalue = [16, 14]"] ;
276 -> 277 ;
278 [label="id_match_competition <= 236.0\ngini = 0.497\nsamples = 24\nvalue = [11, 13]"] ;
277 -> 278 ;
279 [label="t1_home_total5_fl_match_lost <= 0.5\ngini = 0.488\nsamples = 19\nvalue = [11, 8]"] ;
278 -> 279 ;
280 [label="id_match_competition <= 217.0\ngini = 0.5\nsamples = 16\nvalue = [8, 8]"] ;
279 -> 280 ;
281 [label="id_match_competition <= 203.0\ngini = 0.486\nsamples = 12\nvalue = [7, 5]"] ;
280 -> 281 ;
282 [label="id_match_competition <= 140.5\ngini = 0.494\nsamples = 9\nvalue = [4, 5]"] ;
281 -> 282 ;
283 [label="gini = 0.0\nsamples = 1\nvalue = [1, 0]"] ;
282 -> 283 ;
284 [label="t2_all_total10_fl_match_win <= 1.5\ngini = 0.469\nsamples = 8\nvalue = [3, 5]"] ;
282 -> 284 ;
285 [label="id_match_competition <= 172.5\ngini = 0.408\nsamples = 7\nvalue = [2, 5]"] ;
284 -> 285 ;
286 [label="gini = 0.0\nsamples = 2\nvalue = [0, 2]"] ;
285 -> 286 ;
287 [label="t2_away_total5_fl_match_win <= 0.5\ngini = 0.48\nsamples = 5\nvalue = [2, 3]"] ;
285 -> 287 ;
288 [label="id_match_competition <= 181.5\ngini = 0.5\nsamples = 4\nvalue = [2, 2]"] ;
287 -> 288 ;
289 [label="gini = 0.5\nsamples = 2\nvalue = [1, 1]"] ;
288 -> 289 ;
290 [label="gini = 0.5\nsamples = 2\nvalue = [1, 1]"] ;
288 -> 290 ;
291 [label="gini = 0.0\nsamples = 1\nvalue = [0, 1]"] ;
287 -> 291 ;
292 [label="gini = 0.0\nsamples = 1\nvalue = [1, 0]"] ;
284 -> 292 ;
293 [label="gini = 0.0\nsamples = 3\nvalue = [3, 0]"] ;
281 -> 293 ;
294 [label="t1_all_total10_fl_match_lost <= 0.5\ngini = 0.375\nsamples = 4\nvalue = [1, 3]"] ;
280 -> 294 ;
295 [label="gini = 0.0\nsamples = 2\nvalue = [0, 2]"] ;
294 -> 295 ;
296 [label="t2_away_total5_fl_match_win <= 0.5\ngini = 0.5\nsamples = 2\nvalue = [1, 1]"] ;
294 -> 296 ;
297 [label="gini = 0.0\nsamples = 1\nvalue = [1, 0]"] ;
296 -> 297 ;
298 [label="gini = 0.0\nsamples = 1\nvalue = [0, 1]"] ;
296 -> 298 ;
299 [label="gini = 0.0\nsamples = 3\nvalue = [3, 0]"] ;
279 -> 299 ;
300 [label="gini = 0.0\nsamples = 5\nvalue = [0, 5]"] ;
278 -> 300 ;
301 [label="t1_h2h_total5_fl_match_lost <= 2.5\ngini = 0.278\nsamples = 6\nvalue = [5, 1]"] ;
277 -> 301 ;
302 [label="gini = 0.0\nsamples = 5\nvalue = [5, 0]"] ;
301 -> 302 ;
303 [label="gini = 0.0\nsamples = 1\nvalue = [0, 1]"] ;
301 -> 303 ;
304 [label="gini = 0.0\nsamples = 4\nvalue = [4, 0]"] ;
276 -> 304 ;
305 [label="gini = 0.0\nsamples = 7\nvalue = [7, 0]"] ;
275 -> 305 ;
306 [label="t2_all_total10_fl_match_draw <= 0.5\ngini = 0.473\nsamples = 13\nvalue = [5, 8]"] ;
274 -> 306 ;
307 [label="t1_all_total5_fl_match_draw <= -0.5\ngini = 0.494\nsamples = 9\nvalue = [5, 4]"] ;
306 -> 307 ;
308 [label="gini = 0.0\nsamples = 1\nvalue = [0, 1]"] ;
307 -> 308 ;
309 [label="id_match_competition <= 838.0\ngini = 0.469\nsamples = 8\nvalue = [5, 3]"] ;
307 -> 309 ;
310 [label="gini = 0.0\nsamples = 1\nvalue = [0, 1]"] ;
309 -> 310 ;
311 [label="t1_h2h_total10_fl_match_lost <= 0.5\ngini = 0.408\nsamples = 7\nvalue = [5, 2]"] ;
309 -> 311 ;
312 [label="gini = 0.0\nsamples = 3\nvalue = [3, 0]"] ;
311 -> 312 ;
313 [label="t1_home_total10_fl_match_win <= 0.5\ngini = 0.5\nsamples = 4\nvalue = [2, 2]"] ;
311 -> 313 ;
314 [label="t1_h2h_total5_fl_match_lost <= 1.5\ngini = 0.444\nsamples = 3\nvalue = [2, 1]"] ;
313 -> 314 ;
315 [label="t1_all_total5_fl_match_win <= 0.5\ngini = 0.5\nsamples = 2\nvalue = [1, 1]"] ;
314 -> 315 ;
316 [label="gini = 0.0\nsamples = 1\nvalue = [0, 1]"] ;
315 -> 316 ;
317 [label="gini = 0.0\nsamples = 1\nvalue = [1, 0]"] ;
315 -> 317 ;
318 [label="gini = 0.0\nsamples = 1\nvalue = [1, 0]"] ;
314 -> 318 ;
319 [label="gini = 0.0\nsamples = 1\nvalue = [0, 1]"] ;
313 -> 319 ;
320 [label="gini = 0.0\nsamples = 4\nvalue = [0, 4]"] ;
306 -> 320 ;
321 [label="t1_all_total5_fl_match_lost <= 1.5\ngini = 0.142\nsamples = 13\nvalue = [12, 1]"] ;
273 -> 321 ;
322 [label="gini = 0.0\nsamples = 11\nvalue = [11, 0]"] ;
321 -> 322 ;
323 [label="id_match_competition <= 1064.0\ngini = 0.5\nsamples = 2\nvalue = [1, 1]"] ;
321 -> 323 ;
324 [label="gini = 0.0\nsamples = 1\nvalue = [0, 1]"] ;
323 -> 324 ;
325 [label="gini = 0.0\nsamples = 1\nvalue = [1, 0]"] ;
323 -> 325 ;
326 [label="t1_all_total5_fl_match_lost <= 3.5\ngini = 0.473\nsamples = 13\nvalue = [5, 8]"] ;
272 -> 326 ;
327 [label="id_match_competition <= 427.5\ngini = 0.397\nsamples = 11\nvalue = [3, 8]"] ;
326 -> 327 ;
328 [label="t1_home_total10_fl_match_win <= 0.5\ngini = 0.5\nsamples = 6\nvalue = [3, 3]"] ;
327 -> 328 ;
329 [label="gini = 0.0\nsamples = 2\nvalue = [0, 2]"] ;
328 -> 329 ;
330 [label="t2_h2h_total10_fl_match_win <= 0.5\ngini = 0.375\nsamples = 4\nvalue = [3, 1]"] ;
328 -> 330 ;
331 [label="gini = 0.0\nsamples = 3\nvalue = [3, 0]"] ;
330 -> 331 ;
332 [label="gini = 0.0\nsamples = 1\nvalue = [0, 1]"] ;
330 -> 332 ;
333 [label="gini = 0.0\nsamples = 5\nvalue = [0, 5]"] ;
327 -> 333 ;
334 [label="gini = 0.0\nsamples = 2\nvalue = [2, 0]"] ;
326 -> 334 ;
335 [label="t1_h2h_total5_fl_match_win <= 0.5\ngini = 0.459\nsamples = 115\nvalue = [74, 41]"] ;
89 -> 335 ;
336 [label="id_match_competition <= 1080.5\ngini = 0.49\nsamples = 79\nvalue = [45, 34]"] ;
335 -> 336 ;
337 [label="id_match_competition <= 172.5\ngini = 0.483\nsamples = 76\nvalue = [45, 31]"] ;
336 -> 337 ;
338 [label="t1_all_total10_fl_match_lost <= 2.5\ngini = 0.42\nsamples = 10\nvalue = [3, 7]"] ;
337 -> 338 ;
339 [label="t2_all_total5_fl_match_win <= 0.5\ngini = 0.346\nsamples = 9\nvalue = [2, 7]"] ;
338 -> 339 ;
340 [label="t2_all_total5_fl_match_draw <= 2.5\ngini = 0.48\nsamples = 5\nvalue = [2, 3]"] ;
339 -> 340 ;
341 [label="t1_home_total10_fl_match_draw <= 0.5\ngini = 0.444\nsamples = 3\nvalue = [2, 1]"] ;
340 -> 341 ;
342 [label="t2_all_total5_fl_match_draw <= 0.5\ngini = 0.5\nsamples = 2\nvalue = [1, 1]"] ;
341 -> 342 ;
343 [label="gini = 0.0\nsamples = 1\nvalue = [1, 0]"] ;
342 -> 343 ;
344 [label="gini = 0.0\nsamples = 1\nvalue = [0, 1]"] ;
342 -> 344 ;
345 [label="gini = 0.0\nsamples = 1\nvalue = [1, 0]"] ;
341 -> 345 ;
346 [label="gini = 0.0\nsamples = 2\nvalue = [0, 2]"] ;
340 -> 346 ;
347 [label="gini = 0.0\nsamples = 4\nvalue = [0, 4]"] ;
339 -> 347 ;
348 [label="gini = 0.0\nsamples = 1\nvalue = [1, 0]"] ;
338 -> 348 ;
349 [label="id_match_competition <= 214.5\ngini = 0.463\nsamples = 66\nvalue = [42, 24]"] ;
337 -> 349 ;
350 [label="gini = 0.0\nsamples = 13\nvalue = [13, 0]"] ;
349 -> 350 ;
351 [label="id_match_competition <= 563.5\ngini = 0.496\nsamples = 53\nvalue = [29, 24]"] ;
349 -> 351 ;
352 [label="t1_all_total10_fl_match_draw <= 1.5\ngini = 0.485\nsamples = 29\nvalue = [12, 17]"] ;
351 -> 352 ;
353 [label="t2_all_total10_fl_match_win <= 0.5\ngini = 0.444\nsamples = 21\nvalue = [7, 14]"] ;
352 -> 353 ;
354 [label="id_match_competition <= 285.0\ngini = 0.49\nsamples = 7\nvalue = [4, 3]"] ;
353 -> 354 ;
355 [label="gini = 0.0\nsamples = 3\nvalue = [3, 0]"] ;
354 -> 355 ;
356 [label="t2_all_total10_fl_match_draw <= 1.5\ngini = 0.375\nsamples = 4\nvalue = [1, 3]"] ;
354 -> 356 ;
357 [label="id_match_competition <= 503.5\ngini = 0.444\nsamples = 3\nvalue = [1, 2]"] ;
356 -> 357 ;
358 [label="gini = 0.5\nsamples = 2\nvalue = [1, 1]"] ;
357 -> 358 ;
359 [label="gini = 0.0\nsamples = 1\nvalue = [0, 1]"] ;
357 -> 359 ;
360 [label="gini = 0.0\nsamples = 1\nvalue = [0, 1]"] ;
356 -> 360 ;
361 [label="t1_all_total10_fl_match_win <= 1.5\ngini = 0.337\nsamples = 14\nvalue = [3, 11]"] ;
353 -> 361 ;
362 [label="t2_h2h_away_total5_fl_match_win <= 0.5\ngini = 0.26\nsamples = 13\nvalue = [2, 11]"] ;
361 -> 362 ;
363 [label="gini = 0.0\nsamples = 9\nvalue = [0, 9]"] ;
362 -> 363 ;
364 [label="t1_all_total5_fl_match_win <= 0.5\ngini = 0.5\nsamples = 4\nvalue = [2, 2]"] ;
362 -> 364 ;
365 [label="gini = 0.0\nsamples = 2\nvalue = [2, 0]"] ;
364 -> 365 ;
366 [label="gini = 0.0\nsamples = 2\nvalue = [0, 2]"] ;
364 -> 366 ;
367 [label="gini = 0.0\nsamples = 1\nvalue = [1, 0]"] ;
361 -> 367 ;
368 [label="t1_h2h_total5_fl_match_lost <= 1.0\ngini = 0.469\nsamples = 8\nvalue = [5, 3]"] ;
352 -> 368 ;
369 [label="t1_home_total5_fl_match_win <= 1.5\ngini = 0.408\nsamples = 7\nvalue = [5, 2]"] ;
368 -> 369 ;
370 [label="t2_all_total10_fl_match_win <= 0.5\ngini = 0.278\nsamples = 6\nvalue = [5, 1]"] ;
369 -> 370 ;
371 [label="t1_all_total5_fl_match_win <= 0.5\ngini = 0.444\nsamples = 3\nvalue = [2, 1]"] ;
370 -> 371 ;
372 [label="gini = 0.5\nsamples = 2\nvalue = [1, 1]"] ;
371 -> 372 ;
373 [label="gini = 0.0\nsamples = 1\nvalue = [1, 0]"] ;
371 -> 373 ;
374 [label="gini = 0.0\nsamples = 3\nvalue = [3, 0]"] ;
370 -> 374 ;
375 [label="gini = 0.0\nsamples = 1\nvalue = [0, 1]"] ;
369 -> 375 ;
376 [label="gini = 0.0\nsamples = 1\nvalue = [0, 1]"] ;
368 -> 376 ;
377 [label="t1_all_total10_fl_match_draw <= 1.5\ngini = 0.413\nsamples = 24\nvalue = [17, 7]"] ;
351 -> 377 ;
378 [label="id_match_competition <= 887.5\ngini = 0.332\nsamples = 19\nvalue = [15, 4]"] ;
377 -> 378 ;
379 [label="gini = 0.0\nsamples = 10\nvalue = [10, 0]"] ;
378 -> 379 ;
380 [label="t1_home_total10_fl_match_lost <= 0.5\ngini = 0.494\nsamples = 9\nvalue = [5, 4]"] ;
378 -> 380 ;
381 [label="t1_home_total5_fl_match_draw <= 0.5\ngini = 0.408\nsamples = 7\nvalue = [5, 2]"] ;
380 -> 381 ;
382 [label="t1_all_total10_fl_match_win <= 1.5\ngini = 0.5\nsamples = 4\nvalue = [2, 2]"] ;
381 -> 382 ;
383 [label="id_match_competition <= 899.5\ngini = 0.444\nsamples = 3\nvalue = [1, 2]"] ;
382 -> 383 ;
384 [label="gini = 0.0\nsamples = 1\nvalue = [1, 0]"] ;
383 -> 384 ;
385 [label="gini = 0.0\nsamples = 2\nvalue = [0, 2]"] ;
383 -> 385 ;
386 [label="gini = 0.0\nsamples = 1\nvalue = [1, 0]"] ;
382 -> 386 ;
387 [label="gini = 0.0\nsamples = 3\nvalue = [3, 0]"] ;
381 -> 387 ;
388 [label="gini = 0.0\nsamples = 2\nvalue = [0, 2]"] ;
380 -> 388 ;
389 [label="t2_all_total5_fl_match_win <= 1.5\ngini = 0.48\nsamples = 5\nvalue = [2, 3]"] ;
377 -> 389 ;
390 [label="t2_away_total10_fl_match_draw <= 0.5\ngini = 0.444\nsamples = 3\nvalue = [2, 1]"] ;
389 -> 390 ;
391 [label="gini = 0.0\nsamples = 1\nvalue = [0, 1]"] ;
390 -> 391 ;
392 [label="gini = 0.0\nsamples = 2\nvalue = [2, 0]"] ;
390 -> 392 ;
393 [label="gini = 0.0\nsamples = 2\nvalue = [0, 2]"] ;
389 -> 393 ;
394 [label="gini = 0.0\nsamples = 3\nvalue = [0, 3]"] ;
336 -> 394 ;
395 [label="t2_all_total5_fl_match_win <= 1.5\ngini = 0.313\nsamples = 36\nvalue = [29, 7]"] ;
335 -> 395 ;
396 [label="t1_all_total5_fl_match_lost <= 1.5\ngini = 0.198\nsamples = 27\nvalue = [24, 3]"] ;
395 -> 396 ;
397 [label="t1_h2h_total10_fl_match_win <= 1.5\ngini = 0.147\nsamples = 25\nvalue = [23, 2]"] ;
396 -> 397 ;
398 [label="gini = 0.0\nsamples = 16\nvalue = [16, 0]"] ;
397 -> 398 ;
399 [label="id_match_competition <= 427.0\ngini = 0.346\nsamples = 9\nvalue = [7, 2]"] ;
397 -> 399 ;
400 [label="gini = 0.0\nsamples = 5\nvalue = [5, 0]"] ;
399 -> 400 ;
401 [label="t2_h2h_total5_fl_match_win <= 0.5\ngini = 0.5\nsamples = 4\nvalue = [2, 2]"] ;
399 -> 401 ;
402 [label="gini = 0.0\nsamples = 2\nvalue = [0, 2]"] ;
401 -> 402 ;
403 [label="gini = 0.0\nsamples = 2\nvalue = [2, 0]"] ;
401 -> 403 ;
404 [label="t2_h2h_total5_fl_match_win <= 0.5\ngini = 0.5\nsamples = 2\nvalue = [1, 1]"] ;
396 -> 404 ;
405 [label="gini = 0.0\nsamples = 1\nvalue = [1, 0]"] ;
404 -> 405 ;
406 [label="gini = 0.0\nsamples = 1\nvalue = [0, 1]"] ;
404 -> 406 ;
407 [label="t1_home_total10_fl_match_win <= 0.5\ngini = 0.494\nsamples = 9\nvalue = [5, 4]"] ;
395 -> 407 ;
408 [label="gini = 0.0\nsamples = 4\nvalue = [0, 4]"] ;
407 -> 408 ;
409 [label="gini = 0.0\nsamples = 5\nvalue = [5, 0]"] ;
407 -> 409 ;
410 [label="t1_h2h_home_total10_fl_match_win <= 1.5\ngini = 0.455\nsamples = 671\nvalue = [436, 235]"] ;
8 -> 410 ;
411 [label="t2_h2h_total5_fl_match_win <= 2.5\ngini = 0.421\nsamples = 395\nvalue = [276, 119]"] ;
410 -> 411 ;
412 [label="t2_h2h_total5_fl_match_win <= 1.5\ngini = 0.435\nsamples = 329\nvalue = [224, 105]"] ;
411 -> 412 ;
413 [label="t2_h2h_away_total5_fl_match_draw <= 0.5\ngini = 0.405\nsamples = 230\nvalue = [165, 65]"] ;
412 -> 413 ;
414 [label="t1_all_total10_fl_match_win <= 1.5\ngini = 0.282\nsamples = 59\nvalue = [49, 10]"] ;
413 -> 414 ;
415 [label="t2_all_total10_fl_match_draw <= 2.5\ngini = 0.245\nsamples = 56\nvalue = [48, 8]"] ;
414 -> 415 ;
416 [label="id_match_competition <= 292.5\ngini = 0.222\nsamples = 55\nvalue = [48, 7]"] ;
415 -> 416 ;
417 [label="id_match_competition <= 178.0\ngini = 0.337\nsamples = 28\nvalue = [22, 6]"] ;
416 -> 417 ;
418 [label="id_match_competition <= 96.0\ngini = 0.111\nsamples = 17\nvalue = [16, 1]"] ;
417 -> 418 ;
419 [label="id_match_competition <= 78.5\ngini = 0.375\nsamples = 4\nvalue = [3, 1]"] ;
418 -> 419 ;
420 [label="gini = 0.0\nsamples = 2\nvalue = [2, 0]"] ;
419 -> 420 ;
421 [label="t2_all_total10_fl_match_win <= 0.5\ngini = 0.5\nsamples = 2\nvalue = [1, 1]"] ;
419 -> 421 ;
422 [label="gini = 0.0\nsamples = 1\nvalue = [0, 1]"] ;
421 -> 422 ;
423 [label="gini = 0.0\nsamples = 1\nvalue = [1, 0]"] ;
421 -> 423 ;
424 [label="gini = 0.0\nsamples = 13\nvalue = [13, 0]"] ;
418 -> 424 ;
425 [label="t1_all_total10_fl_match_lost <= 0.5\ngini = 0.496\nsamples = 11\nvalue = [6, 5]"] ;
417 -> 425 ;
426 [label="t2_all_total5_fl_match_win <= 1.5\ngini = 0.444\nsamples = 9\nvalue = [6, 3]"] ;
425 -> 426 ;
427 [label="t1_h2h_total10_fl_match_win <= 0.5\ngini = 0.375\nsamples = 8\nvalue = [6, 2]"] ;
426 -> 427 ;
428 [label="gini = 0.0\nsamples = 2\nvalue = [2, 0]"] ;
427 -> 428 ;
429 [label="t1_h2h_home_total10_fl_match_lost <= 0.5\ngini = 0.444\nsamples = 6\nvalue = [4, 2]"] ;
427 -> 429 ;
430 [label="t1_all_total5_fl_match_draw <= 0.5\ngini = 0.32\nsamples = 5\nvalue = [4, 1]"] ;
429 -> 430 ;
431 [label="t2_h2h_total5_fl_match_win <= 0.5\ngini = 0.375\nsamples = 4\nvalue = [3, 1]"] ;
430 -> 431 ;
432 [label="id_match_competition <= 218.0\ngini = 0.444\nsamples = 3\nvalue = [2, 1]"] ;
431 -> 432 ;
433 [label="gini = 0.0\nsamples = 1\nvalue = [1, 0]"] ;
432 -> 433 ;
434 [label="gini = 0.5\nsamples = 2\nvalue = [1, 1]"] ;
432 -> 434 ;
435 [label="gini = 0.0\nsamples = 1\nvalue = [1, 0]"] ;
431 -> 435 ;
436 [label="gini = 0.0\nsamples = 1\nvalue = [1, 0]"] ;
430 -> 436 ;
437 [label="gini = 0.0\nsamples = 1\nvalue = [0, 1]"] ;
429 -> 437 ;
438 [label="gini = 0.0\nsamples = 1\nvalue = [0, 1]"] ;
426 -> 438 ;
439 [label="gini = 0.0\nsamples = 2\nvalue = [0, 2]"] ;
425 -> 439 ;
440 [label="t1_all_total5_fl_match_draw <= 0.5\ngini = 0.071\nsamples = 27\nvalue = [26, 1]"] ;
416 -> 440 ;
441 [label="gini = 0.0\nsamples = 21\nvalue = [21, 0]"] ;
440 -> 441 ;
442 [label="t2_all_total10_fl_match_win <= 0.5\ngini = 0.278\nsamples = 6\nvalue = [5, 1]"] ;
440 -> 442 ;
443 [label="t2_away_total5_fl_match_draw <= 0.5\ngini = 0.5\nsamples = 2\nvalue = [1, 1]"] ;
442 -> 443 ;
444 [label="gini = 0.0\nsamples = 1\nvalue = [0, 1]"] ;
443 -> 444 ;
445 [label="gini = 0.0\nsamples = 1\nvalue = [1, 0]"] ;
443 -> 445 ;
446 [label="gini = 0.0\nsamples = 4\nvalue = [4, 0]"] ;
442 -> 446 ;
447 [label="gini = 0.0\nsamples = 1\nvalue = [0, 1]"] ;
415 -> 447 ;
448 [label="t1_home_total5_fl_match_win <= 1.5\ngini = 0.444\nsamples = 3\nvalue = [1, 2]"] ;
414 -> 448 ;
449 [label="gini = 0.0\nsamples = 2\nvalue = [0, 2]"] ;
448 -> 449 ;
450 [label="gini = 0.0\nsamples = 1\nvalue = [1, 0]"] ;
448 -> 450 ;
451 [label="id_match_competition <= 1080.5\ngini = 0.436\nsamples = 171\nvalue = [116, 55]"] ;
413 -> 451 ;
452 [label="id_match_competition <= 979.0\ngini = 0.446\nsamples = 164\nvalue = [109, 55]"] ;
451 -> 452 ;
453 [label="t2_away_total10_fl_match_draw <= 0.5\ngini = 0.436\nsamples = 156\nvalue = [106, 50]"] ;
452 -> 453 ;
454 [label="t1_home_total10_fl_match_draw <= 0.5\ngini = 0.458\nsamples = 124\nvalue = [80, 44]"] ;
453 -> 454 ;
455 [label="t2_h2h_total5_fl_match_draw <= 3.5\ngini = 0.444\nsamples = 117\nvalue = [78, 39]"] ;
454 -> 455 ;
456 [label="t1_h2h_total10_fl_match_win <= 0.5\ngini = 0.424\nsamples = 108\nvalue = [75, 33]"] ;
455 -> 456 ;
457 [label="id_match_competition <= 864.5\ngini = 0.264\nsamples = 32\nvalue = [27, 5]"] ;
456 -> 457 ;
458 [label="id_match_competition <= 218.0\ngini = 0.198\nsamples = 27\nvalue = [24, 3]"] ;
457 -> 458 ;
459 [label="t2_all_total5_fl_match_win <= 0.5\ngini = 0.291\nsamples = 17\nvalue = [14, 3]"] ;
458 -> 459 ;
460 [label="t1_all_total10_fl_match_lost <= 0.5\ngini = 0.42\nsamples = 10\nvalue = [7, 3]"] ;
459 -> 460 ;
461 [label="id_match_competition <= 211.0\ngini = 0.346\nsamples = 9\nvalue = [7, 2]"] ;
460 -> 461 ;
462 [label="t1_h2h_home_total5_fl_match_draw <= 1.5\ngini = 0.219\nsamples = 8\nvalue = [7, 1]"] ;
461 -> 462 ;
463 [label="gini = 0.0\nsamples = 6\nvalue = [6, 0]"] ;
462 -> 463 ;
464 [label="id_match_competition <= 181.0\ngini = 0.5\nsamples = 2\nvalue = [1, 1]"] ;
462 -> 464 ;
465 [label="gini = 0.0\nsamples = 1\nvalue = [1, 0]"] ;
464 -> 465 ;
466 [label="gini = 0.0\nsamples = 1\nvalue = [0, 1]"] ;
464 -> 466 ;
467 [label="gini = 0.0\nsamples = 1\nvalue = [0, 1]"] ;
461 -> 467 ;
468 [label="gini = 0.0\nsamples = 1\nvalue = [0, 1]"] ;
460 -> 468 ;
469 [label="gini = 0.0\nsamples = 7\nvalue = [7, 0]"] ;
459 -> 469 ;
470 [label="gini = 0.0\nsamples = 10\nvalue = [10, 0]"] ;
458 -> 470 ;
471 [label="t2_h2h_total5_fl_match_draw <= 1.5\ngini = 0.48\nsamples = 5\nvalue = [3, 2]"] ;
457 -> 471 ;
472 [label="gini = 0.0\nsamples = 2\nvalue = [0, 2]"] ;
471 -> 472 ;
473 [label="gini = 0.0\nsamples = 3\nvalue = [3, 0]"] ;
471 -> 473 ;
474 [label="id_match_competition <= 163.5\ngini = 0.465\nsamples = 76\nvalue = [48, 28]"] ;
456 -> 474 ;
475 [label="t1_all_total10_fl_match_lost <= 0.5\ngini = 0.499\nsamples = 23\nvalue = [11, 12]"] ;
474 -> 475 ;
476 [label="t2_h2h_away_total5_fl_match_lost <= 0.5\ngini = 0.48\nsamples = 20\nvalue = [8, 12]"] ;
475 -> 476 ;
477 [label="t2_h2h_away_total10_fl_match_draw <= 1.5\ngini = 0.219\nsamples = 8\nvalue = [1, 7]"] ;
476 -> 477 ;
478 [label="gini = 0.0\nsamples = 4\nvalue = [0, 4]"] ;
477 -> 478 ;
479 [label="t2_h2h_total10_fl_match_win <= 0.5\ngini = 0.375\nsamples = 4\nvalue = [1, 3]"] ;
477 -> 479 ;
480 [label="t2_h2h_away_total5_fl_match_draw <= 2.5\ngini = 0.5\nsamples = 2\nvalue = [1, 1]"] ;
479 -> 480 ;
481 [label="gini = 0.0\nsamples = 1\nvalue = [1, 0]"] ;
480 -> 481 ;
482 [label="gini = 0.0\nsamples = 1\nvalue = [0, 1]"] ;
480 -> 482 ;
483 [label="gini = 0.0\nsamples = 2\nvalue = [0, 2]"] ;
479 -> 483 ;
484 [label="t1_all_total5_fl_match_draw <= 0.5\ngini = 0.486\nsamples = 12\nvalue = [7, 5]"] ;
476 -> 484 ;
485 [label="t1_h2h_total5_fl_match_win <= 1.5\ngini = 0.494\nsamples = 9\nvalue = [4, 5]"] ;
484 -> 485 ;
486 [label="gini = 0.0\nsamples = 2\nvalue = [0, 2]"] ;
485 -> 486 ;
487 [label="t1_h2h_home_total5_fl_match_lost <= 0.5\ngini = 0.49\nsamples = 7\nvalue = [4, 3]"] ;
485 -> 487 ;
488 [label="id_match_competition <= 138.0\ngini = 0.444\nsamples = 6\nvalue = [4, 2]"] ;
487 -> 488 ;
489 [label="t2_all_total10_fl_match_win <= 0.5\ngini = 0.32\nsamples = 5\nvalue = [4, 1]"] ;
488 -> 489 ;
490 [label="gini = 0.0\nsamples = 4\nvalue = [4, 0]"] ;
489 -> 490 ;
491 [label="gini = 0.0\nsamples = 1\nvalue = [0, 1]"] ;
489 -> 491 ;
492 [label="gini = 0.0\nsamples = 1\nvalue = [0, 1]"] ;
488 -> 492 ;
493 [label="gini = 0.0\nsamples = 1\nvalue = [0, 1]"] ;
487 -> 493 ;
494 [label="gini = 0.0\nsamples = 3\nvalue = [3, 0]"] ;
484 -> 494 ;
495 [label="gini = 0.0\nsamples = 3\nvalue = [3, 0]"] ;
475 -> 495 ;
496 [label="t2_all_total10_fl_match_win <= 0.5\ngini = 0.422\nsamples = 53\nvalue = [37, 16]"] ;
474 -> 496 ;
497 [label="t2_h2h_away_total10_fl_match_lost <= 0.5\ngini = 0.355\nsamples = 39\nvalue = [30, 9]"] ;
496 -> 497 ;
498 [label="t1_h2h_total10_fl_match_win <= 1.5\ngini = 0.484\nsamples = 17\nvalue = [10, 7]"] ;
497 -> 498 ;
499 [label="id_match_competition <= 180.5\ngini = 0.497\nsamples = 13\nvalue = [6, 7]"] ;
498 -> 499 ;
500 [label="gini = 0.0\nsamples = 2\nvalue = [2, 0]"] ;
499 -> 500 ;
501 [label="t2_h2h_total10_fl_match_draw <= 1.5\ngini = 0.463\nsamples = 11\nvalue = [4, 7]"] ;
499 -> 501 ;
502 [label="gini = 0.0\nsamples = 5\nvalue = [0, 5]"] ;
501 -> 502 ;
503 [label="id_match_competition <= 205.0\ngini = 0.444\nsamples = 6\nvalue = [4, 2]"] ;
501 -> 503 ;
504 [label="t2_h2h_away_total10_fl_match_draw <= 1.5\ngini = 0.444\nsamples = 3\nvalue = [1, 2]"] ;
503 -> 504 ;
505 [label="gini = 0.0\nsamples = 1\nvalue = [0, 1]"] ;
504 -> 505 ;
506 [label="id_match_competition <= 186.5\ngini = 0.5\nsamples = 2\nvalue = [1, 1]"] ;
504 -> 506 ;
507 [label="gini = 0.0\nsamples = 1\nvalue = [0, 1]"] ;
506 -> 507 ;
508 [label="gini = 0.0\nsamples = 1\nvalue = [1, 0]"] ;
506 -> 508 ;
509 [label="gini = 0.0\nsamples = 3\nvalue = [3, 0]"] ;
503 -> 509 ;
510 [label="gini = 0.0\nsamples = 4\nvalue = [4, 0]"] ;
498 -> 510 ;
511 [label="t1_all_total5_fl_match_win <= 0.5\ngini = 0.165\nsamples = 22\nvalue = [20, 2]"] ;
497 -> 511 ;
512 [label="gini = 0.0\nsamples = 19\nvalue = [19, 0]"] ;
511 -> 512 ;
513 [label="t2_h2h_total5_fl_match_draw <= 1.5\ngini = 0.444\nsamples = 3\nvalue = [1, 2]"] ;
511 -> 513 ;
514 [label="gini = 0.0\nsamples = 1\nvalue = [1, 0]"] ;
513 -> 514 ;
515 [label="gini = 0.0\nsamples = 2\nvalue = [0, 2]"] ;
513 -> 515 ;
516 [label="t1_home_total10_fl_match_win <= 0.5\ngini = 0.5\nsamples = 14\nvalue = [7, 7]"] ;
496 -> 516 ;
517 [label="t2_h2h_total10_fl_match_lost <= 1.5\ngini = 0.463\nsamples = 11\nvalue = [4, 7]"] ;
516 -> 517 ;
518 [label="t1_h2h_home_total10_fl_match_lost <= 0.5\ngini = 0.49\nsamples = 7\nvalue = [4, 3]"] ;
517 -> 518 ;
519 [label="id_match_competition <= 527.0\ngini = 0.444\nsamples = 6\nvalue = [4, 2]"] ;
518 -> 519 ;
520 [label="gini = 0.0\nsamples = 3\nvalue = [3, 0]"] ;
519 -> 520 ;
521 [label="id_match_competition <= 901.0\ngini = 0.444\nsamples = 3\nvalue = [1, 2]"] ;
519 -> 521 ;
522 [label="gini = 0.0\nsamples = 2\nvalue = [0, 2]"] ;
521 -> 522 ;
523 [label="gini = 0.0\nsamples = 1\nvalue = [1, 0]"] ;
521 -> 523 ;
524 [label="gini = 0.0\nsamples = 1\nvalue = [0, 1]"] ;
518 -> 524 ;
525 [label="gini = 0.0\nsamples = 4\nvalue = [0, 4]"] ;
517 -> 525 ;
526 [label="gini = 0.0\nsamples = 3\nvalue = [3, 0]"] ;
516 -> 526 ;
527 [label="id_match_competition <= 140.5\ngini = 0.444\nsamples = 9\nvalue = [3, 6]"] ;
455 -> 527 ;
528 [label="gini = 0.0\nsamples = 2\nvalue = [2, 0]"] ;
527 -> 528 ;
529 [label="t1_h2h_home_total5_fl_match_draw <= 2.5\ngini = 0.245\nsamples = 7\nvalue = [1, 6]"] ;
527 -> 529 ;
530 [label="t2_all_total10_fl_match_win <= 0.5\ngini = 0.5\nsamples = 2\nvalue = [1, 1]"] ;
529 -> 530 ;
531 [label="gini = 0.0\nsamples = 1\nvalue = [1, 0]"] ;
530 -> 531 ;
532 [label="gini = 0.0\nsamples = 1\nvalue = [0, 1]"] ;
530 -> 532 ;
533 [label="gini = 0.0\nsamples = 5\nvalue = [0, 5]"] ;
529 -> 533 ;
534 [label="t1_h2h_home_total5_fl_match_lost <= 0.5\ngini = 0.408\nsamples = 7\nvalue = [2, 5]"] ;
454 -> 534 ;
535 [label="t1_h2h_total5_fl_match_draw <= 2.5\ngini = 0.278\nsamples = 6\nvalue = [1, 5]"] ;
534 -> 535 ;
536 [label="gini = 0.0\nsamples = 5\nvalue = [0, 5]"] ;
535 -> 536 ;
537 [label="gini = 0.0\nsamples = 1\nvalue = [1, 0]"] ;
535 -> 537 ;
538 [label="gini = 0.0\nsamples = 1\nvalue = [1, 0]"] ;
534 -> 538 ;
539 [label="id_match_competition <= 503.5\ngini = 0.305\nsamples = 32\nvalue = [26, 6]"] ;
453 -> 539 ;
540 [label="t1_home_total5_fl_match_draw <= 2.5\ngini = 0.147\nsamples = 25\nvalue = [23, 2]"] ;
539 -> 540 ;
541 [label="t1_all_total10_fl_match_draw <= 0.5\ngini = 0.08\nsamples = 24\nvalue = [23, 1]"] ;
540 -> 541 ;
542 [label="id_match_competition <= 205.0\ngini = 0.165\nsamples = 11\nvalue = [10, 1]"] ;
541 -> 542 ;
543 [label="gini = 0.0\nsamples = 7\nvalue = [7, 0]"] ;
542 -> 543 ;
544 [label="id_match_competition <= 213.0\ngini = 0.375\nsamples = 4\nvalue = [3, 1]"] ;
542 -> 544 ;
545 [label="gini = 0.0\nsamples = 1\nvalue = [0, 1]"] ;
544 -> 545 ;
546 [label="gini = 0.0\nsamples = 3\nvalue = [3, 0]"] ;
544 -> 546 ;
547 [label="gini = 0.0\nsamples = 13\nvalue = [13, 0]"] ;
541 -> 547 ;
548 [label="gini = 0.0\nsamples = 1\nvalue = [0, 1]"] ;
540 -> 548 ;
549 [label="t2_all_total10_fl_match_draw <= 2.5\ngini = 0.49\nsamples = 7\nvalue = [3, 4]"] ;
539 -> 549 ;
550 [label="id_match_competition <= 599.0\ngini = 0.48\nsamples = 5\nvalue = [3, 2]"] ;
549 -> 550 ;
551 [label="gini = 0.0\nsamples = 2\nvalue = [0, 2]"] ;
550 -> 551 ;
552 [label="gini = 0.0\nsamples = 3\nvalue = [3, 0]"] ;
550 -> 552 ;
553 [label="gini = 0.0\nsamples = 2\nvalue = [0, 2]"] ;
549 -> 553 ;
554 [label="t1_h2h_total10_fl_match_win <= 0.5\ngini = 0.469\nsamples = 8\nvalue = [3, 5]"] ;
452 -> 554 ;
555 [label="gini = 0.0\nsamples = 3\nvalue = [0, 3]"] ;
554 -> 555 ;
556 [label="id_match_competition <= 1052.5\ngini = 0.48\nsamples = 5\nvalue = [3, 2]"] ;
554 -> 556 ;
557 [label="t1_h2h_total10_fl_match_draw <= 1.5\ngini = 0.444\nsamples = 3\nvalue = [1, 2]"] ;
556 -> 557 ;
558 [label="gini = 0.0\nsamples = 2\nvalue = [0, 2]"] ;
557 -> 558 ;
559 [label="gini = 0.0\nsamples = 1\nvalue = [1, 0]"] ;
557 -> 559 ;
560 [label="gini = 0.0\nsamples = 2\nvalue = [2, 0]"] ;
556 -> 560 ;
561 [label="gini = 0.0\nsamples = 7\nvalue = [7, 0]"] ;
451 -> 561 ;
562 [label="t1_h2h_total5_fl_match_draw <= 2.5\ngini = 0.482\nsamples = 99\nvalue = [59, 40]"] ;
412 -> 562 ;
563 [label="id_match_competition <= 140.5\ngini = 0.463\nsamples = 88\nvalue = [56, 32]"] ;
562 -> 563 ;
564 [label="t1_all_total10_fl_match_win <= 0.5\ngini = 0.278\nsamples = 24\nvalue = [20, 4]"] ;
563 -> 564 ;
565 [label="t2_h2h_away_total10_fl_match_win <= 0.5\ngini = 0.165\nsamples = 22\nvalue = [20, 2]"] ;
564 -> 565 ;
566 [label="id_match_competition <= 73.5\ngini = 0.444\nsamples = 6\nvalue = [4, 2]"] ;
565 -> 566 ;
567 [label="id_match_competition <= 64.5\ngini = 0.444\nsamples = 3\nvalue = [1, 2]"] ;
566 -> 567 ;
568 [label="gini = 0.0\nsamples = 1\nvalue = [0, 1]"] ;
567 -> 568 ;
569 [label="id_match_competition <= 69.0\ngini = 0.5\nsamples = 2\nvalue = [1, 1]"] ;
567 -> 569 ;
570 [label="gini = 0.0\nsamples = 1\nvalue = [1, 0]"] ;
569 -> 570 ;
571 [label="gini = 0.0\nsamples = 1\nvalue = [0, 1]"] ;
569 -> 571 ;
572 [label="gini = 0.0\nsamples = 3\nvalue = [3, 0]"] ;
566 -> 572 ;
573 [label="gini = 0.0\nsamples = 16\nvalue = [16, 0]"] ;
565 -> 573 ;
574 [label="gini = 0.0\nsamples = 2\nvalue = [0, 2]"] ;
564 -> 574 ;
575 [label="id_match_competition <= 369.0\ngini = 0.492\nsamples = 64\nvalue = [36, 28]"] ;
563 -> 575 ;
576 [label="t1_h2h_total10_fl_match_draw <= 3.5\ngini = 0.488\nsamples = 26\nvalue = [11, 15]"] ;
575 -> 576 ;
577 [label="t1_all_total10_fl_match_draw <= 0.5\ngini = 0.454\nsamples = 23\nvalue = [8, 15]"] ;
576 -> 577 ;
578 [label="t2_h2h_total10_fl_match_lost <= 0.5\ngini = 0.494\nsamples = 18\nvalue = [8, 10]"] ;
577 -> 578 ;
579 [label="gini = 0.0\nsamples = 2\nvalue = [2, 0]"] ;
578 -> 579 ;
580 [label="t2_h2h_total10_fl_match_win <= 2.5\ngini = 0.469\nsamples = 16\nvalue = [6, 10]"] ;
578 -> 580 ;
581 [label="id_match_competition <= 201.0\ngini = 0.408\nsamples = 14\nvalue = [4, 10]"] ;
580 -> 581 ;
582 [label="t1_h2h_home_total10_fl_match_lost <= 1.5\ngini = 0.245\nsamples = 7\nvalue = [1, 6]"] ;
581 -> 582 ;
583 [label="gini = 0.0\nsamples = 5\nvalue = [0, 5]"] ;
582 -> 583 ;
584 [label="gini = 0.5\nsamples = 2\nvalue = [1, 1]"] ;
582 -> 584 ;
585 [label="t2_all_total10_fl_match_draw <= 0.5\ngini = 0.49\nsamples = 7\nvalue = [3, 4]"] ;
581 -> 585 ;
586 [label="id_match_competition <= 208.5\ngini = 0.444\nsamples = 6\nvalue = [2, 4]"] ;
585 -> 586 ;
587 [label="gini = 0.0\nsamples = 1\nvalue = [1, 0]"] ;
586 -> 587 ;
588 [label="t1_h2h_total5_fl_match_win <= 1.5\ngini = 0.32\nsamples = 5\nvalue = [1, 4]"] ;
586 -> 588 ;
589 [label="gini = 0.0\nsamples = 3\nvalue = [0, 3]"] ;
588 -> 589 ;
590 [label="t1_h2h_total10_fl_match_win <= 3.0\ngini = 0.5\nsamples = 2\nvalue = [1, 1]"] ;
588 -> 590 ;
591 [label="gini = 0.0\nsamples = 1\nvalue = [1, 0]"] ;
590 -> 591 ;
592 [label="gini = 0.0\nsamples = 1\nvalue = [0, 1]"] ;
590 -> 592 ;
593 [label="gini = 0.0\nsamples = 1\nvalue = [1, 0]"] ;
585 -> 593 ;
594 [label="gini = 0.0\nsamples = 2\nvalue = [2, 0]"] ;
580 -> 594 ;
595 [label="gini = 0.0\nsamples = 5\nvalue = [0, 5]"] ;
577 -> 595 ;
596 [label="gini = 0.0\nsamples = 3\nvalue = [3, 0]"] ;
576 -> 596 ;
597 [label="t2_h2h_away_total10_fl_match_lost <= 0.5\ngini = 0.45\nsamples = 38\nvalue = [25, 13]"] ;
575 -> 597 ;
598 [label="t2_h2h_away_total10_fl_match_win <= 0.5\ngini = 0.497\nsamples = 13\nvalue = [6, 7]"] ;
597 -> 598 ;
599 [label="gini = 0.0\nsamples = 3\nvalue = [3, 0]"] ;
598 -> 599 ;
600 [label="t1_all_total5_fl_match_win <= 0.5\ngini = 0.42\nsamples = 10\nvalue = [3, 7]"] ;
598 -> 600 ;
601 [label="gini = 0.0\nsamples = 6\nvalue = [0, 6]"] ;
600 -> 601 ;
602 [label="id_match_competition <= 4754.0\ngini = 0.375\nsamples = 4\nvalue = [3, 1]"] ;
600 -> 602 ;
603 [label="gini = 0.0\nsamples = 3\nvalue = [3, 0]"] ;
602 -> 603 ;
604 [label="gini = 0.0\nsamples = 1\nvalue = [0, 1]"] ;
602 -> 604 ;
605 [label="t1_all_total10_fl_match_draw <= 1.5\ngini = 0.365\nsamples = 25\nvalue = [19, 6]"] ;
597 -> 605 ;
606 [label="t1_h2h_total10_fl_match_draw <= 4.5\ngini = 0.287\nsamples = 23\nvalue = [19, 4]"] ;
605 -> 606 ;
607 [label="id_match_competition <= 15228.0\ngini = 0.236\nsamples = 22\nvalue = [19, 3]"] ;
606 -> 607 ;
608 [label="id_match_competition <= 898.0\ngini = 0.172\nsamples = 21\nvalue = [19, 2]"] ;
607 -> 608 ;
609 [label="gini = 0.0\nsamples = 13\nvalue = [13, 0]"] ;
608 -> 609 ;
610 [label="t2_h2h_total10_fl_match_draw <= 1.5\ngini = 0.375\nsamples = 8\nvalue = [6, 2]"] ;
608 -> 610 ;
611 [label="gini = 0.0\nsamples = 2\nvalue = [0, 2]"] ;
610 -> 611 ;
612 [label="gini = 0.0\nsamples = 6\nvalue = [6, 0]"] ;
610 -> 612 ;
613 [label="gini = 0.0\nsamples = 1\nvalue = [0, 1]"] ;
607 -> 613 ;
614 [label="gini = 0.0\nsamples = 1\nvalue = [0, 1]"] ;
606 -> 614 ;
615 [label="gini = 0.0\nsamples = 2\nvalue = [0, 2]"] ;
605 -> 615 ;
616 [label="t1_h2h_home_total5_fl_match_lost <= 1.5\ngini = 0.397\nsamples = 11\nvalue = [3, 8]"] ;
562 -> 616 ;
617 [label="t2_all_total5_fl_match_win <= 1.5\ngini = 0.219\nsamples = 8\nvalue = [1, 7]"] ;
616 -> 617 ;
618 [label="gini = 0.0\nsamples = 7\nvalue = [0, 7]"] ;
617 -> 618 ;
619 [label="gini = 0.0\nsamples = 1\nvalue = [1, 0]"] ;
617 -> 619 ;
620 [label="t2_h2h_away_total5_fl_match_draw <= 0.5\ngini = 0.444\nsamples = 3\nvalue = [2, 1]"] ;
616 -> 620 ;
621 [label="gini = 0.0\nsamples = 1\nvalue = [0, 1]"] ;
620 -> 621 ;
622 [label="gini = 0.0\nsamples = 2\nvalue = [2, 0]"] ;
620 -> 622 ;
623 [label="t1_h2h_total10_fl_match_win <= 2.5\ngini = 0.334\nsamples = 66\nvalue = [52, 14]"] ;
411 -> 623 ;
624 [label="t2_h2h_away_total10_fl_match_draw <= 2.5\ngini = 0.296\nsamples = 61\nvalue = [50, 11]"] ;
623 -> 624 ;
625 [label="t1_h2h_home_total5_fl_match_lost <= 2.5\ngini = 0.32\nsamples = 55\nvalue = [44, 11]"] ;
624 -> 625 ;
626 [label="id_match_competition <= 186.0\ngini = 0.348\nsamples = 49\nvalue = [38, 11]"] ;
625 -> 626 ;
627 [label="id_match_competition <= 64.5\ngini = 0.188\nsamples = 19\nvalue = [17, 2]"] ;
626 -> 627 ;
628 [label="id_match_competition <= 56.0\ngini = 0.5\nsamples = 2\nvalue = [1, 1]"] ;
627 -> 628 ;
629 [label="gini = 0.0\nsamples = 1\nvalue = [1, 0]"] ;
628 -> 629 ;
630 [label="gini = 0.0\nsamples = 1\nvalue = [0, 1]"] ;
628 -> 630 ;
631 [label="t1_h2h_total5_fl_match_lost <= 3.5\ngini = 0.111\nsamples = 17\nvalue = [16, 1]"] ;
627 -> 631 ;
632 [label="gini = 0.0\nsamples = 14\nvalue = [14, 0]"] ;
631 -> 632 ;
633 [label="id_match_competition <= 117.5\ngini = 0.444\nsamples = 3\nvalue = [2, 1]"] ;
631 -> 633 ;
634 [label="gini = 0.0\nsamples = 1\nvalue = [0, 1]"] ;
633 -> 634 ;
635 [label="gini = 0.0\nsamples = 2\nvalue = [2, 0]"] ;
633 -> 635 ;
636 [label="id_match_competition <= 189.5\ngini = 0.42\nsamples = 30\nvalue = [21, 9]"] ;
626 -> 636 ;
637 [label="gini = 0.0\nsamples = 1\nvalue = [0, 1]"] ;
636 -> 637 ;
638 [label="t2_h2h_total10_fl_match_draw <= 3.5\ngini = 0.4\nsamples = 29\nvalue = [21, 8]"] ;
636 -> 638 ;
639 [label="t2_all_total5_fl_match_draw <= 0.5\ngini = 0.355\nsamples = 26\nvalue = [20, 6]"] ;
638 -> 639 ;
640 [label="t1_all_total10_fl_match_draw <= 0.5\ngini = 0.444\nsamples = 15\nvalue = [10, 5]"] ;
639 -> 640 ;
641 [label="id_match_competition <= 369.0\ngini = 0.355\nsamples = 13\nvalue = [10, 3]"] ;
640 -> 641 ;
642 [label="gini = 0.0\nsamples = 5\nvalue = [5, 0]"] ;
641 -> 642 ;
643 [label="id_match_competition <= 718.0\ngini = 0.469\nsamples = 8\nvalue = [5, 3]"] ;
641 -> 643 ;
644 [label="t2_h2h_away_total10_fl_match_draw <= 0.5\ngini = 0.375\nsamples = 4\nvalue = [1, 3]"] ;
643 -> 644 ;
645 [label="id_match_competition <= 575.5\ngini = 0.5\nsamples = 2\nvalue = [1, 1]"] ;
644 -> 645 ;
646 [label="gini = 0.0\nsamples = 1\nvalue = [1, 0]"] ;
645 -> 646 ;
647 [label="gini = 0.0\nsamples = 1\nvalue = [0, 1]"] ;
645 -> 647 ;
648 [label="gini = 0.0\nsamples = 2\nvalue = [0, 2]"] ;
644 -> 648 ;
649 [label="gini = 0.0\nsamples = 4\nvalue = [4, 0]"] ;
643 -> 649 ;
650 [label="gini = 0.0\nsamples = 2\nvalue = [0, 2]"] ;
640 -> 650 ;
651 [label="t1_h2h_total5_fl_match_draw <= 0.5\ngini = 0.165\nsamples = 11\nvalue = [10, 1]"] ;
639 -> 651 ;
652 [label="gini = 0.0\nsamples = 1\nvalue = [0, 1]"] ;
651 -> 652 ;
653 [label="gini = 0.0\nsamples = 10\nvalue = [10, 0]"] ;
651 -> 653 ;
654 [label="t1_h2h_home_total5_fl_match_win <= 0.5\ngini = 0.444\nsamples = 3\nvalue = [1, 2]"] ;
638 -> 654 ;
655 [label="gini = 0.0\nsamples = 1\nvalue = [1, 0]"] ;
654 -> 655 ;
656 [label="gini = 0.0\nsamples = 2\nvalue = [0, 2]"] ;
654 -> 656 ;
657 [label="gini = 0.0\nsamples = 6\nvalue = [6, 0]"] ;
625 -> 657 ;
658 [label="gini = 0.0\nsamples = 6\nvalue = [6, 0]"] ;
624 -> 658 ;
659 [label="t2_h2h_away_total5_fl_match_win <= 2.5\ngini = 0.48\nsamples = 5\nvalue = [2, 3]"] ;
623 -> 659 ;
660 [label="gini = 0.0\nsamples = 2\nvalue = [2, 0]"] ;
659 -> 660 ;
661 [label="gini = 0.0\nsamples = 3\nvalue = [0, 3]"] ;
659 -> 661 ;
662 [label="t1_h2h_total10_fl_match_lost <= 3.5\ngini = 0.487\nsamples = 276\nvalue = [160, 116]"] ;
410 -> 662 ;
663 [label="t2_h2h_away_total10_fl_match_win <= 2.5\ngini = 0.497\nsamples = 201\nvalue = [108, 93]"] ;
662 -> 663 ;
664 [label="t1_h2h_total10_fl_match_draw <= 5.5\ngini = 0.499\nsamples = 193\nvalue = [101, 92]"] ;
663 -> 664 ;
665 [label="t2_h2h_total5_fl_match_draw <= 1.5\ngini = 0.5\nsamples = 186\nvalue = [95, 91]"] ;
664 -> 665 ;
666 [label="id_match_competition <= 905.5\ngini = 0.472\nsamples = 68\nvalue = [42, 26]"] ;
665 -> 666 ;
667 [label="t2_h2h_total5_fl_match_win <= 2.5\ngini = 0.49\nsamples = 58\nvalue = [33, 25]"] ;
666 -> 667 ;
668 [label="t2_all_total10_fl_match_draw <= 1.5\ngini = 0.473\nsamples = 52\nvalue = [32, 20]"] ;
667 -> 668 ;
669 [label="id_match_competition <= 210.5\ngini = 0.449\nsamples = 47\nvalue = [31, 16]"] ;
668 -> 669 ;
670 [label="id_match_competition <= 67.5\ngini = 0.32\nsamples = 20\nvalue = [16, 4]"] ;
669 -> 670 ;
671 [label="t1_all_total10_fl_match_lost <= 0.5\ngini = 0.5\nsamples = 4\nvalue = [2, 2]"] ;
670 -> 671 ;
672 [label="t1_h2h_total10_fl_match_lost <= 0.5\ngini = 0.444\nsamples = 3\nvalue = [1, 2]"] ;
671 -> 672 ;
673 [label="gini = 0.0\nsamples = 1\nvalue = [1, 0]"] ;
672 -> 673 ;
674 [label="gini = 0.0\nsamples = 2\nvalue = [0, 2]"] ;
672 -> 674 ;
675 [label="gini = 0.0\nsamples = 1\nvalue = [1, 0]"] ;
671 -> 675 ;
676 [label="t2_h2h_away_total10_fl_match_lost <= 2.5\ngini = 0.219\nsamples = 16\nvalue = [14, 2]"] ;
670 -> 676 ;
677 [label="gini = 0.0\nsamples = 11\nvalue = [11, 0]"] ;
676 -> 677 ;
678 [label="t1_all_total5_fl_match_lost <= 0.5\ngini = 0.48\nsamples = 5\nvalue = [3, 2]"] ;
676 -> 678 ;
679 [label="t1_h2h_home_total10_fl_match_lost <= 0.5\ngini = 0.375\nsamples = 4\nvalue = [3, 1]"] ;
678 -> 679 ;
680 [label="gini = 0.0\nsamples = 1\nvalue = [0, 1]"] ;
679 -> 680 ;
681 [label="gini = 0.0\nsamples = 3\nvalue = [3, 0]"] ;
679 -> 681 ;
682 [label="gini = 0.0\nsamples = 1\nvalue = [0, 1]"] ;
678 -> 682 ;
683 [label="t2_h2h_away_total10_fl_match_draw <= 2.5\ngini = 0.494\nsamples = 27\nvalue = [15, 12]"] ;
669 -> 683 ;
684 [label="t2_h2h_away_total10_fl_match_win <= 1.5\ngini = 0.469\nsamples = 24\nvalue = [15, 9]"] ;
683 -> 684 ;
685 [label="t1_h2h_home_total10_fl_match_draw <= 1.5\ngini = 0.499\nsamples = 19\nvalue = [10, 9]"] ;
684 -> 685 ;
686 [label="t1_h2h_total10_fl_match_draw <= 2.5\ngini = 0.498\nsamples = 17\nvalue = [8, 9]"] ;
685 -> 686 ;
687 [label="t2_all_total5_fl_match_draw <= 0.5\ngini = 0.49\nsamples = 14\nvalue = [8, 6]"] ;
686 -> 687 ;
688 [label="t2_h2h_total10_fl_match_lost <= 4.5\ngini = 0.496\nsamples = 11\nvalue = [5, 6]"] ;
687 -> 688 ;
689 [label="t2_h2h_away_total10_fl_match_draw <= 0.5\ngini = 0.494\nsamples = 9\nvalue = [5, 4]"] ;
688 -> 689 ;
690 [label="t2_all_total5_fl_match_win <= 0.5\ngini = 0.444\nsamples = 6\nvalue = [2, 4]"] ;
689 -> 690 ;
691 [label="id_match_competition <= 534.0\ngini = 0.444\nsamples = 3\nvalue = [2, 1]"] ;
690 -> 691 ;
692 [label="gini = 0.0\nsamples = 1\nvalue = [0, 1]"] ;
691 -> 692 ;
693 [label="gini = 0.0\nsamples = 2\nvalue = [2, 0]"] ;
691 -> 693 ;
694 [label="gini = 0.0\nsamples = 3\nvalue = [0, 3]"] ;
690 -> 694 ;
695 [label="gini = 0.0\nsamples = 3\nvalue = [3, 0]"] ;
689 -> 695 ;
696 [label="gini = 0.0\nsamples = 2\nvalue = [0, 2]"] ;
688 -> 696 ;
697 [label="gini = 0.0\nsamples = 3\nvalue = [3, 0]"] ;
687 -> 697 ;
698 [label="gini = 0.0\nsamples = 3\nvalue = [0, 3]"] ;
686 -> 698 ;
699 [label="gini = 0.0\nsamples = 2\nvalue = [2, 0]"] ;
685 -> 699 ;
700 [label="gini = 0.0\nsamples = 5\nvalue = [5, 0]"] ;
684 -> 700 ;
701 [label="gini = 0.0\nsamples = 3\nvalue = [0, 3]"] ;
683 -> 701 ;
702 [label="t1_h2h_home_total5_fl_match_win <= 3.5\ngini = 0.32\nsamples = 5\nvalue = [1, 4]"] ;
668 -> 702 ;
703 [label="gini = 0.0\nsamples = 4\nvalue = [0, 4]"] ;
702 -> 703 ;
704 [label="gini = 0.0\nsamples = 1\nvalue = [1, 0]"] ;
702 -> 704 ;
705 [label="t1_home_total5_fl_match_win <= 0.5\ngini = 0.278\nsamples = 6\nvalue = [1, 5]"] ;
667 -> 705 ;
706 [label="gini = 0.0\nsamples = 5\nvalue = [0, 5]"] ;
705 -> 706 ;
707 [label="gini = 0.0\nsamples = 1\nvalue = [1, 0]"] ;
705 -> 707 ;
708 [label="t2_all_total10_fl_match_draw <= 0.5\ngini = 0.18\nsamples = 10\nvalue = [9, 1]"] ;
666 -> 708 ;
709 [label="id_match_competition <= 1081.5\ngini = 0.375\nsamples = 4\nvalue = [3, 1]"] ;
708 -> 709 ;
710 [label="gini = 0.0\nsamples = 1\nvalue = [0, 1]"] ;
709 -> 710 ;
711 [label="gini = 0.0\nsamples = 3\nvalue = [3, 0]"] ;
709 -> 711 ;
712 [label="gini = 0.0\nsamples = 6\nvalue = [6, 0]"] ;
708 -> 712 ;
713 [label="t2_h2h_total5_fl_match_win <= 0.5\ngini = 0.495\nsamples = 118\nvalue = [53, 65]"] ;
665 -> 713 ;
714 [label="t1_all_total10_fl_match_draw <= 0.5\ngini = 0.475\nsamples = 31\nvalue = [19, 12]"] ;
713 -> 714 ;
715 [label="t2_h2h_away_total10_fl_match_draw <= 1.5\ngini = 0.32\nsamples = 20\nvalue = [16, 4]"] ;
714 -> 715 ;
716 [label="t2_all_total5_fl_match_win <= 0.5\ngini = 0.494\nsamples = 9\nvalue = [5, 4]"] ;
715 -> 716 ;
717 [label="id_match_competition <= 823.5\ngini = 0.278\nsamples = 6\nvalue = [5, 1]"] ;
716 -> 717 ;
718 [label="gini = 0.0\nsamples = 5\nvalue = [5, 0]"] ;
717 -> 718 ;
719 [label="gini = 0.0\nsamples = 1\nvalue = [0, 1]"] ;
717 -> 719 ;
720 [label="gini = 0.0\nsamples = 3\nvalue = [0, 3]"] ;
716 -> 720 ;
721 [label="gini = 0.0\nsamples = 11\nvalue = [11, 0]"] ;
715 -> 721 ;
722 [label="t2_h2h_total10_fl_match_draw <= 3.5\ngini = 0.397\nsamples = 11\nvalue = [3, 8]"] ;
714 -> 722 ;
723 [label="t1_home_total10_fl_match_lost <= 0.5\ngini = 0.5\nsamples = 6\nvalue = [3, 3]"] ;
722 -> 723 ;
724 [label="id_match_competition <= 901.0\ngini = 0.375\nsamples = 4\nvalue = [3, 1]"] ;
723 -> 724 ;
725 [label="gini = 0.0\nsamples = 3\nvalue = [3, 0]"] ;
724 -> 725 ;
726 [label="gini = 0.0\nsamples = 1\nvalue = [0, 1]"] ;
724 -> 726 ;
727 [label="gini = 0.0\nsamples = 2\nvalue = [0, 2]"] ;
723 -> 727 ;
728 [label="gini = 0.0\nsamples = 5\nvalue = [0, 5]"] ;
722 -> 728 ;
729 [label="t2_h2h_total5_fl_match_lost <= 0.5\ngini = 0.476\nsamples = 87\nvalue = [34, 53]"] ;
713 -> 729 ;
730 [label="gini = 0.0\nsamples = 2\nvalue = [2, 0]"] ;
729 -> 730 ;
731 [label="t2_h2h_total10_fl_match_lost <= 5.5\ngini = 0.469\nsamples = 85\nvalue = [32, 53]"] ;
729 -> 731 ;
732 [label="t1_h2h_home_total10_fl_match_lost <= 0.5\ngini = 0.46\nsamples = 81\nvalue = [29, 52]"] ;
731 -> 732 ;
733 [label="id_match_competition <= 170.0\ngini = 0.497\nsamples = 28\nvalue = [13, 15]"] ;
732 -> 733 ;
734 [label="gini = 0.0\nsamples = 8\nvalue = [0, 8]"] ;
733 -> 734 ;
735 [label="t2_h2h_total10_fl_match_draw <= 2.5\ngini = 0.455\nsamples = 20\nvalue = [13, 7]"] ;
733 -> 735 ;
736 [label="gini = 0.0\nsamples = 3\nvalue = [0, 3]"] ;
735 -> 736 ;
737 [label="t1_all_total10_fl_match_lost <= 1.5\ngini = 0.36\nsamples = 17\nvalue = [13, 4]"] ;
735 -> 737 ;
738 [label="t2_h2h_total10_fl_match_draw <= 4.5\ngini = 0.305\nsamples = 16\nvalue = [13, 3]"] ;
737 -> 738 ;
739 [label="t1_h2h_total10_fl_match_draw <= 3.5\ngini = 0.231\nsamples = 15\nvalue = [13, 2]"] ;
738 -> 739 ;
740 [label="t1_all_total5_fl_match_lost <= 0.5\ngini = 0.375\nsamples = 8\nvalue = [6, 2]"] ;
739 -> 740 ;
741 [label="id_match_competition <= 207.0\ngini = 0.245\nsamples = 7\nvalue = [6, 1]"] ;
740 -> 741 ;
742 [label="t1_h2h_home_total10_fl_match_draw <= 2.0\ngini = 0.5\nsamples = 2\nvalue = [1, 1]"] ;
741 -> 742 ;
743 [label="gini = 0.0\nsamples = 1\nvalue = [1, 0]"] ;
742 -> 743 ;
744 [label="gini = 0.0\nsamples = 1\nvalue = [0, 1]"] ;
742 -> 744 ;
745 [label="gini = 0.0\nsamples = 5\nvalue = [5, 0]"] ;
741 -> 745 ;
746 [label="gini = 0.0\nsamples = 1\nvalue = [0, 1]"] ;
740 -> 746 ;
747 [label="gini = 0.0\nsamples = 7\nvalue = [7, 0]"] ;
739 -> 747 ;
748 [label="gini = 0.0\nsamples = 1\nvalue = [0, 1]"] ;
738 -> 748 ;
749 [label="gini = 0.0\nsamples = 1\nvalue = [0, 1]"] ;
737 -> 749 ;
750 [label="t1_h2h_home_total10_fl_match_draw <= 2.5\ngini = 0.422\nsamples = 53\nvalue = [16, 37]"] ;
732 -> 750 ;
751 [label="t1_h2h_home_total5_fl_match_win <= 3.5\ngini = 0.463\nsamples = 44\nvalue = [16, 28]"] ;
750 -> 751 ;
752 [label="t2_h2h_away_total5_fl_match_lost <= 2.5\ngini = 0.484\nsamples = 39\nvalue = [16, 23]"] ;
751 -> 752 ;
753 [label="t1_all_total10_fl_match_lost <= 0.5\ngini = 0.408\nsamples = 28\nvalue = [8, 20]"] ;
752 -> 753 ;
754 [label="t2_h2h_total10_fl_match_draw <= 4.5\ngini = 0.278\nsamples = 18\nvalue = [3, 15]"] ;
753 -> 754 ;
755 [label="gini = 0.0\nsamples = 14\nvalue = [0, 14]"] ;
754 -> 755 ;
756 [label="t1_h2h_home_total10_fl_match_lost <= 1.5\ngini = 0.375\nsamples = 4\nvalue = [3, 1]"] ;
754 -> 756 ;
757 [label="gini = 0.0\nsamples = 3\nvalue = [3, 0]"] ;
756 -> 757 ;
758 [label="gini = 0.0\nsamples = 1\nvalue = [0, 1]"] ;
756 -> 758 ;
759 [label="id_match_competition <= 234.5\ngini = 0.5\nsamples = 10\nvalue = [5, 5]"] ;
753 -> 759 ;
760 [label="gini = 0.0\nsamples = 4\nvalue = [4, 0]"] ;
759 -> 760 ;
761 [label="id_match_competition <= 11382.5\ngini = 0.278\nsamples = 6\nvalue = [1, 5]"] ;
759 -> 761 ;
762 [label="gini = 0.0\nsamples = 5\nvalue = [0, 5]"] ;
761 -> 762 ;
763 [label="gini = 0.0\nsamples = 1\nvalue = [1, 0]"] ;
761 -> 763 ;
764 [label="id_match_competition <= 391.0\ngini = 0.397\nsamples = 11\nvalue = [8, 3]"] ;
752 -> 764 ;
765 [label="gini = 0.0\nsamples = 4\nvalue = [4, 0]"] ;
764 -> 765 ;
766 [label="id_match_competition <= 746.0\ngini = 0.49\nsamples = 7\nvalue = [4, 3]"] ;
764 -> 766 ;
767 [label="gini = 0.0\nsamples = 3\nvalue = [0, 3]"] ;
766 -> 767 ;
768 [label="gini = 0.0\nsamples = 4\nvalue = [4, 0]"] ;
766 -> 768 ;
769 [label="gini = 0.0\nsamples = 5\nvalue = [0, 5]"] ;
751 -> 769 ;
770 [label="gini = 0.0\nsamples = 9\nvalue = [0, 9]"] ;
750 -> 770 ;
771 [label="t1_home_total10_fl_match_lost <= 0.5\ngini = 0.375\nsamples = 4\nvalue = [3, 1]"] ;
731 -> 771 ;
772 [label="gini = 0.0\nsamples = 3\nvalue = [3, 0]"] ;
771 -> 772 ;
773 [label="gini = 0.0\nsamples = 1\nvalue = [0, 1]"] ;
771 -> 773 ;
774 [label="t1_h2h_total5_fl_match_draw <= 1.5\ngini = 0.245\nsamples = 7\nvalue = [6, 1]"] ;
664 -> 774 ;
775 [label="gini = 0.0\nsamples = 1\nvalue = [0, 1]"] ;
774 -> 775 ;
776 [label="gini = 0.0\nsamples = 6\nvalue = [6, 0]"] ;
774 -> 776 ;
777 [label="t2_h2h_away_total5_fl_match_draw <= 2.5\ngini = 0.219\nsamples = 8\nvalue = [7, 1]"] ;
663 -> 777 ;
778 [label="gini = 0.0\nsamples = 7\nvalue = [7, 0]"] ;
777 -> 778 ;
779 [label="gini = 0.0\nsamples = 1\nvalue = [0, 1]"] ;
777 -> 779 ;
780 [label="t1_h2h_home_total10_fl_match_draw <= 1.5\ngini = 0.425\nsamples = 75\nvalue = [52, 23]"] ;
662 -> 780 ;
781 [label="t2_h2h_total5_fl_match_draw <= 0.5\ngini = 0.497\nsamples = 39\nvalue = [21, 18]"] ;
780 -> 781 ;
782 [label="t2_h2h_away_total10_fl_match_win <= 1.5\ngini = 0.198\nsamples = 9\nvalue = [8, 1]"] ;
781 -> 782 ;
783 [label="t1_h2h_home_total5_fl_match_lost <= 0.5\ngini = 0.5\nsamples = 2\nvalue = [1, 1]"] ;
782 -> 783 ;
784 [label="gini = 0.0\nsamples = 1\nvalue = [1, 0]"] ;
783 -> 784 ;
785 [label="gini = 0.0\nsamples = 1\nvalue = [0, 1]"] ;
783 -> 785 ;
786 [label="gini = 0.0\nsamples = 7\nvalue = [7, 0]"] ;
782 -> 786 ;
787 [label="t1_h2h_total10_fl_match_win <= 3.5\ngini = 0.491\nsamples = 30\nvalue = [13, 17]"] ;
781 -> 787 ;
788 [label="t1_h2h_total5_fl_match_lost <= 1.5\ngini = 0.278\nsamples = 12\nvalue = [2, 10]"] ;
787 -> 788 ;
789 [label="t2_away_total5_fl_match_win <= 0.5\ngini = 0.5\nsamples = 4\nvalue = [2, 2]"] ;
788 -> 789 ;
790 [label="t1_all_total10_fl_match_win <= 0.5\ngini = 0.444\nsamples = 3\nvalue = [2, 1]"] ;
789 -> 790 ;
791 [label="gini = 0.0\nsamples = 2\nvalue = [2, 0]"] ;
790 -> 791 ;
792 [label="gini = 0.0\nsamples = 1\nvalue = [0, 1]"] ;
790 -> 792 ;
793 [label="gini = 0.0\nsamples = 1\nvalue = [0, 1]"] ;
789 -> 793 ;
794 [label="gini = 0.0\nsamples = 8\nvalue = [0, 8]"] ;
788 -> 794 ;
795 [label="id_match_competition <= 214.5\ngini = 0.475\nsamples = 18\nvalue = [11, 7]"] ;
787 -> 795 ;
796 [label="t2_h2h_away_total10_fl_match_win <= 1.5\ngini = 0.469\nsamples = 8\nvalue = [3, 5]"] ;
795 -> 796 ;
797 [label="gini = 0.0\nsamples = 3\nvalue = [0, 3]"] ;
796 -> 797 ;
798 [label="t1_h2h_total5_fl_match_draw <= 1.5\ngini = 0.48\nsamples = 5\nvalue = [3, 2]"] ;
796 -> 798 ;
799 [label="gini = 0.0\nsamples = 3\nvalue = [3, 0]"] ;
798 -> 799 ;
800 [label="gini = 0.0\nsamples = 2\nvalue = [0, 2]"] ;
798 -> 800 ;
801 [label="t1_h2h_home_total5_fl_match_lost <= 2.5\ngini = 0.32\nsamples = 10\nvalue = [8, 2]"] ;
795 -> 801 ;
802 [label="gini = 0.0\nsamples = 8\nvalue = [8, 0]"] ;
801 -> 802 ;
803 [label="gini = 0.0\nsamples = 2\nvalue = [0, 2]"] ;
801 -> 803 ;
804 [label="t2_h2h_away_total10_fl_match_draw <= 5.5\ngini = 0.239\nsamples = 36\nvalue = [31, 5]"] ;
780 -> 804 ;
805 [label="t1_h2h_home_total10_fl_match_win <= 4.5\ngini = 0.202\nsamples = 35\nvalue = [31, 4]"] ;
804 -> 805 ;
806 [label="t1_h2h_total10_fl_match_draw <= 3.5\ngini = 0.124\nsamples = 30\nvalue = [28, 2]"] ;
805 -> 806 ;
807 [label="gini = 0.0\nsamples = 19\nvalue = [19, 0]"] ;
806 -> 807 ;
808 [label="t1_all_total10_fl_match_draw <= 1.5\ngini = 0.298\nsamples = 11\nvalue = [9, 2]"] ;
806 -> 808 ;
809 [label="t2_h2h_away_total5_fl_match_draw <= 2.5\ngini = 0.198\nsamples = 9\nvalue = [8, 1]"] ;
808 -> 809 ;
810 [label="gini = 0.0\nsamples = 7\nvalue = [7, 0]"] ;
809 -> 810 ;
811 [label="t1_h2h_total10_fl_match_win <= 1.0\ngini = 0.5\nsamples = 2\nvalue = [1, 1]"] ;
809 -> 811 ;
812 [label="gini = 0.0\nsamples = 1\nvalue = [1, 0]"] ;
811 -> 812 ;
813 [label="gini = 0.0\nsamples = 1\nvalue = [0, 1]"] ;
811 -> 813 ;
814 [label="t2_h2h_total5_fl_match_win <= 1.0\ngini = 0.5\nsamples = 2\nvalue = [1, 1]"] ;
808 -> 814 ;
815 [label="gini = 0.0\nsamples = 1\nvalue = [1, 0]"] ;
814 -> 815 ;
816 [label="gini = 0.0\nsamples = 1\nvalue = [0, 1]"] ;
814 -> 816 ;
817 [label="t1_h2h_home_total5_fl_match_lost <= 0.5\ngini = 0.48\nsamples = 5\nvalue = [3, 2]"] ;
805 -> 817 ;
818 [label="gini = 0.0\nsamples = 2\nvalue = [0, 2]"] ;
817 -> 818 ;
819 [label="gini = 0.0\nsamples = 3\nvalue = [3, 0]"] ;
817 -> 819 ;
820 [label="gini = 0.0\nsamples = 1\nvalue = [0, 1]"] ;
804 -> 820 ;
821 [label="t1_all_total10_fl_match_draw <= 0.5\ngini = 0.432\nsamples = 19\nvalue = [6, 13]"] ;
7 -> 821 ;
822 [label="t1_h2h_home_total5_fl_match_lost <= 0.5\ngini = 0.18\nsamples = 10\nvalue = [1, 9]"] ;
821 -> 822 ;
823 [label="gini = 0.0\nsamples = 8\nvalue = [0, 8]"] ;
822 -> 823 ;
824 [label="t2_h2h_total5_fl_match_win <= 3.5\ngini = 0.5\nsamples = 2\nvalue = [1, 1]"] ;
822 -> 824 ;
825 [label="gini = 0.0\nsamples = 1\nvalue = [1, 0]"] ;
824 -> 825 ;
826 [label="gini = 0.0\nsamples = 1\nvalue = [0, 1]"] ;
824 -> 826 ;
827 [label="id_match_competition <= 237.5\ngini = 0.494\nsamples = 9\nvalue = [5, 4]"] ;
821 -> 827 ;
828 [label="t1_h2h_total10_fl_match_lost <= 2.5\ngini = 0.32\nsamples = 5\nvalue = [1, 4]"] ;
827 -> 828 ;
829 [label="gini = 0.0\nsamples = 4\nvalue = [0, 4]"] ;
828 -> 829 ;
830 [label="gini = 0.0\nsamples = 1\nvalue = [1, 0]"] ;
828 -> 830 ;
831 [label="gini = 0.0\nsamples = 4\nvalue = [4, 0]"] ;
827 -> 831 ;
832 [label="t2_all_total10_fl_match_lost <= 6.5\ngini = 0.497\nsamples = 3060\nvalue = [1654, 1406]"] ;
6 -> 832 ;
833 [label="t1_all_total10_fl_match_lost <= 1.5\ngini = 0.495\nsamples = 2872\nvalue = [1573, 1299]"] ;
832 -> 833 ;
834 [label="t2_away_total10_fl_match_draw <= 3.5\ngini = 0.5\nsamples = 1000\nvalue = [507, 493]"] ;
833 -> 834 ;
835 [label="t2_h2h_total10_fl_match_draw <= 5.5\ngini = 0.5\nsamples = 993\nvalue = [500, 493]"] ;
834 -> 835 ;
836 [label="t1_h2h_total10_fl_match_lost <= 3.5\ngini = 0.5\nsamples = 981\nvalue = [498, 483]"] ;
835 -> 836 ;
837 [label="t2_away_total10_fl_match_draw <= 0.5\ngini = 0.5\nsamples = 894\nvalue = [444, 450]"] ;
836 -> 837 ;
838 [label="t1_all_total5_fl_match_win <= 1.5\ngini = 0.498\nsamples = 629\nvalue = [295, 334]"] ;
837 -> 838 ;
839 [label="t2_away_total5_fl_match_lost <= 1.5\ngini = 0.5\nsamples = 454\nvalue = [226, 228]"] ;
838 -> 839 ;
840 [label="t2_h2h_away_total5_fl_match_win <= 1.5\ngini = 0.499\nsamples = 415\nvalue = [200, 215]"] ;
839 -> 840 ;
841 [label="t1_h2h_total10_fl_match_lost <= 2.5\ngini = 0.5\nsamples = 386\nvalue = [191, 195]"] ;
840 -> 841 ;
842 [label="id_match_competition <= 5170.0\ngini = 0.498\nsamples = 335\nvalue = [158, 177]"] ;
841 -> 842 ;
843 [label="id_match_competition <= 172.5\ngini = 0.497\nsamples = 325\nvalue = [150, 175]"] ;
842 -> 843 ;
844 [label="t2_h2h_total5_fl_match_draw <= 2.5\ngini = 0.497\nsamples = 121\nvalue = [65, 56]"] ;
843 -> 844 ;
845 [label="t2_h2h_away_total5_fl_match_draw <= 0.5\ngini = 0.5\nsamples = 103\nvalue = [51, 52]"] ;
844 -> 845 ;
846 [label="t2_all_total5_fl_match_win <= 1.5\ngini = 0.489\nsamples = 75\nvalue = [43, 32]"] ;
845 -> 846 ;
847 [label="id_match_competition <= 73.0\ngini = 0.495\nsamples = 71\nvalue = [39, 32]"] ;
846 -> 847 ;
848 [label="id_match_competition <= 64.5\ngini = 0.473\nsamples = 13\nvalue = [5, 8]"] ;
847 -> 848 ;
849 [label="t2_all_total10_fl_match_draw <= 0.5\ngini = 0.469\nsamples = 8\nvalue = [5, 3]"] ;
848 -> 849 ;
850 [label="id_match_competition <= 48.5\ngini = 0.278\nsamples = 6\nvalue = [5, 1]"] ;
849 -> 850 ;
851 [label="gini = 0.0\nsamples = 1\nvalue = [0, 1]"] ;
850 -> 851 ;
852 [label="gini = 0.0\nsamples = 5\nvalue = [5, 0]"] ;
850 -> 852 ;
853 [label="gini = 0.0\nsamples = 2\nvalue = [0, 2]"] ;
849 -> 853 ;
854 [label="gini = 0.0\nsamples = 5\nvalue = [0, 5]"] ;
848 -> 854 ;
855 [label="id_match_competition <= 86.5\ngini = 0.485\nsamples = 58\nvalue = [34, 24]"] ;
847 -> 855 ;
856 [label="gini = 0.0\nsamples = 9\nvalue = [9, 0]"] ;
855 -> 856 ;
857 [label="id_match_competition <= 98.5\ngini = 0.5\nsamples = 49\nvalue = [25, 24]"] ;
855 -> 857 ;
858 [label="t2_away_total10_fl_match_win <= 0.5\ngini = 0.346\nsamples = 9\nvalue = [2, 7]"] ;
857 -> 858 ;
859 [label="gini = 0.0\nsamples = 7\nvalue = [0, 7]"] ;
858 -> 859 ;
860 [label="gini = 0.0\nsamples = 2\nvalue = [2, 0]"] ;
858 -> 860 ;
861 [label="t1_h2h_total5_fl_match_draw <= 0.5\ngini = 0.489\nsamples = 40\nvalue = [23, 17]"] ;
857 -> 861 ;
862 [label="t1_h2h_home_total5_fl_match_lost <= 0.5\ngini = 0.5\nsamples = 35\nvalue = [18, 17]"] ;
861 -> 862 ;
863 [label="t2_all_total5_fl_match_win <= 0.5\ngini = 0.498\nsamples = 32\nvalue = [15, 17]"] ;
862 -> 863 ;
864 [label="t1_home_total10_fl_match_win <= 0.5\ngini = 0.496\nsamples = 22\nvalue = [12, 10]"] ;
863 -> 864 ;
865 [label="id_match_competition <= 99.5\ngini = 0.475\nsamples = 18\nvalue = [11, 7]"] ;
864 -> 865 ;
866 [label="gini = 0.0\nsamples = 1\nvalue = [0, 1]"] ;
865 -> 866 ;
867 [label="t2_away_total10_fl_match_lost <= 0.5\ngini = 0.457\nsamples = 17\nvalue = [11, 6]"] ;
865 -> 867 ;
868 [label="id_match_competition <= 154.0\ngini = 0.375\nsamples = 12\nvalue = [9, 3]"] ;
867 -> 868 ;
869 [label="t1_all_total10_fl_match_lost <= 0.5\ngini = 0.198\nsamples = 9\nvalue = [8, 1]"] ;
868 -> 869 ;
870 [label="gini = 0.0\nsamples = 4\nvalue = [4, 0]"] ;
869 -> 870 ;
871 [label="t2_h2h_total5_fl_match_lost <= 0.5\ngini = 0.32\nsamples = 5\nvalue = [4, 1]"] ;
869 -> 871 ;
872 [label="id_match_competition <= 124.5\ngini = 0.444\nsamples = 3\nvalue = [2, 1]"] ;
871 -> 872 ;
873 [label="gini = 0.0\nsamples = 1\nvalue = [1, 0]"] ;
872 -> 873 ;
874 [label="gini = 0.5\nsamples = 2\nvalue = [1, 1]"] ;
872 -> 874 ;
875 [label="gini = 0.0\nsamples = 2\nvalue = [2, 0]"] ;
871 -> 875 ;
876 [label="id_match_competition <= 163.5\ngini = 0.444\nsamples = 3\nvalue = [1, 2]"] ;
868 -> 876 ;
877 [label="gini = 0.0\nsamples = 2\nvalue = [0, 2]"] ;
876 -> 877 ;
878 [label="gini = 0.0\nsamples = 1\nvalue = [1, 0]"] ;
876 -> 878 ;
879 [label="t2_all_total10_fl_match_lost <= 1.5\ngini = 0.48\nsamples = 5\nvalue = [2, 3]"] ;
867 -> 879 ;
880 [label="t1_all_total5_fl_match_draw <= 0.5\ngini = 0.444\nsamples = 3\nvalue = [2, 1]"] ;
879 -> 880 ;
881 [label="gini = 0.0\nsamples = 2\nvalue = [2, 0]"] ;
880 -> 881 ;
882 [label="gini = 0.0\nsamples = 1\nvalue = [0, 1]"] ;
880 -> 882 ;
883 [label="gini = 0.0\nsamples = 2\nvalue = [0, 2]"] ;
879 -> 883 ;
884 [label="id_match_competition <= 111.5\ngini = 0.375\nsamples = 4\nvalue = [1, 3]"] ;
864 -> 884 ;
885 [label="gini = 0.0\nsamples = 1\nvalue = [1, 0]"] ;
884 -> 885 ;
886 [label="gini = 0.0\nsamples = 3\nvalue = [0, 3]"] ;
884 -> 886 ;
887 [label="t1_home_total10_fl_match_win <= 0.5\ngini = 0.42\nsamples = 10\nvalue = [3, 7]"] ;
863 -> 887 ;
888 [label="gini = 0.0\nsamples = 6\nvalue = [0, 6]"] ;
887 -> 888 ;
889 [label="t1_h2h_total10_fl_match_win <= 1.5\ngini = 0.375\nsamples = 4\nvalue = [3, 1]"] ;
887 -> 889 ;
890 [label="gini = 0.0\nsamples = 3\nvalue = [3, 0]"] ;
889 -> 890 ;
891 [label="gini = 0.0\nsamples = 1\nvalue = [0, 1]"] ;
889 -> 891 ;
892 [label="gini = 0.0\nsamples = 3\nvalue = [3, 0]"] ;
862 -> 892 ;
893 [label="gini = 0.0\nsamples = 5\nvalue = [5, 0]"] ;
861 -> 893 ;
894 [label="gini = 0.0\nsamples = 4\nvalue = [4, 0]"] ;
846 -> 894 ;
895 [label="id_match_competition <= 169.0\ngini = 0.408\nsamples = 28\nvalue = [8, 20]"] ;
845 -> 895 ;
896 [label="t1_home_total10_fl_match_draw <= 1.5\ngini = 0.355\nsamples = 26\nvalue = [6, 20]"] ;
895 -> 896 ;
897 [label="t2_all_total10_fl_match_lost <= 1.5\ngini = 0.32\nsamples = 25\nvalue = [5, 20]"] ;
896 -> 897 ;
898 [label="t1_all_total5_fl_match_draw <= 0.5\ngini = 0.401\nsamples = 18\nvalue = [5, 13]"] ;
897 -> 898 ;
899 [label="t2_all_total5_fl_match_win <= 0.5\ngini = 0.245\nsamples = 7\nvalue = [1, 6]"] ;
898 -> 899 ;
900 [label="gini = 0.0\nsamples = 5\nvalue = [0, 5]"] ;
899 -> 900 ;
901 [label="t1_all_total5_fl_match_lost <= 0.5\ngini = 0.5\nsamples = 2\nvalue = [1, 1]"] ;
899 -> 901 ;
902 [label="gini = 0.0\nsamples = 1\nvalue = [0, 1]"] ;
901 -> 902 ;
903 [label="gini = 0.0\nsamples = 1\nvalue = [1, 0]"] ;
901 -> 903 ;
904 [label="t1_h2h_home_total10_fl_match_win <= 1.5\ngini = 0.463\nsamples = 11\nvalue = [4, 7]"] ;
898 -> 904 ;
905 [label="t1_h2h_home_total5_fl_match_draw <= 1.5\ngini = 0.42\nsamples = 10\nvalue = [3, 7]"] ;
904 -> 905 ;
906 [label="id_match_competition <= 105.0\ngini = 0.346\nsamples = 9\nvalue = [2, 7]"] ;
905 -> 906 ;
907 [label="t1_all_total5_fl_match_win <= 0.5\ngini = 0.48\nsamples = 5\nvalue = [2, 3]"] ;
906 -> 907 ;
908 [label="gini = 0.0\nsamples = 2\nvalue = [2, 0]"] ;
907 -> 908 ;
909 [label="gini = 0.0\nsamples = 3\nvalue = [0, 3]"] ;
907 -> 909 ;
910 [label="gini = 0.0\nsamples = 4\nvalue = [0, 4]"] ;
906 -> 910 ;
911 [label="gini = 0.0\nsamples = 1\nvalue = [1, 0]"] ;
905 -> 911 ;
912 [label="gini = 0.0\nsamples = 1\nvalue = [1, 0]"] ;
904 -> 912 ;
913 [label="gini = 0.0\nsamples = 7\nvalue = [0, 7]"] ;
897 -> 913 ;
914 [label="gini = 0.0\nsamples = 1\nvalue = [1, 0]"] ;
896 -> 914 ;
915 [label="gini = 0.0\nsamples = 2\nvalue = [2, 0]"] ;
895 -> 915 ;
916 [label="t2_all_total5_fl_match_draw <= 0.5\ngini = 0.346\nsamples = 18\nvalue = [14, 4]"] ;
844 -> 916 ;
917 [label="t2_h2h_away_total10_fl_match_lost <= 1.5\ngini = 0.231\nsamples = 15\nvalue = [13, 2]"] ;
916 -> 917 ;
918 [label="gini = 0.0\nsamples = 9\nvalue = [9, 0]"] ;
917 -> 918 ;
919 [label="t1_h2h_home_total10_fl_match_win <= 2.5\ngini = 0.444\nsamples = 6\nvalue = [4, 2]"] ;
917 -> 919 ;
920 [label="gini = 0.0\nsamples = 2\nvalue = [0, 2]"] ;
919 -> 920 ;
921 [label="gini = 0.0\nsamples = 4\nvalue = [4, 0]"] ;
919 -> 921 ;
922 [label="t1_home_total10_fl_match_win <= 0.5\ngini = 0.444\nsamples = 3\nvalue = [1, 2]"] ;
916 -> 922 ;
923 [label="gini = 0.0\nsamples = 2\nvalue = [0, 2]"] ;
922 -> 923 ;
924 [label="gini = 0.0\nsamples = 1\nvalue = [1, 0]"] ;
922 -> 924 ;
925 [label="t1_all_total10_fl_match_lost <= 0.5\ngini = 0.486\nsamples = 204\nvalue = [85, 119]"] ;
843 -> 925 ;
926 [label="t2_h2h_total10_fl_match_lost <= 3.5\ngini = 0.44\nsamples = 92\nvalue = [30, 62]"] ;
925 -> 926 ;
927 [label="id_match_competition <= 913.0\ngini = 0.457\nsamples = 85\nvalue = [30, 55]"] ;
926 -> 927 ;
928 [label="id_match_competition <= 438.5\ngini = 0.447\nsamples = 83\nvalue = [28, 55]"] ;
927 -> 928 ;
929 [label="t1_all_total5_fl_match_win <= 0.5\ngini = 0.493\nsamples = 43\nvalue = [19, 24]"] ;
928 -> 929 ;
930 [label="t2_h2h_away_total5_fl_match_draw <= 1.5\ngini = 0.401\nsamples = 18\nvalue = [5, 13]"] ;
929 -> 930 ;
931 [label="id_match_competition <= 369.0\ngini = 0.305\nsamples = 16\nvalue = [3, 13]"] ;
930 -> 931 ;
932 [label="t2_h2h_total5_fl_match_lost <= 1.5\ngini = 0.231\nsamples = 15\nvalue = [2, 13]"] ;
931 -> 932 ;
933 [label="t1_home_total5_fl_match_draw <= 0.5\ngini = 0.142\nsamples = 13\nvalue = [1, 12]"] ;
932 -> 933 ;
934 [label="t2_h2h_total5_fl_match_draw <= 0.5\ngini = 0.32\nsamples = 5\nvalue = [1, 4]"] ;
933 -> 934 ;
935 [label="t2_away_total10_fl_match_lost <= 0.5\ngini = 0.5\nsamples = 2\nvalue = [1, 1]"] ;
934 -> 935 ;
936 [label="gini = 0.0\nsamples = 1\nvalue = [1, 0]"] ;
935 -> 936 ;
937 [label="gini = 0.0\nsamples = 1\nvalue = [0, 1]"] ;
935 -> 937 ;
938 [label="gini = 0.0\nsamples = 3\nvalue = [0, 3]"] ;
934 -> 938 ;
939 [label="gini = 0.0\nsamples = 8\nvalue = [0, 8]"] ;
933 -> 939 ;
940 [label="t1_all_total5_fl_match_draw <= 1.5\ngini = 0.5\nsamples = 2\nvalue = [1, 1]"] ;
932 -> 940 ;
941 [label="gini = 0.0\nsamples = 1\nvalue = [1, 0]"] ;
940 -> 941 ;
942 [label="gini = 0.0\nsamples = 1\nvalue = [0, 1]"] ;
940 -> 942 ;
943 [label="gini = 0.0\nsamples = 1\nvalue = [1, 0]"] ;
931 -> 943 ;
944 [label="gini = 0.0\nsamples = 2\nvalue = [2, 0]"] ;
930 -> 944 ;
945 [label="t1_h2h_home_total10_fl_match_lost <= 0.5\ngini = 0.493\nsamples = 25\nvalue = [14, 11]"] ;
929 -> 945 ;
946 [label="t1_home_total5_fl_match_draw <= 0.5\ngini = 0.415\nsamples = 17\nvalue = [12, 5]"] ;
945 -> 946 ;
947 [label="t2_all_total5_fl_match_win <= 0.5\ngini = 0.26\nsamples = 13\nvalue = [11, 2]"] ;
946 -> 947 ;
948 [label="t1_h2h_total10_fl_match_draw <= 0.5\ngini = 0.346\nsamples = 9\nvalue = [7, 2]"] ;
947 -> 948 ;
949 [label="id_match_competition <= 232.0\ngini = 0.444\nsamples = 6\nvalue = [4, 2]"] ;
948 -> 949 ;
950 [label="t2_all_total10_fl_match_lost <= 1.5\ngini = 0.32\nsamples = 5\nvalue = [4, 1]"] ;
949 -> 950 ;
951 [label="gini = 0.0\nsamples = 3\nvalue = [3, 0]"] ;
950 -> 951 ;
952 [label="id_match_competition <= 202.5\ngini = 0.5\nsamples = 2\nvalue = [1, 1]"] ;
950 -> 952 ;
953 [label="gini = 0.0\nsamples = 1\nvalue = [1, 0]"] ;
952 -> 953 ;
954 [label="gini = 0.0\nsamples = 1\nvalue = [0, 1]"] ;
952 -> 954 ;
955 [label="gini = 0.0\nsamples = 1\nvalue = [0, 1]"] ;
949 -> 955 ;
956 [label="gini = 0.0\nsamples = 3\nvalue = [3, 0]"] ;
948 -> 956 ;
957 [label="gini = 0.0\nsamples = 4\nvalue = [4, 0]"] ;
947 -> 957 ;
958 [label="t1_h2h_total5_fl_match_lost <= 0.5\ngini = 0.375\nsamples = 4\nvalue = [1, 3]"] ;
946 -> 958 ;
959 [label="gini = 0.0\nsamples = 3\nvalue = [0, 3]"] ;
958 -> 959 ;
960 [label="gini = 0.0\nsamples = 1\nvalue = [1, 0]"] ;
958 -> 960 ;
961 [label="id_match_competition <= 242.5\ngini = 0.375\nsamples = 8\nvalue = [2, 6]"] ;
945 -> 961 ;
962 [label="gini = 0.0\nsamples = 5\nvalue = [0, 5]"] ;
961 -> 962 ;
963 [label="t2_h2h_total10_fl_match_draw <= 2.0\ngini = 0.444\nsamples = 3\nvalue = [2, 1]"] ;
961 -> 963 ;
964 [label="gini = 0.0\nsamples = 2\nvalue = [2, 0]"] ;
963 -> 964 ;
965 [label="gini = 0.0\nsamples = 1\nvalue = [0, 1]"] ;
963 -> 965 ;
966 [label="t1_all_total10_fl_match_draw <= 3.0\ngini = 0.349\nsamples = 40\nvalue = [9, 31]"] ;
928 -> 966 ;
967 [label="t2_all_total5_fl_match_lost <= 1.5\ngini = 0.326\nsamples = 39\nvalue = [8, 31]"] ;
966 -> 967 ;
968 [label="t1_h2h_total5_fl_match_lost <= 0.5\ngini = 0.271\nsamples = 31\nvalue = [5, 26]"] ;
967 -> 968 ;
969 [label="id_match_competition <= 838.0\ngini = 0.1\nsamples = 19\nvalue = [1, 18]"] ;
968 -> 969 ;
970 [label="gini = 0.0\nsamples = 11\nvalue = [0, 11]"] ;
969 -> 970 ;
971 [label="id_match_competition <= 864.5\ngini = 0.219\nsamples = 8\nvalue = [1, 7]"] ;
969 -> 971 ;
972 [label="t1_h2h_total5_fl_match_win <= 0.5\ngini = 0.444\nsamples = 3\nvalue = [1, 2]"] ;
971 -> 972 ;
973 [label="t2_away_total10_fl_match_lost <= 0.5\ngini = 0.5\nsamples = 2\nvalue = [1, 1]"] ;
972 -> 973 ;
974 [label="gini = 0.0\nsamples = 1\nvalue = [1, 0]"] ;
973 -> 974 ;
975 [label="gini = 0.0\nsamples = 1\nvalue = [0, 1]"] ;
973 -> 975 ;
976 [label="gini = 0.0\nsamples = 1\nvalue = [0, 1]"] ;
972 -> 976 ;
977 [label="gini = 0.0\nsamples = 5\nvalue = [0, 5]"] ;
971 -> 977 ;
978 [label="t2_all_total10_fl_match_draw <= 0.5\ngini = 0.444\nsamples = 12\nvalue = [4, 8]"] ;
968 -> 978 ;
979 [label="t1_home_total5_fl_match_win <= 0.5\ngini = 0.397\nsamples = 11\nvalue = [3, 8]"] ;
978 -> 979 ;
980 [label="id_match_competition <= 719.0\ngini = 0.32\nsamples = 10\nvalue = [2, 8]"] ;
979 -> 980 ;
981 [label="gini = 0.0\nsamples = 4\nvalue = [0, 4]"] ;
980 -> 981 ;
982 [label="t1_h2h_total10_fl_match_draw <= 2.5\ngini = 0.444\nsamples = 6\nvalue = [2, 4]"] ;
980 -> 982 ;
983 [label="t2_h2h_total5_fl_match_draw <= 0.5\ngini = 0.444\nsamples = 3\nvalue = [2, 1]"] ;
982 -> 983 ;
984 [label="gini = 0.0\nsamples = 1\nvalue = [0, 1]"] ;
983 -> 984 ;
985 [label="gini = 0.0\nsamples = 2\nvalue = [2, 0]"] ;
983 -> 985 ;
986 [label="gini = 0.0\nsamples = 3\nvalue = [0, 3]"] ;
982 -> 986 ;
987 [label="gini = 0.0\nsamples = 1\nvalue = [1, 0]"] ;
979 -> 987 ;
988 [label="gini = 0.0\nsamples = 1\nvalue = [1, 0]"] ;
978 -> 988 ;
989 [label="t1_all_total10_fl_match_win <= 0.5\ngini = 0.469\nsamples = 8\nvalue = [3, 5]"] ;
967 -> 989 ;
990 [label="gini = 0.0\nsamples = 2\nvalue = [2, 0]"] ;
989 -> 990 ;
991 [label="id_match_competition <= 540.5\ngini = 0.278\nsamples = 6\nvalue = [1, 5]"] ;
989 -> 991 ;
992 [label="id_match_competition <= 533.5\ngini = 0.444\nsamples = 3\nvalue = [1, 2]"] ;
991 -> 992 ;
993 [label="gini = 0.0\nsamples = 2\nvalue = [0, 2]"] ;
992 -> 993 ;
994 [label="gini = 0.0\nsamples = 1\nvalue = [1, 0]"] ;
992 -> 994 ;
995 [label="gini = 0.0\nsamples = 3\nvalue = [0, 3]"] ;
991 -> 995 ;
996 [label="gini = 0.0\nsamples = 1\nvalue = [1, 0]"] ;
966 -> 996 ;
997 [label="gini = 0.0\nsamples = 2\nvalue = [2, 0]"] ;
927 -> 997 ;
998 [label="gini = 0.0\nsamples = 7\nvalue = [0, 7]"] ;
926 -> 998 ;
999 [label="t2_away_total5_fl_match_lost <= 0.5\ngini = 0.5\nsamples = 112\nvalue = [55, 57]"] ;
925 -> 999 ;
1000 [label="id_match_competition <= 219.5\ngini = 0.422\nsamples = 33\nvalue = [23, 10]"] ;
999 -> 1000 ;
1001 [label="t2_all_total10_fl_match_lost <= 1.5\ngini = 0.444\nsamples = 12\nvalue = [4, 8]"] ;
1000 -> 1001 ;
1002 [label="t2_h2h_total10_fl_match_win <= 0.5\ngini = 0.397\nsamples = 11\nvalue = [3, 8]"] ;
1001 -> 1002 ;
1003 [label="id_match_competition <= 186.5\ngini = 0.49\nsamples = 7\nvalue = [3, 4]"] ;
1002 -> 1003 ;
1004 [label="gini = 0.0\nsamples = 1\nvalue = [1, 0]"] ;
1003 -> 1004 ;
1005 [label="id_match_competition <= 205.0\ngini = 0.444\nsamples = 6\nvalue = [2, 4]"] ;
1003 -> 1005 ;
1006 [label="gini = 0.0\nsamples = 3\nvalue = [0, 3]"] ;
1005 -> 1006 ;
1007 [label="t1_h2h_home_total5_fl_match_win <= 0.5\ngini = 0.444\nsamples = 3\nvalue = [2, 1]"] ;
1005 -> 1007 ;
1008 [label="id_match_competition <= 211.0\ngini = 0.5\nsamples = 2\nvalue = [1, 1]"] ;
1007 -> 1008 ;
1009 [label="gini = 0.0\nsamples = 1\nvalue = [1, 0]"] ;
1008 -> 1009 ;
1010 [label="gini = 0.0\nsamples = 1\nvalue = [0, 1]"] ;
1008 -> 1010 ;
1011 [label="gini = 0.0\nsamples = 1\nvalue = [1, 0]"] ;
1007 -> 1011 ;
1012 [label="gini = 0.0\nsamples = 4\nvalue = [0, 4]"] ;
1002 -> 1012 ;
1013 [label="gini = 0.0\nsamples = 1\nvalue = [1, 0]"] ;
1001 -> 1013 ;
1014 [label="t1_home_total10_fl_match_draw <= 0.5\ngini = 0.172\nsamples = 21\nvalue = [19, 2]"] ;
1000 -> 1014 ;
1015 [label="t2_all_total10_fl_match_win <= 0.5\ngini = 0.111\nsamples = 17\nvalue = [16, 1]"] ;
1014 -> 1015 ;
1016 [label="gini = 0.0\nsamples = 14\nvalue = [14, 0]"] ;
1015 -> 1016 ;
1017 [label="t1_all_total10_fl_match_draw <= 0.5\ngini = 0.444\nsamples = 3\nvalue = [2, 1]"] ;
1015 -> 1017 ;
1018 [label="gini = 0.0\nsamples = 1\nvalue = [0, 1]"] ;
1017 -> 1018 ;
1019 [label="gini = 0.0\nsamples = 2\nvalue = [2, 0]"] ;
1017 -> 1019 ;
1020 [label="t2_h2h_total10_fl_match_lost <= 0.5\ngini = 0.375\nsamples = 4\nvalue = [3, 1]"] ;
1014 -> 1020 ;
1021 [label="gini = 0.0\nsamples = 3\nvalue = [3, 0]"] ;
1020 -> 1021 ;
1022 [label="gini = 0.0\nsamples = 1\nvalue = [0, 1]"] ;
1020 -> 1022 ;
1023 [label="t2_h2h_away_total5_fl_match_win <= 0.5\ngini = 0.482\nsamples = 79\nvalue = [32, 47]"] ;
999 -> 1023 ;
1024 [label="t1_h2h_home_total5_fl_match_draw <= 0.5\ngini = 0.499\nsamples = 62\nvalue = [30, 32]"] ;
1023 -> 1024 ;
1025 [label="id_match_competition <= 218.5\ngini = 0.485\nsamples = 46\nvalue = [19, 27]"] ;
1024 -> 1025 ;
1026 [label="gini = 0.0\nsamples = 5\nvalue = [0, 5]"] ;
1025 -> 1026 ;
1027 [label="id_match_competition <= 250.0\ngini = 0.497\nsamples = 41\nvalue = [19, 22]"] ;
1025 -> 1027 ;
1028 [label="t1_home_total10_fl_match_draw <= 0.5\ngini = 0.32\nsamples = 10\nvalue = [8, 2]"] ;
1027 -> 1028 ;
1029 [label="t2_h2h_total5_fl_match_lost <= 0.5\ngini = 0.48\nsamples = 5\nvalue = [3, 2]"] ;
1028 -> 1029 ;
1030 [label="id_match_competition <= 231.5\ngini = 0.444\nsamples = 3\nvalue = [1, 2]"] ;
1029 -> 1030 ;
1031 [label="t1_all_total5_fl_match_draw <= 0.5\ngini = 0.5\nsamples = 2\nvalue = [1, 1]"] ;
1030 -> 1031 ;
1032 [label="gini = 0.0\nsamples = 1\nvalue = [1, 0]"] ;
1031 -> 1032 ;
1033 [label="gini = 0.0\nsamples = 1\nvalue = [0, 1]"] ;
1031 -> 1033 ;
1034 [label="gini = 0.0\nsamples = 1\nvalue = [0, 1]"] ;
1030 -> 1034 ;
1035 [label="gini = 0.0\nsamples = 2\nvalue = [2, 0]"] ;
1029 -> 1035 ;
1036 [label="gini = 0.0\nsamples = 5\nvalue = [5, 0]"] ;
1028 -> 1036 ;
1037 [label="id_match_competition <= 369.0\ngini = 0.458\nsamples = 31\nvalue = [11, 20]"] ;
1027 -> 1037 ;
1038 [label="gini = 0.0\nsamples = 3\nvalue = [0, 3]"] ;
1037 -> 1038 ;
1039 [label="id_match_competition <= 468.5\ngini = 0.477\nsamples = 28\nvalue = [11, 17]"] ;
1037 -> 1039 ;
1040 [label="gini = 0.0\nsamples = 2\nvalue = [2, 0]"] ;
1039 -> 1040 ;
1041 [label="id_match_competition <= 540.5\ngini = 0.453\nsamples = 26\nvalue = [9, 17]"] ;
1039 -> 1041 ;
1042 [label="gini = 0.0\nsamples = 3\nvalue = [0, 3]"] ;
1041 -> 1042 ;
1043 [label="id_match_competition <= 576.0\ngini = 0.476\nsamples = 23\nvalue = [9, 14]"] ;
1041 -> 1043 ;
1044 [label="gini = 0.0\nsamples = 1\nvalue = [1, 0]"] ;
1043 -> 1044 ;
1045 [label="id_match_competition <= 837.0\ngini = 0.463\nsamples = 22\nvalue = [8, 14]"] ;
1043 -> 1045 ;
1046 [label="gini = 0.0\nsamples = 3\nvalue = [0, 3]"] ;
1045 -> 1046 ;
1047 [label="id_match_competition <= 862.5\ngini = 0.488\nsamples = 19\nvalue = [8, 11]"] ;
1045 -> 1047 ;
1048 [label="gini = 0.0\nsamples = 1\nvalue = [1, 0]"] ;
1047 -> 1048 ;
1049 [label="t1_home_total10_fl_match_draw <= 0.5\ngini = 0.475\nsamples = 18\nvalue = [7, 11]"] ;
1047 -> 1049 ;
1050 [label="t1_h2h_total5_fl_match_lost <= 0.5\ngini = 0.5\nsamples = 12\nvalue = [6, 6]"] ;
1049 -> 1050 ;
1051 [label="t1_all_total5_fl_match_draw <= 1.5\ngini = 0.496\nsamples = 11\nvalue = [5, 6]"] ;
1050 -> 1051 ;
1052 [label="id_match_competition <= 965.5\ngini = 0.48\nsamples = 10\nvalue = [4, 6]"] ;
1051 -> 1052 ;
1053 [label="t1_all_total5_fl_match_win <= 0.5\ngini = 0.32\nsamples = 5\nvalue = [1, 4]"] ;
1052 -> 1053 ;
1054 [label="t2_all_total10_fl_match_win <= 0.5\ngini = 0.5\nsamples = 2\nvalue = [1, 1]"] ;
1053 -> 1054 ;
1055 [label="gini = 0.0\nsamples = 1\nvalue = [1, 0]"] ;
1054 -> 1055 ;
1056 [label="gini = 0.0\nsamples = 1\nvalue = [0, 1]"] ;
1054 -> 1056 ;
1057 [label="gini = 0.0\nsamples = 3\nvalue = [0, 3]"] ;
1053 -> 1057 ;
1058 [label="t2_all_total10_fl_match_lost <= 1.5\ngini = 0.48\nsamples = 5\nvalue = [3, 2]"] ;
1052 -> 1058 ;
1059 [label="t1_all_total10_fl_match_draw <= 0.5\ngini = 0.444\nsamples = 3\nvalue = [1, 2]"] ;
1058 -> 1059 ;
1060 [label="gini = 0.0\nsamples = 1\nvalue = [0, 1]"] ;
1059 -> 1060 ;
1061 [label="t2_away_total10_fl_match_win <= 0.5\ngini = 0.5\nsamples = 2\nvalue = [1, 1]"] ;
1059 -> 1061 ;
1062 [label="gini = 0.0\nsamples = 1\nvalue = [1, 0]"] ;
1061 -> 1062 ;
1063 [label="gini = 0.0\nsamples = 1\nvalue = [0, 1]"] ;
1061 -> 1063 ;
1064 [label="gini = 0.0\nsamples = 2\nvalue = [2, 0]"] ;
1058 -> 1064 ;
1065 [label="gini = 0.0\nsamples = 1\nvalue = [1, 0]"] ;
1051 -> 1065 ;
1066 [label="gini = 0.0\nsamples = 1\nvalue = [1, 0]"] ;
1050 -> 1066 ;
1067 [label="t1_all_total5_fl_match_win <= 0.5\ngini = 0.278\nsamples = 6\nvalue = [1, 5]"] ;
1049 -> 1067 ;
1068 [label="t1_h2h_total5_fl_match_lost <= 0.5\ngini = 0.444\nsamples = 3\nvalue = [1, 2]"] ;
1067 -> 1068 ;
1069 [label="id_match_competition <= 982.0\ngini = 0.5\nsamples = 2\nvalue = [1, 1]"] ;
1068 -> 1069 ;
1070 [label="gini = 0.0\nsamples = 1\nvalue = [1, 0]"] ;
1069 -> 1070 ;
1071 [label="gini = 0.0\nsamples = 1\nvalue = [0, 1]"] ;
1069 -> 1071 ;
1072 [label="gini = 0.0\nsamples = 1\nvalue = [0, 1]"] ;
1068 -> 1072 ;
1073 [label="gini = 0.0\nsamples = 3\nvalue = [0, 3]"] ;
1067 -> 1073 ;
1074 [label="t2_h2h_total5_fl_match_draw <= 2.5\ngini = 0.43\nsamples = 16\nvalue = [11, 5]"] ;
1024 -> 1074 ;
1075 [label="t1_h2h_home_total10_fl_match_win <= 5.0\ngini = 0.391\nsamples = 15\nvalue = [11, 4]"] ;
1074 -> 1075 ;
1076 [label="t2_h2h_away_total5_fl_match_lost <= 0.5\ngini = 0.337\nsamples = 14\nvalue = [11, 3]"] ;
1075 -> 1076 ;
1077 [label="t1_home_total5_fl_match_lost <= 0.5\ngini = 0.49\nsamples = 7\nvalue = [4, 3]"] ;
1076 -> 1077 ;
1078 [label="id_match_competition <= 253.0\ngini = 0.48\nsamples = 5\nvalue = [2, 3]"] ;
1077 -> 1078 ;
1079 [label="gini = 0.0\nsamples = 1\nvalue = [1, 0]"] ;
1078 -> 1079 ;
1080 [label="t2_all_total5_fl_match_win <= 0.5\ngini = 0.375\nsamples = 4\nvalue = [1, 3]"] ;
1078 -> 1080 ;
1081 [label="gini = 0.0\nsamples = 1\nvalue = [1, 0]"] ;
1080 -> 1081 ;
1082 [label="gini = 0.0\nsamples = 3\nvalue = [0, 3]"] ;
1080 -> 1082 ;
1083 [label="gini = 0.0\nsamples = 2\nvalue = [2, 0]"] ;
1077 -> 1083 ;
1084 [label="gini = 0.0\nsamples = 7\nvalue = [7, 0]"] ;
1076 -> 1084 ;
1085 [label="gini = 0.0\nsamples = 1\nvalue = [0, 1]"] ;
1075 -> 1085 ;
1086 [label="gini = 0.0\nsamples = 1\nvalue = [0, 1]"] ;
1074 -> 1086 ;
1087 [label="t2_all_total5_fl_match_lost <= 1.5\ngini = 0.208\nsamples = 17\nvalue = [2, 15]"] ;
1023 -> 1087 ;
1088 [label="gini = 0.0\nsamples = 9\nvalue = [0, 9]"] ;
1087 -> 1088 ;
1089 [label="id_match_competition <= 344.0\ngini = 0.375\nsamples = 8\nvalue = [2, 6]"] ;
1087 -> 1089 ;
1090 [label="gini = 0.0\nsamples = 3\nvalue = [0, 3]"] ;
1089 -> 1090 ;
1091 [label="t1_all_total10_fl_match_draw <= 0.5\ngini = 0.48\nsamples = 5\nvalue = [2, 3]"] ;
1089 -> 1091 ;
1092 [label="gini = 0.0\nsamples = 2\nvalue = [0, 2]"] ;
1091 -> 1092 ;
1093 [label="t2_h2h_total5_fl_match_lost <= 1.5\ngini = 0.444\nsamples = 3\nvalue = [2, 1]"] ;
1091 -> 1093 ;
1094 [label="gini = 0.0\nsamples = 2\nvalue = [2, 0]"] ;
1093 -> 1094 ;
1095 [label="gini = 0.0\nsamples = 1\nvalue = [0, 1]"] ;
1093 -> 1095 ;
1096 [label="t1_h2h_home_total5_fl_match_win <= 2.5\ngini = 0.32\nsamples = 10\nvalue = [8, 2]"] ;
842 -> 1096 ;
1097 [label="t2_all_total10_fl_match_win <= 1.5\ngini = 0.198\nsamples = 9\nvalue = [8, 1]"] ;
1096 -> 1097 ;
1098 [label="gini = 0.0\nsamples = 8\nvalue = [8, 0]"] ;
1097 -> 1098 ;
1099 [label="gini = 0.0\nsamples = 1\nvalue = [0, 1]"] ;
1097 -> 1099 ;
1100 [label="gini = 0.0\nsamples = 1\nvalue = [0, 1]"] ;
1096 -> 1100 ;
1101 [label="t1_h2h_total10_fl_match_draw <= 4.5\ngini = 0.457\nsamples = 51\nvalue = [33, 18]"] ;
841 -> 1101 ;
1102 [label="id_match_competition <= 5170.0\ngini = 0.43\nsamples = 48\nvalue = [33, 15]"] ;
1101 -> 1102 ;
1103 [label="t1_all_total10_fl_match_draw <= 1.5\ngini = 0.405\nsamples = 46\nvalue = [33, 13]"] ;
1102 -> 1103 ;
1104 [label="t1_h2h_total10_fl_match_draw <= 0.5\ngini = 0.45\nsamples = 38\nvalue = [25, 13]"] ;
1103 -> 1104 ;
1105 [label="gini = 0.0\nsamples = 2\nvalue = [0, 2]"] ;
1104 -> 1105 ;
1106 [label="t2_all_total5_fl_match_draw <= 0.5\ngini = 0.424\nsamples = 36\nvalue = [25, 11]"] ;
1104 -> 1106 ;
1107 [label="t1_h2h_home_total10_fl_match_lost <= 0.5\ngini = 0.337\nsamples = 28\nvalue = [22, 6]"] ;
1106 -> 1107 ;
1108 [label="t2_all_total5_fl_match_win <= 0.5\ngini = 0.48\nsamples = 5\nvalue = [2, 3]"] ;
1107 -> 1108 ;
1109 [label="gini = 0.0\nsamples = 3\nvalue = [0, 3]"] ;
1108 -> 1109 ;
1110 [label="gini = 0.0\nsamples = 2\nvalue = [2, 0]"] ;
1108 -> 1110 ;
1111 [label="t2_all_total10_fl_match_lost <= 1.5\ngini = 0.227\nsamples = 23\nvalue = [20, 3]"] ;
1107 -> 1111 ;
1112 [label="id_match_competition <= 475.0\ngini = 0.172\nsamples = 21\nvalue = [19, 2]"] ;
1111 -> 1112 ;
1113 [label="gini = 0.0\nsamples = 14\nvalue = [14, 0]"] ;
1112 -> 1113 ;
1114 [label="id_match_competition <= 888.0\ngini = 0.408\nsamples = 7\nvalue = [5, 2]"] ;
1112 -> 1114 ;
1115 [label="gini = 0.0\nsamples = 2\nvalue = [0, 2]"] ;
1114 -> 1115 ;
1116 [label="gini = 0.0\nsamples = 5\nvalue = [5, 0]"] ;
1114 -> 1116 ;
1117 [label="t2_all_total5_fl_match_win <= 1.0\ngini = 0.5\nsamples = 2\nvalue = [1, 1]"] ;
1111 -> 1117 ;
1118 [label="gini = 0.0\nsamples = 1\nvalue = [0, 1]"] ;
1117 -> 1118 ;
1119 [label="gini = 0.0\nsamples = 1\nvalue = [1, 0]"] ;
1117 -> 1119 ;
1120 [label="t1_all_total5_fl_match_lost <= 0.5\ngini = 0.469\nsamples = 8\nvalue = [3, 5]"] ;
1106 -> 1120 ;
1121 [label="gini = 0.0\nsamples = 2\nvalue = [2, 0]"] ;
1120 -> 1121 ;
1122 [label="t2_h2h_total10_fl_match_draw <= 1.5\ngini = 0.278\nsamples = 6\nvalue = [1, 5]"] ;
1120 -> 1122 ;
1123 [label="t1_all_total10_fl_match_win <= 0.5\ngini = 0.5\nsamples = 2\nvalue = [1, 1]"] ;
1122 -> 1123 ;
1124 [label="gini = 0.0\nsamples = 1\nvalue = [1, 0]"] ;
1123 -> 1124 ;
1125 [label="gini = 0.0\nsamples = 1\nvalue = [0, 1]"] ;
1123 -> 1125 ;
1126 [label="gini = 0.0\nsamples = 4\nvalue = [0, 4]"] ;
1122 -> 1126 ;
1127 [label="gini = 0.0\nsamples = 8\nvalue = [8, 0]"] ;
1103 -> 1127 ;
